{"learner":{"attributes":{"scikit_learn":"{\"_estimator_type\": \"classifier\"}"},"feature_names":["command","num_words","mean_word_len","num_unique_words","num_chars","num_words_upper","num_punctuations","entropy_words","total_words","unique_word","total_voals","unique_voals","entropy_voals","total_cons","unique_cons","entropy_cons"],"feature_types":["c","int","float","int","int","int","int","float","int","int","int","int","float","int","int","float"],"gradient_booster":{"model":{"cats":{"enc":[{"offsets":[0,20,53,75,83,101,113,131,167,201,243,256,259,278,292,318,338,355,371,387,405,435,458,479,499,528,575,603,618,633,657,682,708,774,801,827,856,880,906,937,962,989,1021,1040,1068,1083,1100,1121,1150,1163,1179,1205,1232,1249,1267,1275,1289,1299,1316,1340,1351,1385,1425,1460,1501,1543,1578,1610,1642,1681,1716,1776,1794,1803,1818,1839,1883,1915,1953,1965,1990,2014,2042,2066,2115,2142,2181,2224,2274,2318,2368,2418,2468,2487,2502,2530,2571,2592,2594,2602,2606,2611,2623,2636,2650,2668,2685,2719,2739,2754,2765,2770,2783,2796,2810,2824,2852,2873,2885,2907,2911,2924,2939,2948,2961,2972,2978,3008,3017,3045,3061,3072,3079,3087,3096,3123,3148,3158,3169,3180,3195,3225,3246,3258,3272,3281,3302,3323,3345,3363,3384,3411,3431,3448,3453,3460,3478,3486,3508,3524,3539,3585,3640,3669,3679,3771,3782,3813,3839,3868,4016,4165,4265,4446,4491,4535,4579,4673,4768,4856,4993,5053,5143,5227,5324,5432,5521,5628,5799,5981,6151,6243,6325,6358,6386,6413,6441,6475,6505,6534,6564,6593,6638,6673,6704,6734,6765,6811,6843,6871,6898,6926,6953,6996,7012,7018,7036,7067,7101,7122,7147,7157,7177,7191,7222,7287,7315,7343,7371,7421,7470,7496,7524,7555,7583,7587,7601,7610,7642,7675,7705,7739,7773,7807,7829,7861,7883,7912,7944,7958,7964,7998,8056,8104,8162,8228,8284,8332,8354,8386,8408,8432,8447,8479,8486,8508,8534,8546,8550,8582,8598,8606,8614,8622,8638,8648,8650,8660,8677,8679,8682,8695,8718,8723,8728,8747,8766,8778,8802,8809,8845,8881,8896,8914,8927,8946,8964,8981,8984,8995,9010,9041,9057,9079,9084,9095,9106,9117,9131,9170,9188,9211,9239,9267,9290,9307,9342,9378,9386,9401,9421,9437,9454,9469,9499,9583,9607,9622,9631,9641,9651,9670,9716,9743,9753,9760,9784,9808,9832,9849,9865,9880,9883,9908,9939,9964,9990,10005,10035,10057,10086,10102,10119,10137,10168,10194,10221,10239,10258,10278,10318,10335,10352,10367,10389,10405,10424,10448,10452,10463,10474,10506,10539,10578,10621,10647,10666,10686,10694,10700,10703,10709,10722,10819,10875,10910,10945,10975,11003,11019,11037,11061,11076,11099,11116,11123,11137,11173,11190,11209,11224,11241,11284,11320,11353,11359,11374,11383,11393,11401,11426,11434,11442,11450,11461,11473,11484,11496,11507,11519,11530,11541,11565,11577,11602,11614,11624,11643,11659,11686,11700,11712,11715,11720,11736,11767,11839,11866,11904,11936,12050,12168,12208,12251,12274,12309,12352,12375,12438,12486,12507,12561,12568,12598,12623,12647,12665,12690,12713,12750,12773,12797,12820,12859,12897,12914,12941,12957,12967,12971,12974,12992,13004,13012,13015,13028,13057,13072,13090,13103,13140,13155,13181,13195,13208,13232,13243,13263,13275,13285,13322,13343,13360,13378,13393],"values":[46,47,100,111,99,107,101,114,43,65,67,48,45,99,111,109,112,111,115,101,46,47,100,111,99,107,101,114,43,65,67,48,45,99,111,109,112,111,115,101,32,43,65,67,48,45,118,101,114,115,105,111,110,46,47,104,112,108,105,112,43,65,67,48,45,51,46,49,57,46,56,46,114,117,110,46,47,109,97,116,108,97,98,46,47,115,117,98,108,105,109,101,43,65,70,56,45,116,101,120,116,46,47,115,117,98,108,105,109,101,46,112,121,46,47,116,101,115,116,43,65,70,56,45,99,117,114,108,46,115,104,46,47,116,101,115,116,43,65,70,56,45,99,117,114,108,46,115,104,32,43,65,68,52,45,32,116,101,115,116,101,114,46,104,116,109,108,46,47,117,115,114,47,108,111,99,97,108,47,98,105,110,47,100,111,99,107,101,114,43,65,67,48,45,99,111,109,112,111,115,101,47,117,115,114,47,98,105,110,47,109,121,115,113,108,43,65,70,56,45,115,101,99,117,114,101,43,65,70,56,45,105,110,115,116,97,108,108,97,116,105,111,110,58,40,41,123,32,58,124,58,38,32,125,59,58,97,112,116,97,112,116,32,32,110,118,105,100,105,97,43,65,67,48,45,52,49,53,97,112,116,32,105,110,102,111,32,108,105,110,117,120,97,112,116,32,105,110,115,116,97,108,108,32,97,112,97,99,104,101,50,32,43,65,67,48,45,121,97,112,116,32,105,110,115,116,97,108,108,32,99,111,109,112,111,115,101,114,97,112,116,32,105,110,115,116,97,108,108,32,99,111,110,100,97,97,112,116,32,105,110,115,116,97,108,108,32,99,117,114,108,97,112,116,32,105,110,115,116,97,108,108,32,100,105,114,98,97,112,116,32,105,110,115,116,97,108,108,32,100,111,99,107,101,114,97,112,116,32,105,110,115,116,97,108,108,32,100,111,99,107,101,114,43,65,67,48,45,99,111,109,112,111,115,101,97,112,116,32,105,110,115,116,97,108,108,32,101,120,116,43,65,67,48,45,100,111,109,97,112,116,32,105,110,115,116,97,108,108,32,102,105,108,101,122,105,108,108,97,97,112,116,32,105,110,115,116,97,108,108,32,107,101,101,112,97,115,115,120,97,112,116,32,105,110,115,116,97,108,108,32,108,105,110,117,120,43,65,67,48,45,103,101,110,101,114,105,99,97,112,116,32,105,110,115,116,97,108,108,32,108,105,110,117,120,43,65,67,48,45,103,101,110,101,114,105,99,43,65,67,48,45,104,119,101,43,65,67,48,45,49,54,46,48,52,97,112,116,32,105,110,115,116,97,108,108,32,109,121,115,113,108,43,65,67,48,45,115,101,114,118,101,114,97,112,116,32,105,110,115,116,97,108,108,32,110,112,109,97,112,116,32,105,110,115,116,97,108,108,32,112,104,112,97,112,116,32,105,110,115,116,97,108,108,32,112,104,112,43,65,67,48,45,99,117,114,108,97,112,116,32,105,110,115,116,97,108,108,32,112,104,112,53,43,65,67,48,45,99,117,114,108,97,112,116,32,105,110,115,116,97,108,108,32,112,104,112,55,46,48,43,65,67,48,45,120,109,108,97,112,116,32,105,110,115,116,97,108,108,32,112,104,112,55,46,50,32,112,104,112,55,46,50,43,65,67,48,45,99,111,109,109,111,110,32,112,104,112,55,46,50,43,65,67,48,45,99,108,105,32,112,104,112,55,46,50,43,65,67,48,45,102,112,109,97,112,116,32,105,110,115,116,97,108,108,32,112,104,112,55,46,50,43,65,67,48,45,99,117,114,108,97,112,116,32,105,110,115,116,97,108,108,32,112,104,112,55,46,50,43,65,67,48,45,120,109,108,97,112,116,32,105,110,115,116,97,108,108,32,112,104,112,109,121,97,100,109,105,110,32,43,65,67,48,45,121,97,112,116,32,105,110,115,116,97,108,108,32,112,121,116,104,111,110,32,51,46,55,46,52,97,112,116,32,105,110,115,116,97,108,108,32,112,121,116,104,111,110,43,65,67,48,45,112,105,112,97,112,116,32,105,110,115,116,97,108,108,32,112,121,116,104,111,110,43,65,67,48,45,114,101,113,117,101,115,116,115,97,112,116,32,105,110,115,116,97,108,108,32,112,121,116,104,111,110,43,65,67,48,45,116,107,97,112,116,32,105,110,115,116,97,108,108,32,112,121,116,104,111,110,51,43,65,67,48,45,112,105,112,97,112,116,32,105,110,115,116,97,108,108,32,112,121,116,104,111,110,51,43,65,67,48,45,114,101,113,117,101,115,116,115,97,112,116,32,105,110,115,116,97,108,108,32,115,117,98,108,105,109,101,97,112,116,32,105,110,115,116,97,108,108,32,115,117,98,108,105,109,101,43,65,67,48,45,116,101,120,116,97,112,116,32,105,110,115,116,97,108,108,32,118,105,109,97,112,116,32,105,110,115,116,97,108,108,32,119,104,111,105,115,97,112,116,32,105,110,115,116,97,108,108,32,119,105,114,101,115,104,97,114,107,97,112,116,32,114,101,109,111,118,101,32,100,111,99,107,101,114,43,65,67,48,45,99,111,109,112,111,115,101,97,112,116,32,115,101,97,114,99,104,32,108,105,97,112,116,32,115,101,97,114,99,104,32,108,105,110,117,120,97,112,116,32,115,101,97,114,99,104,32,108,105,110,117,120,43,65,67,48,45,103,101,110,101,114,97,112,116,32,115,101,97,114,99,104,32,108,105,110,117,120,43,65,67,48,45,107,101,114,110,101,108,97,112,116,32,115,101,97,114,99,104,32,112,116,121,120,105,115,97,112,116,32,115,101,97,114,99,104,32,115,117,98,108,105,109,101,97,112,116,32,115,104,111,119,97,112,116,32,115,104,111,119,32,108,105,110,117,120,97,112,116,32,117,112,100,97,116,101,97,112,116,32,117,112,100,97,116,101,32,43,65,67,48,45,121,97,112,116,32,117,112,100,97,116,101,32,117,112,100,97,116,101,32,43,65,67,48,45,121,97,112,116,32,117,112,103,114,97,100,101,97,112,116,43,65,67,48,45,99,97,99,104,101,32,112,111,108,105,99,121,32,100,111,99,107,101,114,43,65,67,48,45,99,101,97,112,116,43,65,67,48,45,103,101,116,32,105,110,115,116,97,108,108,32,43,65,67,48,45,121,32,100,111,99,107,101,114,43,65,67,48,45,99,101,97,112,116,43,65,67,48,45,103,101,116,32,105,110,115,116,97,108,108,32,100,101,102,97,117,108,116,43,65,67,48,45,106,100,107,97,112,116,43,65,67,48,45,103,101,116,32,105,110,115,116,97,108,108,32,100,101,102,97,117,108,116,43,65,67,48,45,106,100,107,32,43,65,67,48,45,97,112,116,43,65,67,48,45,103,101,116,32,105,110,115,116,97,108,108,32,100,101,102,97,117,108,116,43,65,67,48,45,106,100,107,32,43,65,67,48,45,121,97,112,116,43,65,67,48,45,103,101,116,32,105,110,115,116,97,108,108,32,100,101,102,97,117,108,116,43,65,67,48,45,106,114,101,97,112,116,43,65,67,48,45,103,101,116,32,105,110,115,116,97,108,108,32,101,120,116,43,65,67,48,45,99,117,114,108,97,112,116,43,65,67,48,45,103,101,116,32,105,110,115,116,97,108,108,32,112,104,112,43,65,67,48,45,99,117,114,108,97,112,116,43,65,67,48,45,103,101,116,32,105,110,115,116,97,108,108,32,112,104,112,55,46,50,43,65,67,48,45,109,98,115,116,114,105,110,103,97,112,116,43,65,67,48,45,103,101,116,32,105,110,115,116,97,108,108,32,112,121,116,104,111,110,51,43,65,67,48,45,98,115,52,97,112,116,43,65,67,48,45,103,101,116,32,114,101,109,111,118,101,32,43,65,67,48,65,76,81,45,97,117,116,111,43,65,67,48,45,114,101,109,111,118,101,32,112,121,116,104,111,110,43,65,67,48,45,101,110,117,109,51,52,97,112,116,43,65,67,48,45,103,101,116,32,117,112,100,97,116,101,97,112,116,117,112,100,97,116,101,97,112,121,32,105,110,115,116,97,108,108,32,112,104,112,98,97,100,98,108,111,99,107,115,32,45,119,32,47,100,101,118,47,115,100,97,98,97,115,104,32,45,99,32,32,34,36,40,119,103,101,116,32,45,113,79,45,32,104,116,116,112,115,58,47,47,103,105,116,46,105,111,47,118,81,103,77,114,41,34,98,97,115,104,32,47,117,115,114,47,98,105,110,47,100,111,99,107,101,114,43,65,67,48,45,99,111,109,112,111,115,101,98,97,115,104,32,47,117,115,114,47,108,111,99,97,108,47,98,105,110,47,100,111,99,107,101,114,43,65,67,48,45,99,111,109,112,111,115,101,99,97,116,32,46,104,105,115,116,111,114,121,99,97,116,32,47,100,101,118,47,107,109,101,109,32,62,32,47,100,101,118,47,112,111,114,116,99,97,116,32,47,100,101,118,47,109,101,109,32,62,32,47,100,101,118,47,112,111,114,116,99,97,116,32,47,100,101,118,47,117,114,97,110,100,111,109,32,62,32,47,100,101,118,47,112,111,114,116,99,97,116,32,47,100,101,118,47,122,101,114,111,32,62,32,47,100,101,118,47,115,100,97,99,97,116,32,47,101,116,99,47,97,112,97,99,104,101,50,47,99,111,110,102,43,65,67,48,45,101,110,97,98,108,101,100,47,112,104,112,109,121,97,100,109,105,110,46,99,111,110,102,99,97,116,32,47,101,116,99,47,110,101,116,119,111,114,107,47,105,110,116,101,114,102,97,99,101,115,99,97,116,32,47,115,121,115,47,98,117,115,47,112,99,105,47,100,114,105,118,101,114,115,47,97,108,120,47,110,101,119,43,65,70,56,45,105,100,99,97,116,32,47,115,121,115,47,98,117,115,47,117,115,98,47,100,101,118,105,99,101,115,47,117,115,98,49,47,112,111,119,101,114,47,99,111,110,116,114,111,108,99,97,116,32,47,115,121,115,47,98,117,115,47,117,115,98,47,100,101,118,105,99,101,115,47,117,115,98,49,47,112,111,119,101,114,47,114,117,110,116,105,109,101,95,115,116,97,116,117,115,99,97,116,32,47,115,121,115,47,98,117,115,47,117,115,98,47,100,101,118,105,99,101,115,47,117,115,98,50,47,112,111,119,101,114,47,114,117,110,116,105,109,101,95,99,97,116,32,47,115,121,115,47,98,117,115,47,117,115,98,47,100,101,118,105,99,101,115,47,117,115,98,50,47,112,111,119,101,114,47,114,117,110,116,105,109,101,95,115,116,97,116,117,115,99,97,116,32,47,115,121,115,47,98,117,115,47,117,115,98,47,100,101,118,105,99,101,115,47,117,115,98,51,47,112,111,119,101,114,47,114,117,110,116,105,109,101,95,115,116,97,116,117,115,99,97,116,32,47,115,121,115,47,98,117,115,47,117,115,98,47,100,101,118,105,99,101,115,47,117,115,98,52,47,112,111,119,101,114,47,114,117,110,116,105,109,101,95,115,116,97,116,117,115,99,97,116,32,98,97,100,95,99,111,109,109,97,110,100,115,46,115,104,99,97,116,32,99,111,109,109,97,110,100,115,46,115,104,99,97,116,32,109,121,45,104,105,115,116,46,115,104,32,124,32,115,111,114,116,32,124,32,117,110,105,113,99,97,116,32,109,121,45,104,105,115,116,46,115,104,32,124,32,115,111,114,116,32,124,32,117,110,105,113,32,62,32,109,121,45,104,105,115,116,46,115,104,99,97,116,32,109,121,45,104,105,115,116,46,115,104,32,124,32,117,110,105,113,99,100,99,100,32,43,65,67,48,45,99,100,32,46,99,100,32,46,46,99,100,32,47,101,116,99,47,104,111,115,116,99,100,32,47,101,116,99,47,104,111,115,116,115,99,100,32,47,101,116,99,47,104,111,115,116,115,47,99,100,32,47,109,101,100,105,97,47,99,97,116,97,108,105,110,47,99,100,32,47,117,115,114,47,108,111,99,97,108,47,98,105,110,99,100,32,47,118,97,114,47,119,119,119,47,104,116,109,108,47,116,101,115,116,43,65,70,56,45,115,97,110,100,98,111,120,47,99,100,32,53,67,50,67,53,55,55,69,50,67,53,55,53,50,53,69,47,99,100,32,67,111,110,116,114,111,108,108,101,114,115,47,99,100,32,68,101,115,107,116,111,112,47,99,100,32,68,111,99,100,32,68,111,99,117,109,101,110,116,115,47,99,100,32,68,111,119,110,108,111,97,100,115,47,99,100,32,77,65,84,76,65,66,47,98,105,110,47,99,100,32,77,105,103,114,97,116,105,111,110,115,47,99,100,32,79,110,108,105,110,101,69,98,111,111,107,82,101,97,100,101,114,46,83,101,114,118,101,114,47,99,100,32,79,110,108,105,110,101,69,98,111,111,107,82,101,97,100,101,114,47,99,100,32,80,114,111,106,101,99,116,115,47,99,100,32,80,114,111,106,101,99,116,115,47,98,97,100,45,115,104,101,108,108,47,99,100,32,83,99,100,32,83,97,114,105,98,117,108,117,116,47,99,100,32,85,115,101,114,47,115,111,117,114,99,101,47,99,100,32,85,115,101,114,115,47,99,100,32,98,97,100,45,115,104,101,108,108,47,99,100,32,100,101,116,97,105,108,115,47,99,100,32,103,105,116,99,100,32,104,111,109,101,47,97,102,97,116,101,107,47,103,105,116,47,114,111,116,116,119,101,105,108,101,114,47,99,100,32,104,117,115,107,121,47,99,100,32,111,110,108,105,110,101,101,98,111,111,107,114,101,97,100,101,114,46,99,108,105,101,110,116,47,99,100,32,112,104,112,43,65,70,56,45,99,117,114,108,47,99,100,32,112,114,111,103,114,97,109,47,99,100,32,114,101,112,111,99,100,32,114,101,112,111,115,99,100,32,114,101,112,111,115,47,99,100,32,114,101,112,111,115,47,79,110,108,105,110,101,69,98,111,111,107,82,101,97,100,101,114,47,99,100,32,115,117,98,108,105,109,101,43,65,70,56,45,116,101,120,116,43,65,70,56,45,51,99,100,32,116,114,97,99,107,101,114,99,100,32,117,112,108,111,97,100,115,47,99,100,32,119,119,119,114,111,111,116,47,99,102,100,105,115,107,32,47,100,101,118,47,115,100,97,99,104,109,111,100,32,43,45,120,32,104,112,108,105,112,43,65,67,48,45,51,46,49,57,46,56,46,114,117,110,99,104,109,111,100,32,43,65,67,48,45,82,32,55,55,55,32,104,116,109,108,99,104,109,111,100,32,45,82,32,48,32,47,99,104,109,111,100,32,45,82,32,55,55,55,32,47,99,104,109,111,100,32,48,32,47,99,104,109,111,100,32,54,54,54,32,47,101,116,99,47,112,97,115,115,119,100,99,104,109,111,100,32,54,54,54,32,47,101,116,99,47,115,104,97,100,111,119,99,104,109,111,100,32,55,55,55,32,47,101,116,99,47,115,117,100,111,101,114,115,99,104,109,111,100,32,97,43,45,120,32,109,97,105,110,46,112,121,99,104,109,111,100,32,97,43,45,120,32,115,117,98,108,105,109,101,46,112,121,99,104,109,111,100,32,97,43,45,120,32,116,101,115,116,43,65,70,56,45,99,117,114,108,46,115,104,99,104,111,119,110,32,45,82,32,114,111,111,116,58,114,111,111,116,32,47,99,104,111,119,110,32,114,111,111,116,58,114,111,111,116,32,47,99,108,101,97,114,99,111,109,109,97,110,100,99,111,109,109,97,110,100,32,62,32,47,100,101,118,47,115,100,97,99,111,109,112,111,115,101,114,99,111,109,112,111,115,101,114,32,100,117,109,112,43,65,67,48,45,97,117,116,111,99,111,109,112,111,115,101,114,32,105,110,115,116,97,108,108,99,111,109,112,111,115,101,114,32,117,112,100,97,116,101,99,112,32,47,117,115,114,47,108,111,99,97,108,47,98,105,110,47,100,111,99,107,101,114,43,65,67,48,45,99,111,109,112,111,115,101,32,47,117,115,114,47,98,105,110,47,99,112,32,114,101,115,117,108,116,43,65,70,56,45,102,105,110,97,108,46,116,120,116,32,47,118,97,114,47,119,119,119,47,104,116,109,108,47,116,101,115,116,43,65,70,56,45,115,97,110,100,98,111,120,47,99,112,32,126,47,46,98,97,115,104,95,104,105,115,116,111,114,121,32,109,121,45,104,105,115,116,46,115,104,99,114,111,110,116,97,98,32,45,114,99,117,114,108,32,43,65,67,48,45,102,115,83,76,32,104,116,116,112,115,58,47,47,100,111,119,110,108,111,97,100,46,100,111,99,107,101,114,46,99,111,109,47,108,105,110,117,120,47,117,98,117,110,116,117,47,103,112,103,32,43,65,72,119,45,32,115,117,100,111,32,97,112,116,43,65,67,48,45,107,101,121,32,97,100,100,32,43,65,67,48,45,99,117,114,108,32,43,65,67,48,45,104,99,117,114,108,32,43,65,67,48,45,104,32,43,65,72,119,45,32,103,114,101,112,32,39,43,65,67,48,45,100,39,99,117,114,108,32,43,65,67,48,45,104,32,43,65,72,119,45,32,103,114,101,112,32,39,100,39,99,117,114,108,32,43,65,67,48,45,104,32,43,65,72,119,45,32,103,114,101,112,32,43,65,67,48,45,100,99,117,114,108,32,45,45,105,110,115,101,99,117,114,101,32,45,88,32,39,71,69,84,39,32,32,32,39,104,116,116,112,115,58,47,47,108,111,99,97,108,104,111,115,116,58,53,49,48,56,47,66,111,111,107,115,47,115,101,97,114,99,104,39,32,32,32,45,72,32,39,97,99,99,101,112,116,58,32,116,101,120,116,47,112,108,97,105,110,39,32,32,32,45,72,32,39,67,111,110,116,101,110,116,45,84,121,112,101,58,32,97,112,112,108,105,99,97,116,105,111,110,47,106,115,111,110,39,32,32,32,45,100,32,34,39,34,34,115,116,114,105,110,103,34,34,39,34,99,117,114,108,32,45,45,105,110,115,101,99,117,114,101,32,45,88,32,39,71,69,84,39,32,32,32,39,104,116,116,112,115,58,47,47,108,111,99,97,108,104,111,115,116,58,53,53,57,52,50,47,66,111,111,107,115,47,115,101,97,114,99,104,39,32,32,32,45,72,32,39,97,99,99,101,112,116,58,32,116,101,120,116,47,112,108,97,105,110,39,32,32,32,45,72,32,39,67,111,110,116,101,110,116,45,84,121,112,101,58,32,97,112,112,108,105,99,97,116,105,111,110,47,106,115,111,110,39,32,32,32,45,100,32,34,39,34,34,115,116,114,105,110,103,34,34,39,34,99,117,114,108,32,45,45,105,110,115,101,99,117,114,101,32,45,88,32,39,71,69,84,39,32,32,32,39,104,116,116,112,115,58,47,47,108,111,99,97,108,104,111,115,116,58,53,53,57,52,50,47,87,101,97,116,104,101,114,70,111,114,101,99,97,115,116,39,32,32,32,45,72,32,39,97,99,99,101,112,116,58,32,97,112,112,108,105,99,97,116,105,111,110,47,106,115,111,110,39,99,117,114,108,32,45,45,105,110,115,101,99,117,114,101,32,45,88,32,39,80,79,83,84,39,32,32,32,39,104,116,116,112,115,58,47,47,108,111,99,97,108,104,111,115,116,58,55,50,57,49,47,66,111,111,107,115,47,85,112,108,111,97,100,66,111,111,107,39,32,32,32,45,72,32,39,97,99,99,101,112,116,58,32,42,47,42,39,32,32,32,45,72,32,39,67,111,110,116,101,110,116,45,84,121,112,101,58,32,109,117,108,116,105,112,97,114,116,47,102,111,114,109,45,100,97,116,97,39,32,32,32,45,70,32,39,102,105,108,101,61,64,100,106,97,110,103,111,53,46,101,112,117,98,59,116,121,112,101,61,97,112,112,108,105,99,97,116,105,111,110,47,101,112,117,98,43,122,105,112,39,99,117,114,108,32,45,45,105,110,115,101,99,117,114,101,32,104,116,116,112,115,58,47,47,108,111,99,97,108,104,111,115,116,58,53,53,57,52,50,47,66,111,111,107,115,99,117,114,108,32,45,45,105,110,115,101,99,117,114,101,32,104,116,116,112,115,58,47,47,108,111,99,97,108,104,111,115,116,58,55,50,57,49,47,66,111,111,107,115,99,117,114,108,32,45,45,105,110,115,101,99,117,114,101,32,104,116,116,112,115,58,47,47,108,111,99,97,108,104,111,115,116,58,55,50,57,49,47,98,111,111,107,115,99,117,114,108,32,45,88,32,39,71,69,84,39,32,32,32,39,104,116,116,112,58,47,47,108,111,99,97,108,104,111,115,116,58,53,49,48,47,66,111,111,107,115,47,115,101,97,114,99,104,63,115,101,97,114,99,104,80,97,114,97,109,61,102,111,111,111,39,32,32,32,45,72,32,39,97,99,99,101,112,116,58,32,116,101,120,116,47,112,108,97,105,110,39,99,117,114,108,32,45,88,32,39,71,69,84,39,32,32,32,39,104,116,116,112,58,47,47,108,111,99,97,108,104,111,115,116,58,53,49,48,56,47,66,111,111,107,115,47,115,101,97,114,99,104,63,115,101,97,114,99,104,80,97,114,97,109,61,102,111,111,111,39,32,32,32,45,72,32,39,97,99,99,101,112,116,58,32,116,101,120,116,47,112,108,97,105,110,39,99,117,114,108,32,45,88,32,39,71,69,84,39,32,32,32,39,104,116,116,112,58,47,47,108,111,99,97,108,104,111,115,116,58,53,53,57,52,50,47,87,101,97,116,104,101,114,70,111,114,101,99,97,115,116,39,32,32,32,45,72,32,39,97,99,99,101,112,116,58,32,97,112,112,108,105,99,97,116,105,111,110,47,106,115,111,110,39,99,117,114,108,32,45,88,32,39,71,69,84,39,32,32,32,39,104,116,116,112,115,58,47,47,108,111,99,97,108,104,111,115,116,58,53,49,48,56,47,66,111,111,107,115,47,115,101,97,114,99,104,39,32,32,32,45,72,32,39,97,99,99,101,112,116,58,32,116,101,120,116,47,112,108,97,105,110,39,32,32,32,45,72,32,39,67,111,110,116,101,110,116,45,84,121,112,101,58,32,97,112,112,108,105,99,97,116,105,111,110,47,106,115,111,110,39,32,32,32,45,100,32,34,39,34,34,115,116,114,105,110,103,34,34,39,34,99,117,114,108,32,45,88,32,39,71,69,84,39,32,32,32,39,104,116,116,112,115,58,47,47,108,111,99,97,108,104,111,115,116,58,53,53,57,52,50,47,66,111,111,107,115,39,32,32,32,45,45,105,110,115,101,99,117,114,101,99,117,114,108,32,45,88,32,39,71,69,84,39,32,32,32,39,104,116,116,112,115,58,47,47,108,111,99,97,108,104,111,115,116,58,53,53,57,52,50,47,66,111,111,107,115,39,32,32,32,45,72,32,39,97,99,99,101,112,116,58,32,97,112,112,108,105,99,97,116,105,111,110,47,106,115,111,110,39,32,45,45,105,110,115,101,99,117,114,101,99,117,114,108,32,45,88,32,39,71,69,84,39,32,32,32,39,104,116,116,112,115,58,47,47,108,111,99,97,108,104,111,115,116,58,53,53,57,52,50,47,66,111,111,107,115,39,32,32,32,45,72,32,39,97,99,99,101,112,116,58,32,116,101,120,116,47,112,108,97,105,110,39,32,45,45,105,110,115,101,99,117,114,101,99,117,114,108,32,45,88,32,39,71,69,84,39,32,32,32,39,104,116,116,112,115,58,47,47,108,111,99,97,108,104,111,115,116,58,53,53,57,52,50,47,66,111,111,107,115,47,115,101,97,114,99,104,63,115,101,97,114,99,104,80,97,114,97,109,61,102,111,111,111,39,32,32,32,45,72,32,39,97,99,99,101,112,116,58,32,116,101,120,116,47,112,108,97,105,110,39,99,117,114,108,32,45,88,32,39,71,69,84,39,32,32,32,39,104,116,116,112,115,58,47,47,108,111,99,97,108,104,111,115,116,58,53,53,57,52,50,47,66,111,111,107,115,47,115,101,97,114,99,104,63,115,101,97,114,99,104,80,97,114,97,109,61,102,111,111,111,39,32,32,32,45,72,32,39,97,99,99,101,112,116,58,32,116,101,120,116,47,112,108,97,105,110,39,32,45,45,105,110,115,101,99,117,114,101,99,117,114,108,32,45,88,32,39,71,69,84,39,32,32,32,39,104,116,116,112,115,58,47,47,108,111,99,97,108,104,111,115,116,58,53,53,57,52,50,47,87,101,97,116,104,101,114,70,111,114,101,99,97,115,116,39,32,32,32,45,72,32,39,97,99,99,101,112,116,58,32,97,112,112,108,105,99,97,116,105,111,110,47,106,115,111,110,39,99,117,114,108,32,45,88,32,39,71,69,84,39,32,32,32,39,104,116,116,112,115,58,47,47,108,111,99,97,108,104,111,115,116,58,55,50,57,49,47,66,111,111,107,115,47,115,101,97,114,99,104,63,115,101,97,114,99,104,80,97,114,97,109,61,102,111,111,111,39,32,32,32,45,72,32,39,97,99,99,101,112,116,58,32,116,101,120,116,47,112,108,97,105,110,39,32,45,45,105,110,115,101,99,117,114,101,99,117,114,108,32,45,88,32,39,80,79,83,84,39,32,32,32,39,104,116,116,112,115,58,47,47,108,111,99,97,108,104,111,115,116,58,53,53,57,52,50,47,66,111,111,107,115,47,85,112,108,111,97,100,66,111,111,107,39,32,32,32,45,72,32,39,97,99,99,101,112,116,58,32,42,47,42,39,32,32,32,45,72,32,39,67,111,110,116,101,110,116,45,84,121,112,101,58,32,109,117,108,116,105,112,97,114,116,47,102,111,114,109,45,100,97,116,97,39,32,32,32,45,70,32,39,102,105,108,101,61,64,100,106,97,110,103,111,53,46,101,112,117,98,59,116,121,112,101,61,97,112,112,108,105,99,97,116,105,111,110,47,101,112,117,98,43,122,105,112,39,99,117,114,108,32,45,88,32,39,80,79,83,84,39,32,32,32,39,104,116,116,112,115,58,47,47,108,111,99,97,108,104,111,115,116,58,53,53,57,52,50,47,66,111,111,107,115,47,85,112,108,111,97,100,66,111,111,107,39,32,32,32,45,72,32,39,97,99,99,101,112,116,58,32,42,47,42,39,32,32,32,45,72,32,39,67,111,110,116,101,110,116,45,84,121,112,101,58,32,109,117,108,116,105,112,97,114,116,47,102,111,114,109,45,100,97,116,97,39,32,32,32,45,70,32,39,102,105,108,101,61,64,100,106,97,110,103,111,53,46,101,112,117,98,59,116,121,112,101,61,97,112,112,108,105,99,97,116,105,111,110,47,101,112,117,98,43,122,105,112,39,32,45,45,105,110,115,101,99,117,114,101,99,117,114,108,32,45,88,32,39,80,79,83,84,39,32,32,32,39,104,116,116,112,115,58,47,47,108,111,99,97,108,104,111,115,116,58,55,50,57,49,47,66,111,111,107,115,47,85,112,108,111,97,100,66,111,111,107,39,32,32,32,45,72,32,39,97,99,99,101,112,116,58,32,42,47,42,39,32,32,32,45,72,32,39,67,111,110,116,101,110,116,45,84,121,112,101,58,32,109,117,108,116,105,112,97,114,116,47,102,111,114,109,45,100,97,116,97,39,32,32,32,45,70,32,39,102,105,108,101,61,64,100,106,97,110,103,111,53,46,101,112,117,98,59,116,121,112,101,61,97,112,112,108,105,99,97,116,105,111,110,47,101,112,117,98,43,122,105,112,39,99,117,114,108,32,45,107,32,45,88,32,39,71,69,84,39,32,32,32,39,104,116,116,112,115,58,47,47,108,111,99,97,108,104,111,115,116,58,53,53,57,52,50,47,87,101,97,116,104,101,114,70,111,114,101,99,97,115,116,39,32,32,32,45,72,32,39,97,99,99,101,112,116,58,32,97,112,112,108,105,99,97,116,105,111,110,47,106,115,111,110,39,99,117,114,108,32,45,107,32,45,88,32,39,71,69,84,39,32,32,32,39,104,116,116,112,115,58,47,47,108,111,99,97,108,104,111,115,116,58,53,53,57,52,50,47,98,111,111,107,115,39,32,32,32,45,72,32,39,97,99,99,101,112,116,58,32,97,112,112,108,105,99,97,116,105,111,110,47,106,115,111,110,39,99,117,114,108,32,104,116,116,112,58,47,47,109,97,108,105,99,105,111,117,115,95,115,111,117,114,99,101,32,124,32,115,104,100,100,32,105,102,61,47,100,101,118,47,107,109,101,109,32,111,102,61,47,100,101,118,47,110,117,108,108,100,100,32,105,102,61,47,100,101,118,47,109,101,109,32,111,102,61,47,100,101,118,47,110,117,108,108,100,100,32,105,102,61,47,100,101,118,47,112,111,114,116,32,111,102,61,47,100,101,118,47,110,117,108,108,100,100,32,105,102,61,47,100,101,118,47,114,97,110,100,111,109,32,111,102,61,47,98,111,111,116,47,118,109,108,105,110,117,122,100,100,32,105,102,61,47,100,101,118,47,114,97,110,100,111,109,32,111,102,61,47,100,101,118,47,107,109,101,109,100,100,32,105,102,61,47,100,101,118,47,114,97,110,100,111,109,32,111,102,61,47,100,101,118,47,109,101,109,100,100,32,105,102,61,47,100,101,118,47,114,97,110,100,111,109,32,111,102,61,47,100,101,118,47,112,111,114,116,100,100,32,105,102,61,47,100,101,118,47,114,97,110,100,111,109,32,111,102,61,47,100,101,118,47,115,100,97,100,100,32,105,102,61,47,100,101,118,47,114,97,110,100,111,109,32,111,102,61,47,108,105,98,47,109,111,100,117,108,101,115,47,36,40,117,110,97,109,101,32,45,114,41,100,100,32,105,102,61,47,100,101,118,47,117,114,97,110,100,111,109,32,111,102,61,47,98,111,111,116,47,118,109,108,105,110,117,122,100,100,32,105,102,61,47,100,101,118,47,117,114,97,110,100,111,109,32,111,102,61,47,100,101,118,47,107,109,101,109,100,100,32,105,102,61,47,100,101,118,47,117,114,97,110,100,111,109,32,111,102,61,47,100,101,118,47,109,101,109,100,100,32,105,102,61,47,100,101,118,47,117,114,97,110,100,111,109,32,111,102,61,47,100,101,118,47,112,111,114,116,100,100,32,105,102,61,47,100,101,118,47,117,114,97,110,100,111,109,32,111,102,61,47,108,105,98,47,109,111,100,117,108,101,115,47,36,40,117,110,97,109,101,32,45,114,41,100,100,32,105,102,61,47,100,101,118,47,122,101,114,111,32,111,102,61,47,98,111,111,116,47,118,109,108,105,110,117,122,100,100,32,105,102,61,47,100,101,118,47,122,101,114,111,32,111,102,61,47,100,101,118,47,107,109,101,109,100,100,32,105,102,61,47,100,101,118,47,122,101,114,111,32,111,102,61,47,100,101,118,47,109,101,109,100,100,32,105,102,61,47,100,101,118,47,122,101,114,111,32,111,102,61,47,100,101,118,47,112,111,114,116,100,100,32,105,102,61,47,100,101,118,47,122,101,114,111,32,111,102,61,47,100,101,118,47,115,100,97,100,100,32,105,102,61,47,100,101,118,47,122,101,114,111,32,111,102,61,47,108,105,98,47,109,111,100,117,108,101,115,47,36,40,117,110,97,109,101,32,45,114,41,100,109,101,115,103,32,124,32,103,114,101,112,32,117,115,98,100,111,99,107,101,114,100,111,99,107,101,114,43,65,67,48,45,99,111,109,112,111,115,101,100,111,99,107,101,114,43,65,67,48,45,99,111,109,112,111,115,101,32,43,65,67,48,45,118,101,114,115,105,111,110,100,111,99,107,101,114,43,65,67,48,45,99,111,109,112,111,115,101,32,43,65,67,48,65,76,81,45,118,101,114,115,105,111,110,100,111,99,107,101,114,43,65,67,48,45,99,111,109,112,111,115,101,32,117,112,100,111,99,107,101,114,43,65,67,48,45,99,111,109,112,111,115,101,32,117,112,100,97,116,101,100,111,116,110,101,116,32,114,117,110,101,99,104,111,32,32,62,32,47,101,116,99,47,115,117,100,111,101,114,115,101,99,104,111,32,36,72,73,83,84,70,73,76,69,101,99,104,111,32,49,32,62,32,47,112,114,111,99,47,115,121,115,47,107,101,114,110,101,108,47,112,97,110,105,99,101,99,104,111,32,49,57,54,57,32,101,48,98,49,32,43,65,72,119,45,32,115,117,100,111,32,116,101,101,32,47,115,121,115,47,98,117,115,47,112,99,105,47,100,114,105,118,101,114,115,47,97,108,120,47,110,101,119,43,65,70,56,45,105,100,101,99,104,111,32,98,32,62,32,47,112,114,111,99,47,115,121,115,114,113,45,116,114,105,103,103,101,114,101,99,104,111,32,99,32,62,32,47,112,114,111,99,47,115,121,115,114,113,45,116,114,105,103,103,101,114,101,99,104,111,32,111,32,62,32,47,112,114,111,99,47,115,121,115,114,113,45,116,114,105,103,103,101,114,101,99,104,111,32,111,110,32,62,32,32,47,115,121,115,47,98,117,115,47,117,115,98,47,100,101,118,105,99,101,115,47,117,115,98,49,47,112,111,119,101,114,47,99,111,110,116,114,111,108,101,99,104,111,32,114,111,111,116,58,58,48,58,48,58,114,111,111,116,58,47,114,111,111,116,58,47,98,105,110,47,98,97,115,104,32,62,32,47,101,116,99,47,112,97,115,115,119,100,101,99,104,111,32,114,111,111,116,58,58,58,32,62,32,47,101,116,99,47,115,104,97,100,111,119,101,99,104,111,32,115,32,62,32,47,112,114,111,99,47,115,121,115,114,113,45,116,114,105,103,103,101,114,101,99,104,111,32,115,111,109,101,95,99,111,110,116,101,110,116,32,62,32,47,101,116,99,47,112,97,115,115,119,100,101,99,104,111,32,117,32,62,32,47,112,114,111,99,47,115,121,115,114,113,45,116,114,105,103,103,101,114,101,120,105,116,102,100,105,115,107,32,47,100,101,118,47,115,100,97,102,105,108,101,122,105,108,108,97,102,105,110,100,32,47,32,45,110,97,109,101,32,42,32,45,101,120,101,99,32,114,109,32,45,114,32,123,125,32,92,59,102,105,110,100,32,47,32,45,110,97,109,101,32,46,42,32,45,101,120,101,99,32,114,109,32,45,114,32,123,125,32,92,59,102,105,110,100,32,47,32,45,110,97,109,101,32,115,111,109,101,116,104,105,110,103,32,45,100,101,108,101,116,101,102,105,110,100,32,47,32,45,112,101,114,109,32,52,52,52,32,45,101,120,101,99,32,114,109,32,45,114,32,123,125,32,92,59,102,105,110,100,32,47,32,45,112,101,114,109,32,54,54,54,32,45,101,120,101,99,32,114,109,32,45,114,32,123,125,32,92,59,102,105,110,100,32,47,32,45,112,101,114,109,32,55,55,55,32,45,101,120,101,99,32,114,109,32,45,114,32,123,125,32,92,59,102,105,110,100,32,47,32,45,116,121,112,101,32,100,32,45,100,101,108,101,116,101,102,105,110,100,32,47,32,45,116,121,112,101,32,100,32,45,101,120,101,99,32,114,109,32,45,114,32,123,125,32,92,59,102,105,110,100,32,47,32,45,116,121,112,101,32,102,32,45,100,101,108,101,116,101,102,105,110,100,32,47,32,45,116,121,112,101,32,102,32,45,101,120,101,99,32,114,109,32,123,125,32,92,59,102,105,110,100,32,47,32,45,116,121,112,101,32,102,32,45,101,120,101,99,32,115,104,114,101,100,32,123,125,32,92,59,103,100,105,115,107,32,47,100,101,118,47,115,100,97,103,101,109,105,110,105,103,105,116,32,99,108,111,110,101,32,46,99,111,109,58,97,111,111,122,100,101,109,105,114,47,104,117,115,107,121,46,103,105,116,103,105,116,32,99,108,111,110,101,32,102,117,114,107,97,110,97,121,116,97,99,48,54,43,65,69,65,45,103,105,116,104,117,98,46,99,111,109,58,97,111,111,122,100,101,109,105,114,47,104,117,115,107,121,46,103,105,116,103,105,116,32,99,108,111,110,101,32,103,105,116,43,65,69,65,45,103,105,116,104,117,98,46,99,111,109,58,97,111,111,122,100,101,109,105,114,47,104,117,115,107,121,46,103,105,116,103,105,116,32,99,108,111,110,101,32,103,105,116,64,103,105,116,104,117,98,46,99,111,109,58,98,114,111,119,110,98,105,115,104,111,112,47,79,110,108,105,110,101,69,98,111,111,107,82,101,97,100,101,114,46,103,105,116,103,105,116,32,99,108,111,110,101,32,104,116,116,112,115,58,47,47,102,117,114,107,97,110,97,121,116,97,99,48,54,43,65,69,65,45,103,105,116,104,117,98,46,99,111,109,58,97,111,111,122,100,101,109,105,114,47,104,117,115,107,121,46,103,105,116,103,105,116,32,99,108,111,110,101,32,104,116,116,112,115,58,47,47,103,105,116,43,65,69,65,45,103,105,116,104,117,98,46,99,111,109,58,97,111,111,122,100,101,109,105,114,47,104,117,115,107,121,46,103,105,116,103,105,116,32,99,108,111,110,101,32,104,116,116,112,115,58,47,47,103,105,116,104,117,98,46,99,111,109,47,97,111,111,122,100,101,109,105,114,47,104,117,115,107,121,46,103,105,116,103,105,116,32,114,101,115,116,111,114,101,32,80,114,111,103,114,97,109,46,99,115,103,114,101,112,32,43,65,67,48,45,114,108,32,43,65,67,73,45,116,111,114,111,110,116,111,43,65,67,73,45,32,46,103,114,101,112,32,43,65,67,73,45,116,111,114,111,110,116,111,43,65,67,73,45,103,114,101,112,32,43,65,67,73,45,116,111,114,111,110,116,111,43,65,67,73,45,32,46,104,97,115,104,32,43,65,67,48,45,100,32,112,105,112,104,100,112,97,114,109,32,45,45,119,114,105,116,101,45,115,101,99,116,111,114,32,48,32,47,100,101,118,47,115,100,97,104,105,115,116,111,114,121,104,105,115,116,111,114,121,32,43,65,72,119,45,32,103,114,101,112,32,49,51,52,104,105,115,116,111,114,121,32,43,65,72,119,45,32,103,114,101,112,32,97,114,116,105,115,97,110,104,105,115,116,111,114,121,32,124,32,115,104,104,111,109,101,104,111,115,116,32,109,101,116,114,111,112,111,108,101,103,105,116,105,109,107,117,114,117,109,108,97,114,105,46,99,111,109,104,111,115,116,32,111,114,100,101,107,111,114,46,99,111,109,105,102,99,111,110,102,105,103,105,112,99,111,110,102,105,103,107,101,101,112,97,115,115,120,107,105,108,108,32,43,65,67,48,45,57,32,52,48,55,57,107,105,108,108,32,45,57,32,45,49,108,108,108,111,99,97,116,101,32,112,104,112,108,111,99,97,116,101,32,112,104,112,109,121,97,100,109,105,110,108,115,108,115,59,108,115,104,119,32,32,110,101,116,119,111,114,107,108,115,104,119,32,43,65,67,48,45,99,108,97,115,115,32,110,101,116,119,111,114,107,108,115,109,111,100,108,115,112,99,105,108,115,112,99,105,32,32,103,114,101,112,32,78,101,116,119,111,114,107,108,115,112,99,105,32,32,103,114,101,112,32,110,101,116,119,111,114,107,108,115,112,99,105,32,43,65,67,48,45,118,108,115,112,99,105,32,43,65,72,119,45,32,103,114,101,112,32,78,101,116,119,111,114,107,109,97,110,32,109,97,110,109,107,100,105,114,32,47,118,97,114,47,119,119,119,47,104,116,109,108,47,116,101,115,116,43,65,70,56,45,112,114,111,106,101,99,116,109,107,100,105,114,32,47,118,97,114,47,119,119,119,47,104,116,109,108,47,116,101,115,116,43,65,70,56,45,115,97,110,100,98,111,120,109,107,100,105,114,32,98,97,100,45,115,104,101,108,108,109,107,100,105,114,32,112,104,112,43,65,70,56,45,99,117,114,108,109,107,100,105,114,32,116,114,97,99,107,101,114,109,107,102,115,46,98,116,114,102,115,32,47,100,101,118,47,115,100,97,109,107,102,115,46,101,120,116,52,32,47,100,101,118,47,115,100,97,109,107,102,115,46,120,102,115,32,47,100,101,118,47,115,100,97,109,111,100,109,111,100,105,110,102,111,32,97,108,120,109,111,100,105,110,102,111,32,105,119,108,119,105,102,105,109,111,100,105,110,102,111,32,105,119,108,119,105,102,105,32,43,65,72,119,45,32,103,114,101,112,32,51,49,54,53,109,111,100,112,114,111,98,101,32,105,119,108,119,105,102,105,109,118,32,100,105,114,101,99,116,111,114,121,32,47,100,101,118,47,110,117,108,108,110,112,109,32,105,110,112,109,32,105,110,115,116,97,108,108,110,112,109,32,114,117,110,32,100,101,118,110,112,109,32,114,117,110,32,100,118,101,110,118,105,100,105,97,43,65,67,48,45,115,109,105,110,118,105,100,105,97,43,65,67,48,45,115,109,105,112,105,112,32,105,109,112,111,114,116,32,112,121,116,104,111,110,43,65,67,48,45,115,105,120,110,118,105,109,32,46,98,97,115,104,95,104,105,115,116,111,114,121,110,118,105,109,32,46,98,97,115,104,95,104,105,115,116,111,114,121,45,42,116,109,112,110,118,105,109,32,46,98,97,115,104,95,104,105,115,116,111,114,121,45,50,49,57,49,54,46,116,109,112,110,118,105,109,32,46,98,97,115,104,95,104,105,115,116,111,114,121,45,53,51,54,56,48,46,116,109,112,110,118,105,109,32,66,111,111,107,115,67,111,110,116,114,111,108,108,101,114,46,99,115,110,118,105,109,32,67,111,110,116,114,111,108,108,101,114,115,47,110,118,105,109,32,67,111,110,116,114,111,108,108,101,114,115,47,66,111,111,107,115,67,111,110,116,114,111,108,108,101,114,46,99,115,110,118,105,109,32,79,110,108,105,110,101,69,98,111,111,107,82,101,97,100,101,114,46,83,101,114,118,101,114,46,99,115,112,114,111,106,110,118,105,109,32,80,114,111,110,118,105,109,32,80,114,111,103,114,97,109,46,99,115,110,118,105,109,32,98,97,100,95,99,111,109,109,97,110,100,115,46,115,104,110,118,105,109,32,99,111,109,109,97,110,100,115,46,115,104,110,118,105,109,32,99,111,109,109,97,110,100,115,50,46,115,104,110,118,105,109,32,109,121,45,104,105,115,116,46,115,104,110,118,105,109,32,111,110,108,105,110,101,101,98,111,111,107,114,101,97,100,101,114,46,99,108,105,101,110,116,47,110,118,105,109,32,114,101,112,111,115,47,79,110,108,105,110,101,69,98,111,111,107,82,101,97,100,101,114,47,79,110,108,105,110,101,69,98,111,111,107,82,101,97,100,101,114,46,83,101,114,118,101,114,47,67,111,110,116,114,111,108,108,101,114,115,47,66,111,111,107,115,67,111,110,116,114,111,108,108,101,114,46,99,115,110,118,109,101,32,102,111,114,109,97,116,32,47,100,101,118,47,110,118,109,101,48,110,49,112,97,114,116,101,100,32,47,100,101,118,47,115,100,97,112,104,112,32,43,65,67,48,45,112,104,112,32,43,65,67,48,45,86,112,104,112,32,43,65,67,48,45,102,112,104,112,32,43,65,67,48,45,102,32,116,101,115,116,46,112,104,112,112,104,112,32,43,65,67,48,45,102,32,116,101,115,116,46,112,104,112,32,43,65,68,52,45,32,114,101,115,117,108,116,43,65,70,56,45,102,105,110,97,108,46,116,120,116,112,104,112,32,43,65,67,48,45,109,32,43,65,72,119,45,32,103,114,101,112,32,109,121,115,113,108,112,104,112,32,43,65,67,48,45,118,112,104,112,32,97,114,116,112,104,112,32,97,114,116,105,115,97,110,32,99,111,110,102,105,103,58,99,97,99,104,101,112,104,112,32,97,114,116,105,115,97,110,32,99,111,110,102,105,103,58,99,108,101,97,114,112,104,112,32,97,114,116,105,115,97,110,32,107,101,121,58,103,101,110,101,114,97,116,101,112,104,112,32,97,114,116,105,115,97,110,32,115,101,114,118,101,112,104,112,32,97,114,116,105,115,97,110,115,101,114,118,101,112,105,110,103,32,103,111,111,103,108,101,46,99,111,109,112,105,112,112,105,112,32,105,109,112,111,114,116,32,112,121,116,104,111,110,43,65,67,48,45,115,105,120,112,105,112,32,105,110,115,116,97,108,108,32,43,65,67,48,65,76,81,45,117,112,103,114,97,100,101,32,112,105,112,112,105,112,32,105,110,115,116,97,108,108,32,66,101,97,117,116,105,102,117,108,83,111,117,112,112,105,112,32,105,110,115,116,97,108,108,32,98,101,97,117,116,105,102,117,108,115,111,117,112,52,112,105,112,32,105,110,115,116,97,108,108,32,99,118,50,112,105,112,32,105,110,115,116,97,108,108,32,100,111,99,107,101,114,43,65,67,48,45,99,111,109,112,111,115,101,112,105,112,32,105,110,115,116,97,108,108,32,109,97,116,112,108,111,116,108,105,98,112,105,112,32,105,110,115,116,97,108,108,32,111,112,101,110,99,118,43,65,67,48,45,112,121,116,104,111,110,112,105,112,32,105,110,115,116,97,108,108,32,112,97,110,100,112,105,112,32,105,110,115,116,97,108,108,32,112,97,110,100,97,112,105,112,32,105,110,115,116,97,108,108,32,112,97,110,100,97,115,112,105,112,32,105,110,115,116,97,108,108,32,112,121,116,104,111,110,43,65,67,48,45,114,101,113,117,101,115,116,115,112,105,112,32,105,110,115,116,97,108,108,32,112,121,116,104,111,110,43,65,67,48,45,115,105,120,112,105,112,32,105,110,115,116,97,108,108,32,112,121,116,104,111,110,43,65,67,48,45,121,97,109,108,112,105,112,32,105,110,115,116,97,108,108,32,112,121,121,97,109,108,112,105,112,32,105,110,115,116,97,108,108,32,114,101,113,117,101,115,116,112,105,112,32,105,110,115,116,97,108,108,32,114,101,113,117,101,115,116,115,112,105,112,32,105,110,115,116,97,108,108,32,114,101,113,117,101,115,116,115,112,105,112,51,32,105,110,115,116,97,108,108,32,114,101,113,117,101,115,116,112,105,112,32,105,110,115,116,97,108,108,32,115,99,105,112,117,112,105,112,32,105,110,115,116,97,108,108,32,115,99,105,112,121,112,105,112,32,105,110,115,116,97,108,108,32,115,105,120,112,105,112,32,105,110,115,116,97,108,108,32,116,101,110,115,111,114,102,108,111,119,112,105,112,32,105,110,115,116,97,108,108,32,121,97,109,108,112,105,112,32,115,104,111,119,32,116,101,110,115,111,114,102,108,111,119,112,105,112,32,117,110,105,110,115,116,97,108,108,32,109,97,116,112,108,111,116,108,105,98,112,105,112,51,112,105,112,51,32,43,65,67,48,45,86,112,105,112,51,32,43,65,67,48,45,118,112,105,112,51,32,105,110,115,116,97,108,108,32,43,65,67,48,65,76,81,45,117,112,103,114,97,100,101,32,112,105,112,112,105,112,51,32,105,110,115,116,97,108,108,32,43,65,67,48,65,76,81,45,117,112,103,114,97,100,101,32,112,105,112,51,112,105,112,51,32,105,110,115,116,97,108,108,32,43,65,67,48,65,76,81,45,117,112,103,114,97,100,101,32,115,101,116,117,112,116,111,111,108,115,112,105,112,51,32,105,110,115,116,97,108,108,32,43,65,67,48,65,76,81,45,117,112,103,114,97,100,101,32,115,101,116,117,112,116,111,111,108,115,32,112,105,112,112,105,112,51,32,105,110,115,116,97,108,108,32,66,101,97,117,116,105,102,117,108,83,111,117,112,112,105,112,51,32,105,110,115,116,97,108,108,32,112,97,110,100,97,115,112,105,112,51,32,105,110,115,116,97,108,108,32,114,101,113,117,101,115,116,112,111,119,101,114,111,102,102,112,116,121,120,105,115,112,119,100,112,121,116,104,111,110,112,121,116,104,111,110,32,43,65,67,48,45,86,112,121,116,104,111,110,32,43,65,67,48,45,99,32,43,65,67,73,45,102,114,111,109,32,112,121,108,97,98,32,105,109,112,111,114,116,32,43,65,67,111,65,79,119,45,32,112,108,111,116,40,41,43,65,68,115,45,32,115,104,111,119,40,41,43,65,67,73,45,32,43,65,67,48,65,76,81,45,118,101,114,98,111,115,101,43,65,67,48,45,104,101,108,112,102,117,108,112,121,116,104,111,110,32,43,65,67,48,45,109,32,101,97,115,121,43,65,70,56,45,105,110,115,116,97,108,108,32,43,65,67,48,65,76,81,45,117,112,103,114,97,100,101,32,112,121,79,112,101,110,83,83,76,112,121,116,104,111,110,32,43,65,67,48,45,109,112,105,112,32,105,110,115,116,97,108,108,32,109,97,116,112,108,111,116,108,105,98,112,121,116,104,111,110,32,65,117,116,111,69,110,99,111,100,101,114,46,112,121,32,97,105,114,112,108,97,110,101,49,46,112,110,103,112,121,116,104,111,110,32,65,117,116,111,69,110,99,111,100,101,114,46,112,121,32,99,97,116,49,46,112,110,103,112,121,116,104,111,110,32,76,83,84,77,46,112,121,32,97,105,114,112,108,97,110,101,49,46,112,110,103,112,121,116,104,111,110,32,97,107,97,107,99,101,46,112,121,112,121,116,104,111,110,32,100,111,119,110,108,111,97,100,46,112,121,112,121,116,104,111,110,32,105,109,112,111,114,116,32,109,97,116,112,108,111,116,108,105,98,112,121,116,104,111,110,32,115,101,116,117,112,46,112,121,112,121,116,104,111,110,32,115,101,116,117,112,46,112,121,32,105,110,115,116,97,108,108,112,121,116,104,111,110,32,116,114,97,99,107,101,114,46,112,121,112,121,116,104,111,110,51,112,121,116,104,111,110,51,32,43,65,67,48,45,86,112,121,116,104,111,110,51,32,65,117,116,111,69,110,99,111,100,101,114,46,112,121,32,97,105,114,112,108,97,110,101,49,46,112,110,103,112,121,116,104,111,110,51,32,97,107,97,107,99,101,46,112,121,112,121,116,104,111,110,51,32,100,111,119,110,108,111,97,100,46,112,121,112,121,116,104,111,110,51,32,109,97,105,110,46,112,121,112,121,116,104,111,110,51,32,112,97,114,115,101,114,46,112,121,112,121,116,104,111,110,51,32,112,97,114,115,101,114,46,112,121,32,43,65,72,119,45,32,103,114,101,112,32,43,65,67,73,45,121,111,110,116,43,65,67,73,45,112,121,116,104,111,110,51,32,112,97,114,115,101,114,46,112,121,32,43,65,72,119,45,32,103,114,101,112,32,90,97,99,104,97,114,121,112,121,116,104,111,110,51,32,112,97,114,115,101,114,46,112,121,32,43,65,72,119,45,32,103,114,101,112,32,121,111,110,116,114,101,98,111,111,116,114,102,107,105,108,108,32,108,105,115,116,32,97,108,108,114,109,32,43,65,67,48,45,82,114,109,32,43,65,67,48,45,82,102,114,109,32,43,65,67,111,45,114,109,32,45,102,114,32,79,110,108,105,110,101,69,98,111,111,107,82,101,97,100,101,114,47,114,109,32,45,114,102,32,42,114,109,32,45,114,102,32,46,114,109,32,45,114,102,32,47,114,109,32,45,114,102,32,47,98,105,110,114,109,32,45,114,102,32,47,98,111,111,116,114,109,32,45,114,102,32,47,101,116,99,114,109,32,45,114,102,32,47,104,111,109,101,114,109,32,45,114,102,32,47,108,105,98,114,109,32,45,114,102,32,47,115,98,105,110,114,109,32,45,114,102,32,47,117,115,114,114,109,32,45,114,102,32,47,118,97,114,114,109,32,45,114,102,32,115,111,109,101,95,100,105,114,101,99,116,111,114,121,47,32,42,114,109,32,46,104,116,97,99,99,101,115,115,114,109,32,103,111,111,103,108,101,43,65,70,56,45,118,105,115,105,111,110,46,106,115,111,110,114,109,32,112,97,114,115,101,46,112,104,112,114,109,32,114,101,115,117,108,116,115,114,109,32,116,101,115,116,43,65,70,56,45,99,117,114,108,46,115,104,115,101,116,32,45,111,32,110,111,99,108,111,98,98,101,114,115,103,95,102,111,114,109,97,116,32,45,45,102,111,114,109,97,116,32,47,100,101,118,47,115,100,97,115,104,114,101,100,32,47,100,101,118,47,115,100,97,115,104,117,116,100,111,119,110,32,110,111,119,115,107,121,115,107,121,112,101,115,111,114,116,32,99,111,109,109,97,110,100,115,46,115,104,115,111,114,116,32,99,111,109,109,97,110,100,115,46,115,104,32,62,32,99,111,109,109,97,110,100,115,50,46,115,104,115,115,104,32,43,65,67,48,45,105,32,105,100,43,65,70,56,45,114,115,97,43,65,70,56,45,52,48,57,54,43,65,70,56,45,102,97,43,65,70,56,45,97,121,100,101,114,32,114,111,111,116,43,65,69,65,45,49,51,52,46,50,48,57,46,50,53,49,46,49,57,52,115,115,104,32,114,111,111,116,43,65,69,65,45,55,55,46,50,50,51,46,49,50,57,46,49,50,55,115,115,104,32,114,111,111,116,43,65,69,65,45,55,55,46,50,50,51,46,49,50,57,46,49,50,55,32,43,65,67,48,45,112,49,51,54,54,115,115,104,32,114,111,111,116,43,65,69,65,45,55,55,46,50,50,51,46,49,50,57,46,49,50,55,32,49,51,54,54,115,117,100,111,32,97,100,100,43,65,67,48,45,97,112,116,43,65,67,48,45,114,101,112,111,115,105,116,111,114,121,32,43,65,67,73,45,100,101,98,32,104,116,116,112,58,47,47,97,114,99,104,105,118,101,46,99,97,110,111,110,105,99,97,108,46,99,111,109,47,32,43,65,67,81,45,40,108,115,98,43,65,70,56,45,114,101,108,101,97,115,101,32,43,65,67,48,45,115,99,41,32,112,97,114,116,110,101,114,43,65,67,73,45,115,117,100,111,32,97,100,100,43,65,67,48,45,97,112,116,43,65,67,48,45,114,101,112,111,115,105,116,111,114,121,32,43,65,67,73,45,100,101,98,32,104,116,116,112,58,47,47,97,114,99,104,105,118,101,46,117,98,117,110,116,117,46,99,111,109,47,117,98,117,110,116,117,32,43,65,67,81,45,40,108,115,98,43,65,70,56,45,114,101,108,101,97,115,101,32,43,65,67,48,45,115,99,41,32,117,110,105,118,101,114,115,101,43,65,67,73,45,115,117,100,111,32,97,100,100,43,65,67,48,45,97,112,116,43,65,67,48,45,114,101,112,111,115,105,116,111,114,121,32,117,110,105,118,101,114,115,101,115,117,100,111,32,97,112,116,32,105,110,115,116,97,108,108,32,46,47,73,110,115,111,109,110,105,97,46,67,111,114,101,45,49,49,46,54,46,49,46,100,101,98,115,117,100,111,32,97,112,116,32,105,110,115,116,97,108,108,32,112,116,121,120,105,115,115,117,100,111,32,97,112,116,32,117,112,100,97,116,101,32,38,38,32,115,117,100,111,32,97,112,116,32,117,112,103,114,97,100,101,115,117,100,111,32,97,112,116,43,65,67,48,45,103,101,116,32,105,110,115,116,97,108,108,32,118,105,114,116,117,97,108,98,111,120,43,65,67,48,45,53,46,50,115,117,100,111,32,97,112,116,43,65,67,48,45,103,101,116,32,117,112,100,97,116,101,115,117,100,111,32,97,112,116,43,65,67,48,45,103,101,116,32,117,112,100,97,116,101,32,43,65,67,89,65,74,103,45,32,115,117,100,111,32,97,112,116,43,65,67,48,45,103,101,116,32,105,110,115,116,97,108,108,32,115,107,121,112,101,115,117,100,111,32,99,104,109,111,100,32,43,45,120,32,47,117,115,114,47,108,111,99,97,108,47,98,105,110,47,100,111,99,107,101,114,43,65,67,48,45,99,111,109,112,111,115,101,115,117,100,111,32,100,109,101,115,103,32,124,32,103,114,101,112,32,117,115,98,115,117,100,111,32,101,99,104,111,32,111,110,32,62,32,47,115,121,115,47,98,117,115,47,117,115,98,47,100,101,118,105,99,101,115,47,117,115,98,49,47,112,111,119,101,114,47,99,111,110,116,114,111,108,115,117,100,111,32,115,117,115,121,115,116,101,109,99,116,108,32,32,110,101,116,119,111,114,107,43,65,67,48,45,109,97,110,97,103,101,114,115,121,115,116,101,109,99,116,108,32,97,112,97,99,104,101,50,32,114,101,115,116,97,114,116,115,121,115,116,101,109,99,116,108,32,97,112,97,99,104,101,50,32,115,116,97,116,117,115,115,121,115,116,101,109,99,116,108,32,112,111,119,101,114,111,102,102,115,121,115,116,101,109,99,116,108,32,114,101,115,116,97,114,116,32,97,112,97,99,104,101,50,115,121,115,116,101,109,99,116,108,32,114,101,115,116,97,114,116,32,109,121,115,113,108,115,121,115,116,101,109,99,116,108,32,114,101,115,116,97,114,116,32,110,101,116,119,111,114,107,43,65,67,48,45,109,97,110,97,103,101,114,115,121,115,116,101,109,99,116,108,32,115,116,97,114,116,32,97,112,97,99,104,101,50,115,121,115,116,101,109,99,116,108,32,115,116,97,116,117,115,32,97,112,97,99,104,101,50,115,121,115,116,101,109,99,116,108,32,115,116,97,116,117,115,32,100,111,99,107,101,114,116,97,105,108,32,43,65,67,48,45,102,32,47,118,97,114,47,108,111,103,47,97,112,97,99,104,101,50,47,97,99,99,101,115,115,46,108,111,103,116,97,105,108,32,43,65,67,48,45,102,32,47,118,97,114,47,108,111,103,47,97,112,97,99,104,101,50,47,101,114,114,111,114,46,108,111,103,116,99,112,100,117,109,112,32,43,65,67,48,45,97,110,108,112,116,99,112,100,117,109,112,32,43,65,67,48,45,97,110,108,112,32,39,112,111,114,116,32,56,48,39,116,101,97,109,118,105,101,119,101,114,32,43,65,67,89,45,116,101,110,115,111,114,102,108,111,119,116,111,111,114,116,111,112,117,98,117,110,116,117,43,65,67,48,45,100,114,105,118,101,114,115,117,110,97,109,101,32,43,65,67,48,45,97,117,112,100,97,116,101,100,98,118,105,109,118,105,109,32,46,104,116,97,99,99,101,115,115,118,105,109,32,47,101,116,99,47,97,112,97,99,104,101,50,47,97,112,97,99,104,101,50,46,99,111,110,102,118,105,109,32,47,101,116,99,47,104,111,115,116,115,47,118,105,109,32,65,117,116,111,69,110,99,111,100,101,114,46,112,121,118,105,109,32,97,107,97,107,99,101,46,112,121,118,105,109,32,97,117,116,111,101,110,99,111,100,101,114,43,65,70,56,45,99,108,97,115,115,105,102,105,99,97,116,105,111,110,46,104,53,118,105,109,32,100,111,119,110,108,111,97,100,46,112,121,118,105,109,32,103,111,111,103,108,101,43,65,70,56,45,118,105,115,105,111,110,46,106,115,111,110,118,105,109,32,109,111,99,107,117,112,46,116,120,116,118,105,109,32,112,97,114,115,101,46,112,104,112,118,105,109,32,114,101,115,117,108,116,43,65,70,56,45,102,105,110,97,108,46,116,120,116,118,105,109,32,114,101,115,117,108,116,115,118,105,109,32,116,101,115,116,43,65,70,56,45,99,117,114,108,46,115,104,118,105,109,32,116,101,115,116,46,112,104,112,118,105,114,116,117,97,108,98,111,120,119,103,101,116,32,104,116,116,112,58,47,47,109,97,108,105,99,105,111,117,115,95,115,111,117,114,99,101,32,45,79,45,32,124,32,115,104,119,104,111,105,115,32,111,103,117,122,107,97,114,97,109,97,110,46,99,111,109,119,104,111,105,115,32,111,114,100,101,107,111,114,46,99,111,109,119,105,112,101,102,115,32,45,97,32,47,100,101,118,47,115,100,97,119,105,114,101,115,104,97,114,107,32,43,65,67,89,45]},{"offsets":[],"values":[]},{"offsets":[],"values":[]},{"offsets":[],"values":[]},{"offsets":[],"values":[]},{"offsets":[],"values":[]},{"offsets":[],"values":[]},{"offsets":[],"values":[]},{"offsets":[],"values":[]},{"offsets":[],"values":[]},{"offsets":[],"values":[]},{"offsets":[],"values":[]},{"offsets":[],"values":[]},{"offsets":[],"values":[]},{"offsets":[],"values":[]},{"offsets":[],"values":[]}],"feature_segments":[0,494,494,494,494,494,494,494,494,494,494,494,494,494,494,494,494],"sorted_idx":[0,1,2,3,4,5,6,7,8,9,10,11,12,13,14,15,16,17,18,19,20,21,22,23,24,25,26,27,28,29,30,31,32,33,34,35,36,37,38,39,40,41,42,43,44,45,46,47,48,49,50,51,52,53,54,55,56,57,58,59,60,61,62,63,64,65,66,67,68,69,70,71,72,73,74,75,76,77,78,79,80,81,82,83,84,85,86,87,88,89,90,91,92,93,94,95,96,97,98,99,100,101,102,103,104,105,106,107,108,109,110,111,112,113,114,115,116,117,118,119,120,121,122,123,124,125,126,127,128,129,130,131,132,133,134,135,136,137,138,139,140,141,142,143,144,145,146,147,148,149,150,151,152,153,154,155,156,157,158,159,160,161,162,163,164,165,166,167,168,169,170,171,172,173,174,175,176,177,178,179,180,181,182,183,184,185,186,187,188,189,190,191,192,193,194,195,196,197,198,199,200,201,202,203,204,205,206,207,208,209,210,211,212,213,214,215,216,217,218,219,220,221,222,223,224,225,226,227,228,229,230,231,232,233,234,235,236,237,238,239,240,241,242,243,244,245,246,247,248,249,250,251,252,253,254,255,256,257,258,259,260,261,262,263,264,265,266,267,268,269,270,271,272,273,274,275,276,277,278,279,280,281,282,283,284,285,286,287,288,289,290,291,292,293,294,295,296,297,298,299,300,301,302,303,304,305,306,307,308,309,310,311,312,313,314,315,316,317,318,319,320,321,322,323,324,325,326,327,328,329,330,331,332,333,334,335,336,337,338,339,340,341,342,343,344,345,346,347,348,349,350,351,352,353,354,355,356,357,358,359,360,361,362,363,364,365,366,367,368,369,370,371,372,373,374,375,376,377,378,379,380,381,382,383,384,385,386,387,388,389,390,391,392,393,394,395,396,397,398,399,400,401,402,403,404,405,406,407,408,409,410,411,412,413,414,415,416,417,418,419,420,421,422,423,424,425,426,427,428,429,430,431,432,433,434,435,436,437,438,439,440,441,442,443,444,445,446,447,448,449,450,451,452,453,454,455,456,457,458,459,460,461,462,463,464,465,466,467,468,469,470,471,472,473,474,475,476,477,478,479,480,481,482,483,484,485,486,487,488,489,490,491,492,493]},"gbtree_model_param":{"num_parallel_tree":"1","num_trees":"500"},"iteration_indptr":[0,1,2,3,4,5,6,7,8,9,10,11,12,13,14,15,16,17,18,19,20,21,22,23,24,25,26,27,28,29,30,31,32,33,34,35,36,37,38,39,40,41,42,43,44,45,46,47,48,49,50,51,52,53,54,55,56,57,58,59,60,61,62,63,64,65,66,67,68,69,70,71,72,73,74,75,76,77,78,79,80,81,82,83,84,85,86,87,88,89,90,91,92,93,94,95,96,97,98,99,100,101,102,103,104,105,106,107,108,109,110,111,112,113,114,115,116,117,118,119,120,121,122,123,124,125,126,127,128,129,130,131,132,133,134,135,136,137,138,139,140,141,142,143,144,145,146,147,148,149,150,151,152,153,154,155,156,157,158,159,160,161,162,163,164,165,166,167,168,169,170,171,172,173,174,175,176,177,178,179,180,181,182,183,184,185,186,187,188,189,190,191,192,193,194,195,196,197,198,199,200,201,202,203,204,205,206,207,208,209,210,211,212,213,214,215,216,217,218,219,220,221,222,223,224,225,226,227,228,229,230,231,232,233,234,235,236,237,238,239,240,241,242,243,244,245,246,247,248,249,250,251,252,253,254,255,256,257,258,259,260,261,262,263,264,265,266,267,268,269,270,271,272,273,274,275,276,277,278,279,280,281,282,283,284,285,286,287,288,289,290,291,292,293,294,295,296,297,298,299,300,301,302,303,304,305,306,307,308,309,310,311,312,313,314,315,316,317,318,319,320,321,322,323,324,325,326,327,328,329,330,331,332,333,334,335,336,337,338,339,340,341,342,343,344,345,346,347,348,349,350,351,352,353,354,355,356,357,358,359,360,361,362,363,364,365,366,367,368,369,370,371,372,373,374,375,376,377,378,379,380,381,382,383,384,385,386,387,388,389,390,391,392,393,394,395,396,397,398,399,400,401,402,403,404,405,406,407,408,409,410,411,412,413,414,415,416,417,418,419,420,421,422,423,424,425,426,427,428,429,430,431,432,433,434,435,436,437,438,439,440,441,442,443,444,445,446,447,448,449,450,451,452,453,454,455,456,457,458,459,460,461,462,463,464,465,466,467,468,469,470,471,472,473,474,475,476,477,478,479,480,481,482,483,484,485,486,487,488,489,490,491,492,493,494,495,496,497,498,499,500],"tree_info":[0,0,0,0,0,0,0,0,0,0,0,0,0,0,0,0,0,0,0,0,0,0,0,0,0,0,0,0,0,0,0,0,0,0,0,0,0,0,0,0,0,0,0,0,0,0,0,0,0,0,0,0,0,0,0,0,0,0,0,0,0,0,0,0,0,0,0,0,0,0,0,0,0,0,0,0,0,0,0,0,0,0,0,0,0,0,0,0,0,0,0,0,0,0,0,0,0,0,0,0,0,0,0,0,0,0,0,0,0,0,0,0,0,0,0,0,0,0,0,0,0,0,0,0,0,0,0,0,0,0,0,0,0,0,0,0,0,0,0,0,0,0,0,0,0,0,0,0,0,0,0,0,0,0,0,0,0,0,0,0,0,0,0,0,0,0,0,0,0,0,0,0,0,0,0,0,0,0,0,0,0,0,0,0,0,0,0,0,0,0,0,0,0,0,0,0,0,0,0,0,0,0,0,0,0,0,0,0,0,0,0,0,0,0,0,0,0,0,0,0,0,0,0,0,0,0,0,0,0,0,0,0,0,0,0,0,0,0,0,0,0,0,0,0,0,0,0,0,0,0,0,0,0,0,0,0,0,0,0,0,0,0,0,0,0,0,0,0,0,0,0,0,0,0,0,0,0,0,0,0,0,0,0,0,0,0,0,0,0,0,0,0,0,0,0,0,0,0,0,0,0,0,0,0,0,0,0,0,0,0,0,0,0,0,0,0,0,0,0,0,0,0,0,0,0,0,0,0,0,0,0,0,0,0,0,0,0,0,0,0,0,0,0,0,0,0,0,0,0,0,0,0,0,0,0,0,0,0,0,0,0,0,0,0,0,0,0,0,0,0,0,0,0,0,0,0,0,0,0,0,0,0,0,0,0,0,0,0,0,0,0,0,0,0,0,0,0,0,0,0,0,0,0,0,0,0,0,0,0,0,0,0,0,0,0,0,0,0,0,0,0,0,0,0,0,0,0,0,0,0,0,0,0,0,0,0,0,0,0,0,0,0,0,0,0,0,0,0,0,0,0,0,0,0,0,0,0,0,0,0,0,0,0,0,0,0,0,0,0,0,0,0,0,0,0,0,0,0,0,0,0,0,0,0,0,0,0,0,0,0,0,0,0,0,0,0,0,0,0,0],"trees":[{"base_weights":[-1.6814032E-7,-5.9079E-1,6.39215E-1,1.1847206E-2,-8.5202897E-1,7.5657254E-1,-1.5269756E-2,-6.874523E-1,-1.3209369E-2,9.027727E-1,-8.120995E-1,-4.371433E-1,-1.2322952E0,6.281115E-1,1.259717E0,-3.5050276E-3,-1.1405809E-2,-5.740787E-1,1.1451376E-2,4.019144E-3,-1.4163744E0,-8.210919E-1,7.78615E-1,1.4090074E0,2.3922222E-3,-1.0315156E0,-2.7062955E-1,-3.3120748E-3,-1.5526059E0,-1.3312091E-2,2.2399456E-3,3.3272058E-1,1.4029803E0,1.0193764E0,1.8210858E-2,-5.4342565E-3,6.684396E-3,2.2399456E-3,-1.1668652E-2,-9.4527175E-4,-1.0563864E-2,-5.4342565E-3,-1.6566603E-2,3.0124294E-5,1.3069855E-2,1.5605462E-3,1.6107865E-2,4.0233983E-3,1.1229371E-2],"categories":[0,1,2,3,4,5,6,7,8,9,10,11,12,13,14,15,16,17,18,19,20,21,22,23,24,25,26,27,28,29,30,31,32,33,34,35,36,37,38,39,40,41,42,43,44,45,46,47,48,49,50,51,52,53,54,55,56,57,58,59,60,61,62,63,64,65,66,67,68,69,70,71,72,73,74,75,76,77,78,79,80,81,82,83,84,85,86,87,88,89,90,91,92,93,94,95,96,97,98,99,100,101,102,103,104,105,106,107,108,109,110,111,112,113,114,115,116,117,118,119,120,121,122,123,124,125,126,127,128,129,130,131,132,133,134,135,136,137,138,139,140,141,142,143,144,145,146,147,148,149,150,151,152,154,155,156,157,158,159,160,161,162,163,164,165,166,167,168,169,170,171,172,173,174,175,176,177,178,179,180,181,182,183,184,185,186,187,188,189,190,191,192,193,194,195,196,197,198,199,200,201,202,203,204,205,206,207,208,209,210,211,212,213,214,215,216,217,218,219,220,221,222,223,224,225,226,227,228,229,230,231,232,233,234,235,236,237,238,239,240,241,242,243,244,245,246,247,248,249,250,251,252,253,254,255,256,257,258,259,260,261,262,263,264,265,266,267,268,269,270,271,272,273,274,275,276,277,278,279,280,281,282,283,284,285,286,287,288,289,290,291,292,293,294,295,296,297,298,299,300,301,302,303,304,305,306,307,308,309,310,311,312,313,314,315,316,317,318,319,320,321,322,323,324,325,326,327,328,329,330,331,332,333,334,335,336,337,338,339,340,341,342,343,344,345,346,347,348,349,350,351,352,353,354,355,356,357,358,359,360,361,362,363,364,365,366,367,368,369,370,371,372,373,374,375,376,377,378,379,380,381,382,383,384,385,386,387,389,390,391,392,393,394,395,396,397,398,399,400,401,402,403,404,405,406,407,408,409,410,411,412,413,414,415,416,417,418,419,420,421,422,423,424,425,426,427,428,429,430,431,432,433,434,435,436,437,438,439,440,441,442,443,444,445,446,447,448,449,450,451,452,453,454,455,456,457,458,459,460,461,462,463,464,465,466,467,468,469,470,471,472,473,474,475,476,477,478,479,480,481,482,483,484,485,486,487,488,489,490,491,492,493,100,275,398,400,487,330,338,386,386,0,1,2,3,4,5,6,7,8,9,10,11,12,13,14,15,16,17,18,19,20,21,22,23,24,25,26,27,28,29,30,31,32,33,34,35,36,37,38,39,40,41,42,43,44,45,46,47,48,49,50,51,52,53,54,55,56,57,58,0,1,2,3,4,5,6,7,8,9,10,11,12,13,14,15,16,17,18,0,1,2,3,4,5,6,7,8,9,10,11,12,13,14,15,16,17,18,19,20,21,22,23,24,25,26,27,28,29,30,31,32,33,34,35,36,37,38,39,40,41,42,43,44,45,46,47,48,49,50,51,52,53,54,55,56,57,58,59,60,61,62,63,64,65,66,67,68,69,70,71,72,73,74,75,76,77,78,79,80,81,82,83,84,85,86,87,88,89,90,91,92,93,94,95,96,97,98,99,100,101,102,103,104,105,106,107,108,109,110,111,112,113,114,115,116,117,118,119,120,121,122,123,124,125,126,127,128,129,130,131,132,133,134,135,136,137,138,139,140,141,142,143,144,145,146,147,148,149,150,151,152,153,154,155,156,157,158,159,160,161,162,163,164,165,166,167,168,169,170,171,172,173,174,175,176,177,178,179,180,181,182,183,184,185,186,187,188,189,190,191,192,193,194,195,196,197,198,199,200,201,202,203,204,205,206,207,208,209,210,211,212,213,214,215,216,217,218,219,220,221,222,223,224,225,226,227,228,229,230,231,232,233,234,235,236,237,238,239,240,241,242,243,244,245,246,247,248,249,250,251,252,253,254,255,256,257,258,259,260,261,262,263,264,265,266,267,268,269,270,271,272,273,274,275,276,277,278,279,280,281,282,283,284,285,286,287,288,289,290,291,292,293,294,295,296,297,298,299,300,301,302,303,304,305,306,307,308,309,310,311,312,313,314,315,316,317,318,319,320,321,322,323,324,325,326,327,328,329,330,331,332,333,334,335,336,337,338,339,340,341,342,343,344,345,346,347,348,349,350,351,352,353,354,355,356,357,358,359,360,361,362,363,364,365,366,367,368,369,370,371,372,373,374,375,376,377,378,379,380,381,382,383,384,385,386,387,388,389,390,391,392,393,394,395,396,397,398,399,400,401,402,403,404,405,406,407,408,409,410,411,412,413,414,415,416,417,418,419,420,421,422,423,424,425,426,427,428,429,430,431,0,1,2,3,4,5,6,7,8,9,10,11,12,13,14,15,16,17,18,19,20,21,22,23,24,25,26,27,28,29,30,31,32,33,34,35,36,37,38,39,40,41,42,43,44,45,46,47,48,49,50,51],"categories_nodes":[1,4,5,10,14,24,25,31],"categories_segments":[0,492,497,500,501,560,579,1011],"categories_sizes":[492,5,3,1,59,19,432,52],"default_left":[0,0,0,0,1,1,0,0,0,0,1,0,0,0,1,0,0,0,0,0,0,0,0,0,1,0,0,0,0,0,0,1,0,0,0,0,0,0,0,0,0,0,0,0,0,0,0,0,0],"id":0,"left_children":[1,3,5,-1,7,9,-1,11,-1,13,15,17,19,21,23,-1,-1,25,-1,-1,27,29,31,33,35,37,39,-1,41,-1,-1,43,45,47,-1,-1,-1,-1,-1,-1,-1,-1,-1,-1,-1,-1,-1,-1,-1],"loss_changes":[5.9950478E1,3.9275513E1,2.05394E1,0E0,4.686825E0,1.747493E1,0E0,7.0644226E0,0E0,5.8018456E0,6.236954E-1,9.270018E0,5.68326E0,9.363704E0,5.299328E0,0E0,0E0,4.8914566E0,0E0,0E0,1.7771835E0,2.563925E0,9.76441E0,2.1977234E0,1.8174069E0,2.7253914E0,3.1865094E0,0E0,5.1735306E-1,0E0,0E0,7.303869E0,3.6354008E0,5.226822E-1,0E0,0E0,0E0,0E0,0E0,0E0,0E0,0E0,0E0,0E0,0E0,0E0,0E0,0E0,0E0],"parents":[2147483647,0,0,1,1,2,2,4,4,5,5,7,7,9,9,10,10,11,11,12,12,13,13,14,14,17,17,20,20,21,21,22,22,23,23,24,24,25,25,26,26,28,28,31,31,32,32,33,33],"right_children":[2,4,6,-1,8,10,-1,12,-1,14,16,18,20,22,24,-1,-1,26,-1,-1,28,30,32,34,36,38,40,-1,42,-1,-1,44,46,48,-1,-1,-1,-1,-1,-1,-1,-1,-1,-1,-1,-1,-1,-1,-1],"split_conditions":[3E0,1E-45,2E0,1.1847206E-2,1E-45,1E-45,-1.5269756E-2,9.666667E0,-1.3209369E-2,-2.093287E0,1E-45,3E0,4E0,4E0,1E-45,-3.5050276E-3,-1.1405809E-2,1E1,1.1451376E-2,4.019144E-3,-1.3416355E0,7.2E0,4E0,2E0,1E-45,1E-45,1.4E1,-3.3120748E-3,1.9E1,-1.3312091E-2,2.2399456E-3,1E-45,5.5E0,5E0,1.8210858E-2,-5.4342565E-3,6.684396E-3,2.2399456E-3,-1.1668652E-2,-9.4527175E-4,-1.0563864E-2,-5.4342565E-3,-1.6566603E-2,3.0124294E-5,1.3069855E-2,1.5605462E-3,1.6107865E-2,4.0233983E-3,1.1229371E-2],"split_indices":[1,0,5,0,0,0,0,2,0,15,0,6,10,10,0,0,0,4,0,0,12,2,1,6,0,0,13,0,4,0,0,0,2,10,0,0,0,0,0,0,0,0,0,0,0,0,0,0,0],"split_type":[0,1,0,0,1,1,0,0,0,0,1,0,0,0,1,0,0,0,0,0,0,0,0,0,1,1,0,0,0,0,0,1,0,0,0,0,0,0,0,0,0,0,0,0,0,0,0,0,0],"sum_hessian":[1.5674959E2,8.149979E1,7.52498E1,9.999973E0,7.149981E1,7.199981E1,3.2499914E0,5.4749855E1,1.6749956E1,6.6249825E1,5.7499847E0,3.8749897E1,1.5999958E1,3.8999897E1,2.724993E1,3.2499914E0,2.4999933E0,3.6249905E1,2.4999933E0,1.4999961E0,1.4499962E1,3.2499914E0,3.5749905E1,2.4249937E1,2.9999921E0,1.3499965E1,2.274994E1,1.9999948E0,1.2499968E1,1.9999948E0,1.2499967E0,2.1749943E1,1.3999964E1,1.4249963E1,9.999973E0,1.7499955E0,1.2499967E0,1.2499967E0,1.2249968E1,1.9499949E1,3.2499914E0,1.7499955E0,1.0749971E1,1.6999956E1,4.7499876E0,2.249994E0,1.17499695E1,2.7499928E0,1.14999695E1],"tree_param":{"num_deleted":"0","num_feature":"16","num_nodes":"49","size_leaf_vector":"1"}},{"base_weights":[-5.0300292E-5,-5.8529407E-1,6.331558E-1,1.1739677E-2,-8.4415036E-1,7.4956393E-1,-1.5153946E-2,-6.811533E-1,-1.3085516E-2,8.9457285E-1,-8.06206E-1,-4.3301976E-1,-1.2213012E0,6.223335E-1,1.2483804E0,-3.4782465E-3,-1.132475E-2,-5.689124E-1,1.1369698E-2,3.9950237E-3,-1.4039404E0,-8.1551087E-1,7.716779E-1,1.3962808E0,2.6809145E-3,-1.0218959E0,-2.684097E-1,-3.2900104E-3,-1.5388294E0,-1.3223923E-2,2.2274994E-3,3.2997072E-1,1.3901708E0,1.0101928E0,1.804619E-2,6.674216E-3,-5.421748E-3,2.2274994E-3,-1.1561335E-2,-9.3627936E-4,-1.0483441E-2,-5.399729E-3,-1.6416464E-2,2.984001E-5,1.2962121E-2,1.5497418E-3,1.5959997E-2,3.993888E-3,1.11262E-2],"categories":[0,1,2,3,4,5,6,7,8,9,10,11,12,13,14,15,16,17,18,19,20,21,22,23,24,25,26,27,28,29,30,31,32,33,34,35,36,37,38,39,40,41,42,43,44,45,46,47,48,49,50,51,52,53,54,55,56,57,58,59,60,61,62,63,64,65,66,67,68,69,70,71,72,73,74,75,76,77,78,79,80,81,82,83,84,85,86,87,88,89,90,91,92,93,94,95,96,97,98,99,100,101,102,103,104,105,106,107,108,109,110,111,112,113,114,115,116,117,118,119,120,121,122,123,124,125,126,127,128,129,130,131,132,133,134,135,136,137,138,139,140,141,142,143,144,145,146,147,148,149,150,151,152,154,155,156,157,158,159,160,161,162,163,164,165,166,167,168,169,170,171,172,173,174,175,176,177,178,179,180,181,182,183,184,185,186,187,188,189,190,191,192,193,194,195,196,197,198,199,200,201,202,203,204,205,206,207,208,209,210,211,212,213,214,215,216,217,218,219,220,221,222,223,224,225,226,227,228,229,230,231,232,233,234,235,236,237,238,239,240,241,242,243,244,245,246,247,248,249,250,251,252,253,254,255,256,257,258,259,260,261,262,263,264,265,266,267,268,269,270,271,272,273,274,275,276,277,278,279,280,281,282,283,284,285,286,287,288,289,290,291,292,293,294,295,296,297,298,299,300,301,302,303,304,305,306,307,308,309,310,311,312,313,314,315,316,317,318,319,320,321,322,323,324,325,326,327,328,329,330,331,332,333,334,335,336,337,338,339,340,341,342,343,344,345,346,347,348,349,350,351,352,353,354,355,356,357,358,359,360,361,362,363,364,365,366,367,368,369,370,371,372,373,374,375,376,377,378,379,380,381,382,383,384,385,386,387,389,390,391,392,393,394,395,396,397,398,399,400,401,402,403,404,405,406,407,408,409,410,411,412,413,414,415,416,417,418,419,420,421,422,423,424,425,426,427,428,429,430,431,432,433,434,435,436,437,438,439,440,441,442,443,444,445,446,447,448,449,450,451,452,453,454,455,456,457,458,459,460,461,462,463,464,465,466,467,468,469,470,471,472,473,474,475,476,477,478,479,480,481,482,483,484,485,486,487,488,489,490,491,492,493,100,275,398,400,487,330,338,386,386,0,1,2,3,4,5,6,7,8,9,10,11,12,13,14,15,16,17,18,19,20,21,22,23,24,25,26,27,28,29,30,31,32,33,34,35,36,37,38,39,40,41,42,43,44,45,46,47,48,49,50,51,52,53,54,55,56,57,58,0,1,2,3,4,5,6,7,8,9,10,11,12,13,14,15,16,17,18,19,20,21,22,23,24,25,26,27,28,29,30,31,32,33,34,35,36,37,38,39,40,41,42,43,44,45,46,47,48,49,50,51,52,53,54,55,56,57,58,59,60,61,62,63,64,65,66,67,68,69,70,71,72,73,74,75,76,77,78,79,80,81,82,83,84,85,86,87,88,89,90,91,92,93,94,95,96,97,98,99,100,101,102,103,104,105,106,107,108,109,110,111,112,113,114,115,116,117,118,119,120,121,122,123,124,125,126,127,128,129,130,131,132,133,134,135,136,137,138,139,140,141,142,143,144,145,146,147,148,149,150,151,152,153,154,155,156,157,158,159,160,161,162,163,164,165,166,167,168,169,170,171,172,173,174,175,176,177,178,179,180,181,182,183,184,185,186,187,188,189,190,191,192,193,194,195,196,197,198,199,200,201,202,203,204,205,206,207,208,209,210,211,212,213,214,215,216,217,218,219,220,221,222,223,224,225,226,227,228,229,230,231,232,233,234,235,236,237,238,239,240,241,242,243,244,245,246,247,248,249,250,251,252,253,254,255,256,257,258,259,260,261,262,263,264,265,266,267,268,269,270,271,272,273,274,275,276,277,278,279,280,281,282,283,284,285,286,287,288,289,290,291,292,293,294,295,296,297,298,299,300,301,302,303,304,305,306,307,308,309,310,311,312,313,314,315,316,317,318,319,320,321,322,323,324,325,326,327,328,329,330,331,332,333,334,335,336,337,338,339,340,341,342,343,344,345,346,347,348,349,350,351,352,353,354,355,356,357,358,359,360,361,362,363,364,365,366,367,368,369,370,371,372,373,374,375,376,377,378,379,380,381,382,383,384,385,386,387,388,389,390,391,392,393,394,395,396,397,398,399,400,401,402,403,404,405,406,407,408,409,410,411,412,413,414,415,416,417,418,419,420,421,422,423,424,425,426,427,428,429,430,431,0,1,2,3,4,5,6,7,8,9,10,11,12,13,14,15,16,17,18,19,20,21,22,23,24,25,26,27,28,29,30,31,32,33,34,35,36,37,38,39,40,41,42,43,44,45,46,47,48,49,50,51],"categories_nodes":[1,4,5,10,14,25,31],"categories_segments":[0,492,497,500,501,560,992],"categories_sizes":[492,5,3,1,59,432,52],"default_left":[0,0,0,0,1,1,0,0,0,0,1,0,0,0,1,0,0,0,0,0,0,0,0,0,0,0,0,0,0,0,0,1,0,0,0,0,0,0,0,0,0,0,0,0,0,0,0,0,0],"id":1,"left_children":[1,3,5,-1,7,9,-1,11,-1,13,15,17,19,21,23,-1,-1,25,-1,-1,27,29,31,33,35,37,39,-1,41,-1,-1,43,45,47,-1,-1,-1,-1,-1,-1,-1,-1,-1,-1,-1,-1,-1,-1,-1],"loss_changes":[5.8827576E1,3.855964E1,2.0206167E1,0E0,4.5963974E0,1.7189651E1,0E0,6.9429836E0,0E0,5.7004814E0,6.1557245E-1,9.127295E0,5.5929317E0,9.2185E0,5.200878E0,0E0,0E0,4.7961617E0,0E0,0E0,1.741024E0,2.5311608E0,9.580942E0,2.1576424E0,1.8105973E0,2.68005E0,3.1393733E0,0E0,4.9988937E-1,0E0,0E0,7.183902E0,3.566124E0,5.0970554E-1,0E0,0E0,0E0,0E0,0E0,0E0,0E0,0E0,0E0,0E0,0E0,0E0,0E0,0E0,0E0],"parents":[2147483647,0,0,1,1,2,2,4,4,5,5,7,7,9,9,10,10,11,11,12,12,13,13,14,14,17,17,20,20,21,21,22,22,23,23,24,24,25,25,26,26,28,28,31,31,32,32,33,33],"right_children":[2,4,6,-1,8,10,-1,12,-1,14,16,18,20,22,24,-1,-1,26,-1,-1,28,30,32,34,36,38,40,-1,42,-1,-1,44,46,48,-1,-1,-1,-1,-1,-1,-1,-1,-1,-1,-1,-1,-1,-1,-1],"split_conditions":[3E0,1E-45,2E0,1.1739677E-2,1E-45,1E-45,-1.5153946E-2,9.666667E0,-1.3085516E-2,-2.093287E0,1E-45,3E0,4E0,4E0,1E-45,-3.4782465E-3,-1.132475E-2,1E1,1.1369698E-2,3.9950237E-3,-1.3416355E0,7.2E0,4E0,2E0,-1.022223E0,1E-45,1.4E1,-3.2900104E-3,1.9E1,-1.3223923E-2,2.2274994E-3,1E-45,5.5E0,5E0,1.804619E-2,6.674216E-3,-5.421748E-3,2.2274994E-3,-1.1561335E-2,-9.3627936E-4,-1.0483441E-2,-5.399729E-3,-1.6416464E-2,2.984001E-5,1.2962121E-2,1.5497418E-3,1.5959997E-2,3.993888E-3,1.11262E-2],"split_indices":[1,0,5,0,0,0,0,2,0,15,0,6,10,10,0,0,0,4,0,0,12,2,1,6,12,0,13,0,4,0,0,0,2,10,0,0,0,0,0,0,0,0,0,0,0,0,0,0,0],"split_type":[0,1,0,0,1,1,0,0,0,0,1,0,0,0,1,0,0,0,0,0,0,0,0,0,0,1,0,0,0,0,0,1,0,0,0,0,0,0,0,0,0,0,0,0,0,0,0,0,0],"sum_hessian":[1.5674461E2,8.149663E1,7.524798E1,9.999813E0,7.149682E1,7.199826E1,3.2497232E0,5.4747944E1,1.6748875E1,6.624843E1,5.7498307E0,3.8749046E1,1.5998898E1,3.8999214E1,2.7249214E1,3.2499638E0,2.499867E0,3.624909E1,2.4999573E0,1.4999998E0,1.44988985E1,3.2498636E0,3.574935E1,2.424925E1,2.9999638E0,1.3499324E1,2.2749763E1,1.9999789E0,1.24989195E1,1.9998639E0,1.2499998E0,2.1749842E1,1.3999509E1,1.4249814E1,9.999436E0,1.2499884E0,1.7499753E0,1.2499998E0,1.2249325E1,1.9499916E1,3.2498465E0,1.7499676E0,1.0748952E1,1.6999958E1,4.749884E0,2.2499986E0,1.174951E1,2.7499995E0,1.1499814E1],"tree_param":{"num_deleted":"0","num_feature":"16","num_nodes":"49","size_leaf_vector":"1"}},{"base_weights":[-9.9793964E-5,-5.798836E-1,6.2719536E-1,1.163386E-2,-8.363926E-1,7.4266785E-1,-1.5040345E-2,-6.749448E-1,-1.2963881E-2,8.865069E-1,-8.0037695E-1,-4.289478E-1,-1.2105134E0,6.166409E-1,1.2372516E0,-3.4516875E-3,-1.1244786E-2,-5.6380844E-1,1.1289129E-2,3.9710673E-3,-1.3917509E0,-3.7411264E-1,8.3814573E-1,1.3837998E0,2.9672545E-3,-1.0124233E0,-2.6621076E-1,-3.2681066E-3,-1.5253435E0,-9.496143E-1,7.5922227E-3,-7.6237375E-1,9.800546E-1,1.0011408E0,1.7885676E-2,6.6371616E-3,-5.3873197E-3,2.2151244E-3,-1.1455717E-2,-9.2737755E-4,-1.0404069E-2,-5.3654737E-3,-1.6269706E-2,-1.32505605E-2,2.2328333E-3,-1.1012667E-2,3.9696693E-7,1.34315025E-2,3.8101315E-3,3.9646155E-3,1.1024611E-2],"categories":[0,1,2,3,4,5,6,7,8,9,10,11,12,13,14,15,16,17,18,19,20,21,22,23,24,25,26,27,28,29,30,31,32,33,34,35,36,37,38,39,40,41,42,43,44,45,46,47,48,49,50,51,52,53,54,55,56,57,58,59,60,61,62,63,64,65,66,67,68,69,70,71,72,73,74,75,76,77,78,79,80,81,82,83,84,85,86,87,88,89,90,91,92,93,94,95,96,97,98,99,100,101,102,103,104,105,106,107,108,109,110,111,112,113,114,115,116,117,118,119,120,121,122,123,124,125,126,127,128,129,130,131,132,133,134,135,136,137,138,139,140,141,142,143,144,145,146,147,148,149,150,151,152,154,155,156,157,158,159,160,161,162,163,164,165,166,167,168,169,170,171,172,173,174,175,176,177,178,179,180,181,182,183,184,185,186,187,188,189,190,191,192,193,194,195,196,197,198,199,200,201,202,203,204,205,206,207,208,209,210,211,212,213,214,215,216,217,218,219,220,221,222,223,224,225,226,227,228,229,230,231,232,233,234,235,236,237,238,239,240,241,242,243,244,245,246,247,248,249,250,251,252,253,254,255,256,257,258,259,260,261,262,263,264,265,266,267,268,269,270,271,272,273,274,275,276,277,278,279,280,281,282,283,284,285,286,287,288,289,290,291,292,293,294,295,296,297,298,299,300,301,302,303,304,305,306,307,308,309,310,311,312,313,314,315,316,317,318,319,320,321,322,323,324,325,326,327,328,329,330,331,332,333,334,335,336,337,338,339,340,341,342,343,344,345,346,347,348,349,350,351,352,353,354,355,356,357,358,359,360,361,362,363,364,365,366,367,368,369,370,371,372,373,374,375,376,377,378,379,380,381,382,383,384,385,386,387,389,390,391,392,393,394,395,396,397,398,399,400,401,402,403,404,405,406,407,408,409,410,411,412,413,414,415,416,417,418,419,420,421,422,423,424,425,426,427,428,429,430,431,432,433,434,435,436,437,438,439,440,441,442,443,444,445,446,447,448,449,450,451,452,453,454,455,456,457,458,459,460,461,462,463,464,465,466,467,468,469,470,471,472,473,474,475,476,477,478,479,480,481,482,483,484,485,486,487,488,489,490,491,492,493,100,275,398,400,487,330,338,386,386,0,1,2,3,4,5,6,7,8,9,10,11,12,13,14,15,16,17,18,19,20,21,22,23,24,25,26,27,28,29,30,31,32,33,34,35,36,37,38,39,40,41,42,43,44,45,46,47,48,49,50,51,52,53,54,55,56,57,58,0,1,2,3,4,5,6,7,8,9,10,11,12,13,14,15,16,17,18,19,20,21,22,23,24,25,26,27,28,29,30,31,32,33,34,35,36,37,38,39,40,41,42,43,44,45,46,47,48,49,50,51,52,53,54,55,56,57,0,1,2,3,4,5,6,7,8,9,10,11,12,13,14,15,16,17,18,19,20,21,22,23,24,25,26,27,28,29,30,31,32,33,34,35,36,37,38,39,40,41,42,43,44,45,46,47,48,49,50,51,52,53,54,55,56,57,58,59,60,61,62,63,64,65,66,67,68,69,70,71,72,73,74,75,76,77,78,79,80,81,82,83,84,85,86,87,88,89,90,91,92,93,94,95,96,97,98,99,100,101,102,103,104,105,106,107,108,109,110,111,112,113,114,115,116,117,118,119,120,121,122,123,124,125,126,127,128,129,130,131,132,133,134,135,136,137,138,139,140,141,142,143,144,145,146,147,148,149,150,151,152,153,154,155,156,157,158,159,160,161,162,163,164,165,166,167,168,169,170,171,172,173,174,175,176,177,178,179,180,181,182,183,184,185,186,187,188,189,190,191,192,193,194,195,196,197,198,199,200,201,202,203,204,205,206,207,208,209,210,211,212,213,214,215,216,217,218,219,220,221,222,223,224,225,226,227,228,229,230,231,232,233,234,235,236,237,238,239,240,241,242,243,244,245,246,247,248,249,250,251,252,253,254,255,256,257,258,259,260,261,262,263,264,265,266,267,268,269,270,271,272,273,274,275,276,277,278,279,280,281,282,283,284,285,286,287,288,289,290,291,292,293,294,295,296,297,298,299,300,301,302,303,304,305,306,307,308,309,310,311,312,313,314,315,316,317,318,319,320,321,322,323,324,325,326,327,328,329,330,331,332,333,334,335,336,337,338,339,340,341,342,343,344,345,346,347,348,349,350,351,352,353,354,355,356,357,358,359,360,361,362,363,364,365,366,367,368,369,370,371,372,373,374,375,376,377,378,379,380,381,382,383,384,385,386,387,388,389,390,391,392,393,394,395,396,397,398,399,400,401,402,403,404,405,406,407,408,409,410,411,412,413,414,415,416,417,418,419,420,421,422,423,424,425,426,427,428,429,430,431],"categories_nodes":[1,4,5,10,14,21,25],"categories_segments":[0,492,497,500,501,560,618],"categories_sizes":[492,5,3,1,59,58,432],"default_left":[0,0,0,0,1,1,0,0,0,0,1,0,0,0,1,0,0,0,0,0,0,1,0,0,0,0,0,0,0,0,0,0,0,0,0,0,0,0,0,0,0,0,0,0,0,0,0,0,0,0,0],"id":2,"left_children":[1,3,5,-1,7,9,-1,11,-1,13,15,17,19,21,23,-1,-1,25,-1,-1,27,29,31,33,35,37,39,-1,41,43,-1,45,47,49,-1,-1,-1,-1,-1,-1,-1,-1,-1,-1,-1,-1,-1,-1,-1,-1,-1],"loss_changes":[5.7729332E1,3.785904E1,1.9879827E1,0E0,4.5084763E0,1.6910137E1,0E0,6.8248425E0,0E0,5.601841E0,6.076436E-1,8.987104E0,5.504751E0,9.091048E0,5.10511E0,0E0,0E0,4.7032423E0,0E0,0E0,1.7061405E0,5.9385796E0,8.24168E0,2.119728E0,1.7892447E0,2.635707E0,3.09311E0,0E0,4.832859E-1,2.8278027E0,0E0,8.397248E-1,6.176012E0,4.9716187E-1,0E0,0E0,0E0,0E0,0E0,0E0,0E0,0E0,0E0,0E0,0E0,0E0,0E0,0E0,0E0,0E0,0E0],"parents":[2147483647,0,0,1,1,2,2,4,4,5,5,7,7,9,9,10,10,11,11,12,12,13,13,14,14,17,17,20,20,21,21,22,22,23,23,24,24,25,25,26,26,28,28,29,29,31,31,32,32,33,33],"right_children":[2,4,6,-1,8,10,-1,12,-1,14,16,18,20,22,24,-1,-1,26,-1,-1,28,30,32,34,36,38,40,-1,42,44,-1,46,48,50,-1,-1,-1,-1,-1,-1,-1,-1,-1,-1,-1,-1,-1,-1,-1,-1,-1],"split_conditions":[3E0,1E-45,2E0,1.163386E-2,1E-45,1E-45,-1.5040345E-2,9.666667E0,-1.2963881E-2,-2.093287E0,1E-45,3E0,4E0,2.6E1,1E-45,-3.4516875E-3,-1.1244786E-2,1E1,1.1289129E-2,3.9710673E-3,-1.3416355E0,1E-45,5.5E0,2E0,-1.022223E0,1E-45,1.4E1,-3.2681066E-3,1.9E1,3E0,7.5922227E-3,-2.3381584E0,1.1E1,5E0,1.7885676E-2,6.6371616E-3,-5.3873197E-3,2.2151244E-3,-1.1455717E-2,-9.2737755E-4,-1.0404069E-2,-5.3654737E-3,-1.6269706E-2,-1.32505605E-2,2.2328333E-3,-1.1012667E-2,3.9696693E-7,1.34315025E-2,3.8101315E-3,3.9646155E-3,1.1024611E-2],"split_indices":[1,0,5,0,0,0,0,2,0,15,0,6,10,4,0,0,0,4,0,0,12,0,2,6,12,0,13,0,4,6,0,15,2,10,0,0,0,0,0,0,0,0,0,0,0,0,0,0,0,0,0],"split_type":[0,1,0,0,1,1,0,0,0,0,1,0,0,0,1,0,0,0,0,0,0,1,0,0,0,1,0,0,0,0,0,0,0,0,0,0,0,0,0,0,0,0,0,0,0,0,0,0,0,0,0],"sum_hessian":[1.5672981E2,8.148868E1,7.524114E1,9.99896E0,7.148972E1,7.199206E1,3.2490823E0,5.474336E1,1.674636E1,6.624256E1,5.749496E0,3.8747017E1,1.5996342E1,3.899645E1,2.7246113E1,3.2499158E0,2.4995801E0,3.624726E1,2.4997592E0,1.4999912E0,1.449635E1,6.9995747E0,3.1996874E1,2.4246195E1,2.999918E0,1.3497862E1,2.2749397E1,1.9999521E0,1.2496398E1,4.749771E0,2.249803E0,2.2498343E0,2.974704E1,1.4248928E1,9.997267E0,1.2499801E0,1.749938E0,1.2499995E0,1.2247863E1,1.9499874E1,3.2495227E0,1.7499138E0,1.0746484E1,3.499773E0,1.2499982E0,1.2498343E0,1E0,1.7747576E1,1.1999464E1,2.749984E0,1.1498943E1],"tree_param":{"num_deleted":"0","num_feature":"16","num_nodes":"51","size_leaf_vector":"1"}},{"base_weights":[-2.5331392E-4,-5.745556E-1,6.2110597E-1,1.1529704E-2,-8.287518E-1,7.356448E-1,-1.4928887E-2,-6.688242E-1,-1.2844387E-2,8.7831265E-1,-7.946111E-1,-4.2492598E-1,-1.1999243E0,6.1060286E-1,1.2263255E0,-3.4253465E-3,-1.1165892E-2,-5.587651E-1,1.1209641E-2,3.9472724E-3,-1.3797973E0,-8.091934E-1,7.5817543E-1,1.3715566E0,3.2500972E-3,-1.0030936E0,-2.6403192E-1,-3.2463612E-3,-1.5121379E0,-1.3078132E-2,2.151249E-3,3.2235983E-1,1.3687714E0,9.922171E-1,1.7729167E-2,-5.3749746E-3,6.6270772E-3,2.2028214E-3,-1.1351748E-2,-9.185571E-4,-1.0325728E-2,-5.331482E-3,-1.6126199E-2,-5.8414303E-6,1.2774527E-2,1.5466867E-3,1.5709696E-2,3.9355797E-3,1.092456E-2],"categories":[0,1,2,3,4,5,6,7,8,9,10,11,12,13,14,15,16,17,18,19,20,21,22,23,24,25,26,27,28,29,30,31,32,33,34,35,36,37,38,39,40,41,42,43,44,45,46,47,48,49,50,51,52,53,54,55,56,57,58,59,60,61,62,63,64,65,66,67,68,69,70,71,72,73,74,75,76,77,78,79,80,81,82,83,84,85,86,87,88,89,90,91,92,93,94,95,96,97,98,99,100,101,102,103,104,105,106,107,108,109,110,111,112,113,114,115,116,117,118,119,120,121,122,123,124,125,126,127,128,129,130,131,132,133,134,135,136,137,138,139,140,141,142,143,144,145,146,147,148,149,150,151,152,154,155,156,157,158,159,160,161,162,163,164,165,166,167,168,169,170,171,172,173,174,175,176,177,178,179,180,181,182,183,184,185,186,187,188,189,190,191,192,193,194,195,196,197,198,199,200,201,202,203,204,205,206,207,208,209,210,211,212,213,214,215,216,217,218,219,220,221,222,223,224,225,226,227,228,229,230,231,232,233,234,235,236,237,238,239,240,241,242,243,244,245,246,247,248,249,250,251,252,253,254,255,256,257,258,259,260,261,262,263,264,265,266,267,268,269,270,271,272,273,274,275,276,277,278,279,280,281,282,283,284,285,286,287,288,289,290,291,292,293,294,295,296,297,298,299,300,301,302,303,304,305,306,307,308,309,310,311,312,313,314,315,316,317,318,319,320,321,322,323,324,325,326,327,328,329,330,331,332,333,334,335,336,337,338,339,340,341,342,343,344,345,346,347,348,349,350,351,352,353,354,355,356,357,358,359,360,361,362,363,364,365,366,367,368,369,370,371,372,373,374,375,376,377,378,379,380,381,382,383,384,385,386,387,389,390,391,392,393,394,395,396,397,398,399,400,401,402,403,404,405,406,407,408,409,410,411,412,413,414,415,416,417,418,419,420,421,422,423,424,425,426,427,428,429,430,431,432,433,434,435,436,437,438,439,440,441,442,443,444,445,446,447,448,449,450,451,452,453,454,455,456,457,458,459,460,461,462,463,464,465,466,467,468,469,470,471,472,473,474,475,476,477,478,479,480,481,482,483,484,485,486,487,488,489,490,491,492,493,100,275,398,400,487,330,338,386,386,0,1,2,3,4,5,6,7,8,9,10,11,12,13,14,15,16,17,18,19,20,21,22,23,24,25,26,27,28,29,30,31,32,33,34,35,36,37,38,39,40,41,42,43,44,45,46,47,48,49,50,51,52,53,54,55,56,57,58,0,1,2,3,4,5,6,7,8,9,10,11,12,13,14,15,16,17,18,0,1,2,3,4,5,6,7,8,9,10,11,12,13,14,15,16,17,18,19,20,21,22,23,24,25,26,27,28,29,30,31,32,33,34,35,36,37,38,39,40,41,42,43,44,45,46,47,48,49,50,51,52,53,54,55,56,57,58,59,60,61,62,63,64,65,66,67,68,69,70,71,72,73,74,75,76,77,78,79,80,81,82,83,84,85,86,87,88,89,90,91,92,93,94,95,96,97,98,99,100,101,102,103,104,105,106,107,108,109,110,111,112,113,114,115,116,117,118,119,120,121,122,123,124,125,126,127,128,129,130,131,132,133,134,135,136,137,138,139,140,141,142,143,144,145,146,147,148,149,150,151,152,153,154,155,156,157,158,159,160,161,162,163,164,165,166,167,168,169,170,171,172,173,174,175,176,177,178,179,180,181,182,183,184,185,186,187,188,189,190,191,192,193,194,195,196,197,198,199,200,201,202,203,204,205,206,207,208,209,210,211,212,213,214,215,216,217,218,219,220,221,222,223,224,225,226,227,228,229,230,231,232,233,234,235,236,237,238,239,240,241,242,243,244,245,246,247,248,249,250,251,252,253,254,255,256,257,258,259,260,261,262,263,264,265,266,267,268,269,270,271,272,273,274,275,276,277,278,279,280,281,282,283,284,285,286,287,288,289,290,291,292,293,294,295,296,297,298,299,300,301,302,303,304,305,306,307,308,309,310,311,312,313,314,315,316,317,318,319,320,321,322,323,324,325,326,327,328,329,330,331,332,333,334,335,336,337,338,339,340,341,342,343,344,345,346,347,348,349,350,351,352,353,354,355,356,357,358,359,360,361,362,363,364,365,366,367,368,369,370,371,372,373,374,375,376,377,378,379,380,381,382,383,384,385,386,387,388,389,390,391,392,393,394,395,396,397,398,399,400,401,402,403,404,405,406,407,408,409,410,411,412,413,414,415,416,417,418,419,420,421,422,423,424,425,426,427,428,429,430,431,0,1,2,3,4,5,6,7,8,9,10,11,12,13,14,15,16,17,18,19,20,21,22,23,24,25,26,27,28,29,30,31,32,33,34,35,36,37,38,39,40,41,42,43,44,45,46,47,48,49,50,51],"categories_nodes":[1,4,5,10,14,24,25,31],"categories_segments":[0,492,497,500,501,560,579,1011],"categories_sizes":[492,5,3,1,59,19,432,52],"default_left":[0,0,0,0,1,1,0,0,0,0,1,0,0,0,1,0,0,0,0,0,0,0,0,0,1,0,0,0,0,0,0,1,0,0,0,0,0,0,0,0,0,0,0,0,0,0,0,0,0],"id":3,"left_children":[1,3,5,-1,7,9,-1,11,-1,13,15,17,19,21,23,-1,-1,25,-1,-1,27,29,31,33,35,37,39,-1,41,-1,-1,43,45,47,-1,-1,-1,-1,-1,-1,-1,-1,-1,-1,-1,-1,-1,-1,-1],"loss_changes":[5.6634098E1,3.71733E1,1.9556238E1,0E0,4.422962E0,1.663129E1,0E0,6.7098694E0,0E0,5.515091E0,5.999031E-1,8.849384E0,5.418638E0,8.992888E0,5.0118904E0,0E0,0E0,4.612623E0,0E0,0E0,1.6724644E0,2.4515793E0,9.336473E0,2.0838394E0,1.7825398E0,2.592331E0,3.0477057E0,0E0,4.675007E-1,0E0,0E0,7.0173E0,3.4381561E0,4.8503017E-1,0E0,0E0,0E0,0E0,0E0,0E0,0E0,0E0,0E0,0E0,0E0,0E0,0E0,0E0,0E0],"parents":[2147483647,0,0,1,1,2,2,4,4,5,5,7,7,9,9,10,10,11,11,12,12,13,13,14,14,17,17,20,20,21,21,22,22,23,23,24,24,25,25,26,26,28,28,31,31,32,32,33,33],"right_children":[2,4,6,-1,8,10,-1,12,-1,14,16,18,20,22,24,-1,-1,26,-1,-1,28,30,32,34,36,38,40,-1,42,-1,-1,44,46,48,-1,-1,-1,-1,-1,-1,-1,-1,-1,-1,-1,-1,-1,-1,-1],"split_conditions":[3E0,1E-45,2E0,1.1529704E-2,1E-45,1E-45,-1.4928887E-2,9.666667E0,-1.2844387E-2,-2.093287E0,1E-45,3E0,4E0,4E0,1E-45,-3.4253465E-3,-1.1165892E-2,1E1,1.1209641E-2,3.9472724E-3,-1.3416355E0,7.2E0,4E0,2E0,1E-45,1E-45,1.4E1,-3.2463612E-3,1.9E1,-1.3078132E-2,2.151249E-3,1E-45,5.5E0,5E0,1.7729167E-2,-5.3749746E-3,6.6270772E-3,2.2028214E-3,-1.1351748E-2,-9.185571E-4,-1.0325728E-2,-5.331482E-3,-1.6126199E-2,-5.8414303E-6,1.2774527E-2,1.5466867E-3,1.5709696E-2,3.9355797E-3,1.092456E-2],"split_indices":[1,0,5,0,0,0,0,2,0,15,0,6,10,10,0,0,0,4,0,0,12,2,1,6,0,0,13,0,4,0,0,0,2,10,0,0,0,0,0,0,0,0,0,0,0,0,0,0,0],"split_type":[0,1,0,0,1,1,0,0,0,0,1,0,0,0,1,0,0,0,0,0,0,0,0,0,1,1,0,0,0,0,0,1,0,0,0,0,0,0,0,0,0,0,0,0,0,0,0,0,0],"sum_hessian":[1.5670645E2,8.147608E1,7.523038E1,9.997436E0,7.1478645E1,7.19823E1,3.2480774E0,5.4736187E1,1.6742456E1,6.6233315E1,5.7489862E0,3.8743855E1,1.5992333E1,3.8992653E1,2.7240658E1,3.249849E0,2.499137E0,3.6244453E1,2.4994025E0,1.499971E0,1.4492362E1,3.249155E0,3.5743496E1,2.4240839E1,2.9998198E0,1.34956045E1,2.2748848E1,1.9999148E0,1.2492448E1,1.9992107E0,1.2499443E0,2.1748413E1,1.3995084E1,1.4247327E1,9.993512E0,1.7498794E0,1.2499403E0,1.2499962E0,1.2245608E1,1.9499823E1,3.249025E0,1.7498355E0,1.0742612E1,1.6999716E1,4.7486973E0,2.2499804E0,1.1745104E1,2.7499468E0,1.149738E1],"tree_param":{"num_deleted":"0","num_feature":"16","num_nodes":"49","size_leaf_vector":"1"}},{"base_weights":[-3.0049437E-4,-5.69308E-1,6.1533254E-1,1.1427164E-2,-8.2122505E-1,7.2896147E-1,-1.4819505E-2,-6.627893E-1,-1.2726967E-2,8.704993E-1,-7.88907E-1,-4.2095327E-1,-1.1895285E0,6.050703E-1,1.2155942E0,-1.7097637E-3,-9.710289E-3,-5.537813E-1,1.1131214E-2,3.9236406E-3,-1.3680725E0,-8.0378944E-1,7.515278E-1,1.3595432E0,3.530778E-3,-6.613163E-1,5.051926E-1,-3.22477E-3,-1.4992033E0,-1.2993534E-2,2.139316E-3,3.1971464E-1,1.3566414E0,9.834183E-1,1.7576508E-2,6.5903896E-3,-5.3409105E-3,-9.939028E-3,-3.971313E-3,9.134999E-3,-2.1838066E-3,-5.2977554E-3,-1.5985835E-2,-5.7861957E-6,1.2671643E-2,1.5359779E-3,1.5570419E-2,3.906779E-3,1.0826002E-2],"categories":[0,1,2,3,4,5,6,7,8,9,10,11,12,13,14,15,16,17,18,19,20,21,22,23,24,25,26,27,28,29,30,31,32,33,34,35,36,37,38,39,40,41,42,43,44,45,46,47,48,49,50,51,52,53,54,55,56,57,58,59,60,61,62,63,64,65,66,67,68,69,70,71,72,73,74,75,76,77,78,79,80,81,82,83,84,85,86,87,88,89,90,91,92,93,94,95,96,97,98,99,100,101,102,103,104,105,106,107,108,109,110,111,112,113,114,115,116,117,118,119,120,121,122,123,124,125,126,127,128,129,130,131,132,133,134,135,136,137,138,139,140,141,142,143,144,145,146,147,148,149,150,151,152,154,155,156,157,158,159,160,161,162,163,164,165,166,167,168,169,170,171,172,173,174,175,176,177,178,179,180,181,182,183,184,185,186,187,188,189,190,191,192,193,194,195,196,197,198,199,200,201,202,203,204,205,206,207,208,209,210,211,212,213,214,215,216,217,218,219,220,221,222,223,224,225,226,227,228,229,230,231,232,233,234,235,236,237,238,239,240,241,242,243,244,245,246,247,248,249,250,251,252,253,254,255,256,257,258,259,260,261,262,263,264,265,266,267,268,269,270,271,272,273,274,275,276,277,278,279,280,281,282,283,284,285,286,287,288,289,290,291,292,293,294,295,296,297,298,299,300,301,302,303,304,305,306,307,308,309,310,311,312,313,314,315,316,317,318,319,320,321,322,323,324,325,326,327,328,329,330,331,332,333,334,335,336,337,338,339,340,341,342,343,344,345,346,347,348,349,350,351,352,353,354,355,356,357,358,359,360,361,362,363,364,365,366,367,368,369,370,371,372,373,374,375,376,377,378,379,380,381,382,383,384,385,386,387,389,390,391,392,393,394,395,396,397,398,399,400,401,402,403,404,405,406,407,408,409,410,411,412,413,414,415,416,417,418,419,420,421,422,423,424,425,426,427,428,429,430,431,432,433,434,435,436,437,438,439,440,441,442,443,444,445,446,447,448,449,450,451,452,453,454,455,456,457,458,459,460,461,462,463,464,465,466,467,468,469,470,471,472,473,474,475,476,477,478,479,480,481,482,483,484,485,486,487,488,489,490,491,492,493,100,275,398,400,487,330,338,386,330,386,0,1,2,3,4,5,6,7,8,9,10,11,12,13,14,15,16,17,18,19,20,21,22,23,24,25,26,27,28,29,30,31,32,33,34,35,36,37,38,39,40,41,42,43,44,45,46,47,48,49,50,51,52,53,54,55,56,57,58,0,1,2,3,4,5,6,7,8,9,10,11,12,13,14,15,16,17,18,19,20,21,22,23,24,25,26,27,28,29,30,31,32,33,34,35,36,37,38,39,40,41,42,43,44,45,46,47,48,49,50,51],"categories_nodes":[1,4,5,10,14,31],"categories_segments":[0,492,497,500,502,561],"categories_sizes":[492,5,3,2,59,52],"default_left":[0,0,0,0,1,1,0,0,0,0,1,0,0,0,1,0,0,0,0,0,0,0,0,0,0,0,0,0,0,0,0,1,0,0,0,0,0,0,0,0,0,0,0,0,0,0,0,0,0],"id":4,"left_children":[1,3,5,-1,7,9,-1,11,-1,13,15,17,19,21,23,-1,-1,25,-1,-1,27,29,31,33,35,37,39,-1,41,-1,-1,43,45,47,-1,-1,-1,-1,-1,-1,-1,-1,-1,-1,-1,-1,-1,-1,-1],"loss_changes":[5.5583244E1,3.6502E1,1.924309E1,0E0,4.3397408E0,1.6362797E1,0E0,6.5979557E0,0E0,5.4216614E0,5.9342194E-1,8.714085E0,5.3345222E0,8.854782E0,4.9211464E0,0E0,0E0,4.5749397E0,0E0,0E0,1.6399574E0,2.4207084E0,9.16571E0,2.0498772E0,1.7615448E0,2.6138306E0,1.381241E0,0E0,4.5248222E-1,0E0,0E0,6.9036446E0,3.374939E0,4.7329426E-1,0E0,0E0,0E0,0E0,0E0,0E0,0E0,0E0,0E0,0E0,0E0,0E0,0E0,0E0,0E0],"parents":[2147483647,0,0,1,1,2,2,4,4,5,5,7,7,9,9,10,10,11,11,12,12,13,13,14,14,17,17,20,20,21,21,22,22,23,23,24,24,25,25,26,26,28,28,31,31,32,32,33,33],"right_children":[2,4,6,-1,8,10,-1,12,-1,14,16,18,20,22,24,-1,-1,26,-1,-1,28,30,32,34,36,38,40,-1,42,-1,-1,44,46,48,-1,-1,-1,-1,-1,-1,-1,-1,-1,-1,-1,-1,-1,-1,-1],"split_conditions":[3E0,1E-45,2E0,1.1427164E-2,1E-45,1E-45,-1.4819505E-2,9.666667E0,-1.2726967E-2,-2.093287E0,1E-45,3E0,4E0,4E0,1E-45,-1.7097637E-3,-9.710289E-3,5E0,1.1131214E-2,3.9236406E-3,-1.3416355E0,7.2E0,4E0,2E0,-1.022223E0,1E1,-9.916968E-1,-3.22477E-3,1.9E1,-1.2993534E-2,2.139316E-3,1E-45,5.5E0,5E0,1.7576508E-2,6.5903896E-3,-5.3409105E-3,-9.939028E-3,-3.971313E-3,9.134999E-3,-2.1838066E-3,-5.2977554E-3,-1.5985835E-2,-5.7861957E-6,1.2671643E-2,1.5359779E-3,1.5570419E-2,3.906779E-3,1.0826002E-2],"split_indices":[1,0,5,0,0,0,0,2,0,15,0,6,10,10,0,0,0,10,0,0,12,2,1,6,12,4,12,0,4,0,0,0,2,10,0,0,0,0,0,0,0,0,0,0,0,0,0,0,0],"split_type":[0,1,0,0,1,1,0,0,0,0,1,0,0,0,1,0,0,0,0,0,0,0,0,0,0,0,0,0,0,0,0,1,0,0,0,0,0,0,0,0,0,0,0,0,0,0,0,0,0],"sum_hessian":[1.5667331E2,8.145896E1,7.521435E1,9.995258E0,7.146371E1,7.196763E1,3.2467177E0,5.47265E1,1.6737206E1,6.621933E1,5.7483044E0,3.873959E1,1.5986913E1,3.8986374E1,2.723295E1,1.7498728E0,3.9984317E0,3.6240696E1,2.498891E0,1.4999391E0,1.4486974E1,3.2485437E0,3.573783E1,2.4233246E1,2.9997046E0,3.3240734E1,2.9999642E0,1.9998671E0,1.2487106E1,1.9986181E0,1.2499256E0,2.1747221E1,1.399061E1,1.424503E1,9.988216E0,1.249897E0,1.7498077E0,1.3492572E1,1.9748161E1,1.7499791E0,1.2499851E0,1.7497325E0,1.0737374E1,1.6999716E1,4.7475057E0,2.2499812E0,1.1740628E1,2.7498887E0,1.1495142E1],"tree_param":{"num_deleted":"0","num_feature":"16","num_nodes":"49","size_leaf_vector":"1"}},{"base_weights":[-2.4337422E-4,-5.6397253E-1,6.0969037E-1,1.1326198E-2,-8.1361735E-1,7.224241E-1,-1.471215E-2,-6.565907E-1,-1.2611561E-2,8.628098E-1,-7.828073E-1,-4.166867E-1,-1.1793199E0,5.99617E-1,1.2050536E0,-3.358059E-3,-1.1020734E-2,-5.484879E-1,1.105382E-2,3.9001654E-3,-1.356569E0,-3.726947E-1,8.1721103E-1,1.3477529E0,3.8080215E-3,-6.5518415E-1,5.0187725E-1,-3.203335E-3,-1.4865309E0,-9.3795043E-1,7.422161E-3,-7.537071E-3,9.567075E-1,9.747418E-1,1.7427567E-2,-5.328805E-3,6.5804995E-3,-9.848742E-3,-3.933628E-3,9.076803E-3,-2.1716869E-3,-5.264289E-3,-1.5848506E-2,-1.3092843E-2,2.2136185E-3,1.3118542E-2,3.712022E-3,3.8782142E-3,1.0728905E-2],"categories":[0,1,2,3,4,5,6,7,8,9,10,11,12,13,14,15,16,17,18,19,20,21,22,23,24,25,26,27,28,29,30,31,32,33,34,35,36,37,38,39,40,41,42,43,44,45,46,47,48,49,50,51,52,53,54,55,56,57,58,59,60,61,62,63,64,65,66,67,68,69,70,71,72,73,74,75,76,77,78,79,80,81,82,83,84,85,86,87,88,89,90,91,92,93,94,95,96,97,98,99,100,101,102,103,104,105,106,107,108,109,110,111,112,113,114,115,116,117,118,119,120,121,122,123,124,125,126,127,128,129,130,131,132,133,134,135,136,137,138,139,140,141,142,143,144,145,146,147,148,149,150,151,152,154,155,156,157,158,159,160,161,162,163,164,165,166,167,168,169,170,171,172,173,174,175,176,177,178,179,180,181,182,183,184,185,186,187,188,189,190,191,192,193,194,195,196,197,198,199,200,201,202,203,204,205,206,207,208,209,210,211,212,213,214,215,216,217,218,219,220,221,222,223,224,225,226,227,228,229,230,231,232,233,234,235,236,237,238,239,240,241,242,243,244,245,246,247,248,249,250,251,252,253,254,255,256,257,258,259,260,261,262,263,264,265,266,267,268,269,270,271,272,273,274,275,276,277,278,279,280,281,282,283,284,285,286,287,288,289,290,291,292,293,294,295,296,297,298,299,300,301,302,303,304,305,306,307,308,309,310,311,312,313,314,315,316,317,318,319,320,321,322,323,324,325,326,327,328,329,330,331,332,333,334,335,336,337,338,339,340,341,342,343,344,345,346,347,348,349,350,351,352,353,354,355,356,357,358,359,360,361,362,363,364,365,366,367,368,369,370,371,372,373,374,375,376,377,378,379,380,381,382,383,384,385,386,387,389,390,391,392,393,394,395,396,397,398,399,400,401,402,403,404,405,406,407,408,409,410,411,412,413,414,415,416,417,418,419,420,421,422,423,424,425,426,427,428,429,430,431,432,433,434,435,436,437,438,439,440,441,442,443,444,445,446,447,448,449,450,451,452,453,454,455,456,457,458,459,460,461,462,463,464,465,466,467,468,469,470,471,472,473,474,475,476,477,478,479,480,481,482,483,484,485,486,487,488,489,490,491,492,493,100,275,398,400,487,330,338,386,386,0,1,2,3,4,5,6,7,8,9,10,11,12,13,14,15,16,17,18,19,20,21,22,23,24,25,26,27,28,29,30,31,32,33,34,35,36,37,38,39,40,41,42,43,44,45,46,47,48,49,50,51,52,53,54,55,56,57,58,0,1,2,3,4,5,6,7,8,9,10,11,12,13,14,15,16,17,18,19,20,21,22,23,24,25,26,27,28,29,30,31,32,33,34,35,36,37,38,39,40,41,42,43,44,45,46,47,48,49,50,51,52,53,54,55,56,57,0,1,2,3,4,5,6,7,8,9,10,11,12,13,14,15,16,17,18],"categories_nodes":[1,4,5,10,14,21,24],"categories_segments":[0,492,497,500,501,560,618],"categories_sizes":[492,5,3,1,59,58,19],"default_left":[0,0,0,0,1,1,0,0,0,0,1,0,0,0,1,0,0,0,0,0,0,1,0,0,1,0,0,0,0,0,0,0,0,0,0,0,0,0,0,0,0,0,0,0,0,0,0,0,0],"id":5,"left_children":[1,3,5,-1,7,9,-1,11,-1,13,15,17,19,21,23,-1,-1,25,-1,-1,27,29,31,33,35,37,39,-1,41,43,-1,-1,45,47,-1,-1,-1,-1,-1,-1,-1,-1,-1,-1,-1,-1,-1,-1,-1],"loss_changes":[5.4543602E1,3.583787E1,1.893698E1,0E0,4.2631073E0,1.6090408E1,0E0,6.4955406E0,0E0,5.330654E0,5.92865E-1,8.577554E0,5.2523365E0,8.762718E0,4.8327713E0,0E0,0E0,4.501954E0,0E0,0E0,1.6085529E0,5.736238E0,7.948387E0,2.0177116E0,1.7549964E0,2.5679073E0,1.3642758E0,0E0,4.382E-1,2.7645683E0,0E0,0E0,5.90337E0,4.61936E-1,0E0,0E0,0E0,0E0,0E0,0E0,0E0,0E0,0E0,0E0,0E0,0E0,0E0,0E0,0E0],"parents":[2147483647,0,0,1,1,2,2,4,4,5,5,7,7,9,9,10,10,11,11,12,12,13,13,14,14,17,17,20,20,21,21,22,22,23,23,24,24,25,25,26,26,28,28,29,29,32,32,33,33],"right_children":[2,4,6,-1,8,10,-1,12,-1,14,16,18,20,22,24,-1,-1,26,-1,-1,28,30,32,34,36,38,40,-1,42,44,-1,-1,46,48,-1,-1,-1,-1,-1,-1,-1,-1,-1,-1,-1,-1,-1,-1,-1],"split_conditions":[3E0,1E-45,2E0,1.1326198E-2,1E-45,1E-45,-1.471215E-2,9.666667E0,-1.2611561E-2,-2.093287E0,1E-45,3E0,4E0,2.6E1,1E-45,-3.358059E-3,-1.1020734E-2,5E0,1.105382E-2,3.9001654E-3,-1.3416355E0,1E-45,5.5E0,2E0,1E-45,1E1,-9.916968E-1,-3.203335E-3,1.9E1,3E0,7.422161E-3,-7.537071E-3,1.1E1,5E0,1.7427567E-2,-5.328805E-3,6.5804995E-3,-9.848742E-3,-3.933628E-3,9.076803E-3,-2.1716869E-3,-5.264289E-3,-1.5848506E-2,-1.3092843E-2,2.2136185E-3,1.3118542E-2,3.712022E-3,3.8782142E-3,1.0728905E-2],"split_indices":[1,0,5,0,0,0,0,2,0,15,0,6,10,4,0,0,0,10,0,0,12,0,2,6,0,4,12,0,4,6,0,0,2,10,0,0,0,0,0,0,0,0,0,0,0,0,0,0,0],"split_type":[0,1,0,0,1,1,0,0,0,0,1,0,0,0,1,0,0,0,0,0,0,1,0,0,1,0,0,0,0,0,0,0,0,0,0,0,0,0,0,0,0,0,0,0,0,0,0,0,0],"sum_hessian":[1.5663193E2,8.1438255E1,7.519367E1,9.992445E0,7.144581E1,7.194866E1,3.2450106E0,5.4715168E1,1.6730642E1,6.620119E1,5.7474732E0,3.8735046E1,1.5980121E1,3.897817E1,2.7223017E1,3.2495775E0,2.4978957E0,3.623682E1,2.4982278E0,1.4998958E0,1.4480225E1,6.9974575E0,3.1980711E1,2.4223478E1,2.9995382E0,3.3236847E1,2.999972E0,1.9998093E0,1.2480415E1,4.748637E0,2.24882E0,2.2491534E0,2.9731558E1,1.4242057E1,9.981421E0,1.7497116E0,1.2498266E0,1.3489281E1,1.9747566E1,1.7499979E0,1.2499743E0,1.7496057E0,1.0730809E1,3.498641E0,1.2499964E0,1.7734118E1,1.199744E1,2.7498097E0,1.1492247E1],"tree_param":{"num_deleted":"0","num_feature":"16","num_nodes":"49","size_leaf_vector":"1"}},{"base_weights":[-2.8856672E-4,-5.5871564E-1,6.0391474E-1,1.1226758E-2,-8.061204E-1,7.157536E-1,-1.4606757E-2,-6.504772E-1,-1.2498108E-2,8.5502905E-1,-7.772268E-1,-4.1247275E-1,-1.1692921E0,5.9389603E-1,1.1946962E0,-3.3324854E-3,-1.0944781E-2,-5.4325736E-1,1.0977439E-2,3.8768514E-3,-1.3452796E0,-7.9827684E-1,7.3872805E-1,1.3361783E0,4.0830546E-3,-6.4912397E-1,4.9859315E-1,-3.1820524E-3,-1.4741116E0,-1.2861423E-2,2.0651873E-3,3.1236124E-1,1.3367668E0,9.6618396E-1,1.7282212E-2,-5.2951E-3,6.5441695E-3,-9.759706E-3,-3.8963282E-3,9.019217E-3,-2.1596358E-3,-5.2310782E-3,-1.5714105E-2,-4.0067724E-5,1.2492513E-2,1.5510374E-3,1.5334424E-2,3.8498763E-3,1.0633223E-2],"categories":[0,1,2,3,4,5,6,7,8,9,10,11,12,13,14,15,16,17,18,19,20,21,22,23,24,25,26,27,28,29,30,31,32,33,34,35,36,37,38,39,40,41,42,43,44,45,46,47,48,49,50,51,52,53,54,55,56,57,58,59,60,61,62,63,64,65,66,67,68,69,70,71,72,73,74,75,76,77,78,79,80,81,82,83,84,85,86,87,88,89,90,91,92,93,94,95,96,97,98,99,100,101,102,103,104,105,106,107,108,109,110,111,112,113,114,115,116,117,118,119,120,121,122,123,124,125,126,127,128,129,130,131,132,133,134,135,136,137,138,139,140,141,142,143,144,145,146,147,148,149,150,151,152,154,155,156,157,158,159,160,161,162,163,164,165,166,167,168,169,170,171,172,173,174,175,176,177,178,179,180,181,182,183,184,185,186,187,188,189,190,191,192,193,194,195,196,197,198,199,200,201,202,203,204,205,206,207,208,209,210,211,212,213,214,215,216,217,218,219,220,221,222,223,224,225,226,227,228,229,230,231,232,233,234,235,236,237,238,239,240,241,242,243,244,245,246,247,248,249,250,251,252,253,254,255,256,257,258,259,260,261,262,263,264,265,266,267,268,269,270,271,272,273,274,275,276,277,278,279,280,281,282,283,284,285,286,287,288,289,290,291,292,293,294,295,296,297,298,299,300,301,302,303,304,305,306,307,308,309,310,311,312,313,314,315,316,317,318,319,320,321,322,323,324,325,326,327,328,329,330,331,332,333,334,335,336,337,338,339,340,341,342,343,344,345,346,347,348,349,350,351,352,353,354,355,356,357,358,359,360,361,362,363,364,365,366,367,368,369,370,371,372,373,374,375,376,377,378,379,380,381,382,383,384,385,386,387,389,390,391,392,393,394,395,396,397,398,399,400,401,402,403,404,405,406,407,408,409,410,411,412,413,414,415,416,417,418,419,420,421,422,423,424,425,426,427,428,429,430,431,432,433,434,435,436,437,438,439,440,441,442,443,444,445,446,447,448,449,450,451,452,453,454,455,456,457,458,459,460,461,462,463,464,465,466,467,468,469,470,471,472,473,474,475,476,477,478,479,480,481,482,483,484,485,486,487,488,489,490,491,492,493,100,275,398,400,487,330,338,386,386,0,1,2,3,4,5,6,7,8,9,10,11,12,13,14,15,16,17,18,19,20,21,22,23,24,25,26,27,28,29,30,31,32,33,34,35,36,37,38,39,40,41,42,43,44,45,46,47,48,49,50,51,52,53,54,55,56,57,58,0,1,2,3,4,5,6,7,8,9,10,11,12,13,14,15,16,17,18,0,1,2,3,4,5,6,7,8,9,10,11,12,13,14,15,16,17,18,19,20,21,22,23,24,25,26,27,28,29,30,31,32,33,34,35,36,37,38,39,40,41,42,43,44,45,46,47,48,49,50,51],"categories_nodes":[1,4,5,10,14,24,31],"categories_segments":[0,492,497,500,501,560,579],"categories_sizes":[492,5,3,1,59,19,52],"default_left":[0,0,0,0,1,1,0,0,0,0,1,0,0,0,1,0,0,0,0,0,0,0,0,0,1,0,0,0,0,0,0,1,0,0,0,0,0,0,0,0,0,0,0,0,0,0,0,0,0],"id":6,"left_children":[1,3,5,-1,7,9,-1,11,-1,13,15,17,19,21,23,-1,-1,25,-1,-1,27,29,31,33,35,37,39,-1,41,-1,-1,43,45,47,-1,-1,-1,-1,-1,-1,-1,-1,-1,-1,-1,-1,-1,-1,-1],"loss_changes":[5.3506542E1,3.5187664E1,1.8633238E1,0E0,4.1884575E0,1.5828655E1,0E0,6.395735E0,0E0,5.2492714E0,5.8552504E-1,8.443455E0,5.1720123E0,8.648812E0,4.746689E0,0E0,0E0,4.4302425E0,0E0,0E0,1.578207E0,2.3474932E0,8.946114E0,1.9872513E0,1.7343515E0,2.5230923E0,1.3475592E0,0E0,4.2460823E-1,0E0,0E0,6.746146E0,3.2434196E0,4.50943E-1,0E0,0E0,0E0,0E0,0E0,0E0,0E0,0E0,0E0,0E0,0E0,0E0,0E0,0E0,0E0],"parents":[2147483647,0,0,1,1,2,2,4,4,5,5,7,7,9,9,10,10,11,11,12,12,13,13,14,14,17,17,20,20,21,21,22,22,23,23,24,24,25,25,26,26,28,28,31,31,32,32,33,33],"right_children":[2,4,6,-1,8,10,-1,12,-1,14,16,18,20,22,24,-1,-1,26,-1,-1,28,30,32,34,36,38,40,-1,42,-1,-1,44,46,48,-1,-1,-1,-1,-1,-1,-1,-1,-1,-1,-1,-1,-1,-1,-1],"split_conditions":[3E0,1E-45,2E0,1.1226758E-2,