{"learner":{"attributes":{"scikit_learn":"{\"_estimator_type\": \"regressor\"}"},"feature_names":["num_words","mean_word_len","num_unique_words","num_chars","num_words_upper","num_punctuations","entropy_words","total_words","unique_word","total_voals","unique_voals","entropy_voals","total_cons","unique_cons","entropy_cons"],"feature_types":["int","float","int","int","int","int","float","int","int","int","int","float","int","int","float"],"gradient_booster":{"model":{"cats":{"enc":[],"feature_segments":[],"sorted_idx":[]},"gbtree_model_param":{"num_parallel_tree":"1","num_trees":"100"},"iteration_indptr":[0,1,2,3,4,5,6,7,8,9,10,11,12,13,14,15,16,17,18,19,20,21,22,23,24,25,26,27,28,29,30,31,32,33,34,35,36,37,38,39,40,41,42,43,44,45,46,47,48,49,50,51,52,53,54,55,56,57,58,59,60,61,62,63,64,65,66,67,68,69,70,71,72,73,74,75,76,77,78,79,80,81,82,83,84,85,86,87,88,89,90,91,92,93,94,95,96,97,98,99,100],"tree_info":[0,0,0,0,0,0,0,0,0,0,0,0,0,0,0,0,0,0,0,0,0,0,0,0,0,0,0,0,0,0,0,0,0,0,0,0,0,0,0,0,0,0,0,0,0,0,0,0,0,0,0,0,0,0,0,0,0,0,0,0,0,0,0,0,0,0,0,0,0,0,0,0,0,0,0,0,0,0,0,0,0,0,0,0,0,0,0,0,0,0,0,0,0,0,0,0,0,0,0,0],"trees":[{"base_weights":[2.3727964E-9,-1.4905208E-1,1.6139084E-1,-6.8084165E-2,-2.6814798E-1,1.9110611E-1,-1.3906358E-1,-2.8597897E-1,4.7302898E-2,1.507177E-1,-3.0002204E-1,1.1639978E-1,2.9993594E-1,-2.3177923E-1,-3.6461782E-1,-4.3167356E-2,2.5718725E-1,-1.1232058E-1,1.2877649E-1,1.1267943E-1,-3.2004252E-1,1.4183188E-2,2.991717E-1,1.8919168E-1,4.4976076E-1,-9.287246E-2,-6.592238E-2,-1.3824071E-1,-7.477786E-2,-1.1105515E-1,2.8199762E-1,2.7104616E-1,1.5949011E-4,-1.7779297E-1,-3.9161772E-1,1.3924672E-1,-1.5546916E-1,-1.24800645E-1,3.6920452E-1,-3.4973796E-2,2.4185464E-1,4.6953085E-1,-7.4880384E-2,2.5199363E-2,-4.4784687E-2,-6.611153E-2,3.6229666E-2,-3.7320577E-2,1.1560545E-1,8.405573E-2,3.7679426E-2,2.5225945E-2,-1.0777034E-1,2.5199363E-2,-1.2746671E-1,7.1065925E-2,5.2312613E-3,-5.9766084E-2,1.1267943E-1,1.5215312E-2,1.2835926E-1,-9.9840514E-2,1.27193E-2,7.6598525E-2,-7.4880384E-2,8.591935E-2,1.4666212E-1],"categories":[],"categories_nodes":[],"categories_segments":[],"categories_sizes":[],"default_left":[0,0,0,0,0,0,0,0,0,0,0,0,0,0,0,0,0,0,0,0,0,0,0,0,0,0,0,0,0,0,0,0,0,0,0,0,0,0,0,0,0,0,0,0,0,0,0,0,0,0,0,0,0,0,0,0,0,0,0,0,0,0,0,0,0,0,0],"id":0,"left_children":[1,3,5,7,9,11,-1,13,15,17,19,21,23,25,27,29,31,-1,-1,-1,33,35,37,39,41,-1,43,-1,-1,45,47,49,-1,51,53,55,57,-1,59,61,63,65,-1,-1,-1,-1,-1,-1,-1,-1,-1,-1,-1,-1,-1,-1,-1,-1,-1,-1,-1,-1,-1,-1,-1,-1,-1],"loss_changes":[1.5130998E1,3.1349878E0,5.6967707E0,4.9414077E0,1.8075438E0,2.3147383E0,0E0,2.0531845E-1,2.4605918E0,1.6233675E0,1.7839355E0,3.227798E0,1.8562002E0,5.344188E-1,1.7362833E-1,2.0401177E0,1.385777E-1,0E0,0E0,0E0,1.1521568E0,2.3979886E0,3.2589002E0,8.230188E-1,7.946911E-1,0E0,1.9999948E-1,0E0,0E0,1.9525936E0,7.1998584E-1,1.3994694E-2,0E0,2.0258703E0,1.2858133E0,7.689414E-1,1.1900963E0,0E0,1.0431914E0,3.3671734E-1,4.3454885E-1,3.001976E-2,0E0,0E0,0E0,0E0,0E0,0E0,0E0,0E0,0E0,0E0,0E0,0E0,0E0,0E0,0E0,0E0,0E0,0E0,0E0,0E0,0E0,0E0,0E0,0E0,0E0],"parents":[2147483647,0,0,1,1,2,2,3,3,4,4,5,5,7,7,8,8,9,9,10,10,11,11,12,12,13,13,14,14,15,15,16,16,20,20,21,21,22,22,23,23,24,24,26,26,29,29,30,30,31,31,33,33,34,34,35,35,36,36,38,38,39,39,40,40,41,41],"right_children":[2,4,6,8,10,12,-1,14,16,18,20,22,24,26,28,30,32,-1,-1,-1,34,36,38,40,42,-1,44,-1,-1,46,48,50,-1,52,54,56,58,-1,60,62,64,66,-1,-1,-1,-1,-1,-1,-1,-1,-1,-1,-1,-1,-1,-1,-1,-1,-1,-1,-1,-1,-1,-1,-1,-1,-1],"split_conditions":[3E0,7.6666665E0,2E0,4.25E0,3E0,-2.093287E0,-1.3906358E-1,3E0,-1.2455667E0,3E0,-1.3862944E0,4E0,1E0,2.25E0,2E0,7.2E0,-6.613136E-1,-1.1232058E-1,1.2877649E-1,1.1267943E-1,8.666667E0,-2.3350508E0,4E0,5E0,-9.5451194E-1,-9.287246E-2,3.125E0,-1.3824071E-1,-7.477786E-2,2E0,4E0,2E0,1.5949011E-4,-2.093287E0,4E0,1.8E1,6E0,-1.24800645E-1,5.5E0,3.125E0,-1.6952479E0,2E0,-7.4880384E-2,2.5199363E-2,-4.4784687E-2,-6.611153E-2,3.6229666E-2,-3.7320577E-2,1.1560545E-1,8.405573E-2,3.7679426E-2,2.5225945E-2,-1.0777034E-1,2.5199363E-2,-1.2746671E-1,7.1065925E-2,5.2312613E-3,-5.9766084E-2,1.1267943E-1,1.5215312E-2,1.2835926E-1,-9.9840514E-2,1.27193E-2,7.6598525E-2,-7.4880384E-2,8.591935E-2,1.4666212E-1],"split_indices":[0,1,4,1,9,14,0,12,14,5,11,0,5,1,5,1,11,0,0,0,1,14,9,9,6,0,1,0,0,5,9,0,0,14,9,13,5,0,1,1,14,5,0,0,0,0,0,0,0,0,0,0,0,0,0,0,0,0,0,0,0,0,0,0,0,0,0],"split_type":[0,0,0,0,0,0,0,0,0,0,0,0,0,0,0,0,0,0,0,0,0,0,0,0,0,0,0,0,0,0,0,0,0,0,0,0,0,0,0,0,0,0,0,0,0,0,0,0,0,0,0,0,0,0,0,0,0,0,0,0,0,0,0,0,0,0,0],"sum_hessian":[6.27E2,3.26E2,3.01E2,1.95E2,1.31E2,2.88E2,1.3E1,6.7E1,1.28E2,9E0,1.22E2,1.72E2,1.16E2,4.2E1,2.5E1,9E1,3.8E1,3E0,6E0,3E0,1.19E2,1.11E2,6.1E1,6.8E1,4.8E1,2.8E1,1.4E1,1.2E1,1.3E1,7.5E1,1.5E1,3.6E1,2E0,4.1E1,7.8E1,6.4E1,4.7E1,5E0,5.6E1,1.3E1,5.5E1,4.7E1,1E0,5E0,9E0,5.1E1,2.4E1,3E0,1.2E1,3.3E1,3E0,1.7E1,2.4E1,5E0,7.3E1,3.5E1,2.9E1,4.4E1,3E0,9E0,4.7E1,2E0,1.1E1,5.4E1,1E0,6E0,4.1E1],"tree_param":{"num_deleted":"0","num_feature":"15","num_nodes":"67","size_leaf_vector":"1"}},{"base_weights":[-2.0642232E-4,-1.0498127E-1,1.1324253E-1,-4.8450645E-2,-1.8812537E-1,1.345365E-1,-1.0032443E-1,-2.049717E-1,3.4432165E-2,8.732656E-2,-2.0152639E-1,8.233525E-2,2.1057309E-1,-1.6486076E-1,-2.6342553E-1,-2.968525E-2,1.831566E-1,1.07147984E-1,-2.2556986E-1,-1.8387213E-1,1.16372995E-1,1.3119645E-1,3.1805092E-1,-6.597148E-2,-4.745134E-2,-9.995867E-2,-1.7982294E-1,-7.813178E-2,2.0229112E-1,1.9302246E-1,1.2758971E-4,-8.704845E-2,9.5662534E-2,-1.4370176E-1,-2.949591E-1,-1.129405E-1,-5.1207405E-2,3.1087823E-2,2.60962E-1,-1.0359567E-2,1.9334304E-1,1.0005512E-1,-6.364833E-2,1.8899525E-2,-3.269282E-2,-6.628064E-2,-3.6411487E-2,-4.6659477E-2,2.5795523E-2,-4.0392898E-2,8.712069E-2,5.958068E-2,2.9201554E-2,1.2587418E-2,-8.115877E-2,9.511962E-2,-9.594474E-2,-4.1595258E-2,8.5946314E-2,5.498673E-2,-1.1626569E-2,3.4497906E-2,1.11422025E-1,-2.7186051E-2,6.563162E-2,8.0494784E-2,2.7762765E-2],"categories":[],"categories_nodes":[],"categories_segments":[],"categories_sizes":[],"default_left":[0,0,0,0,0,0,0,0,0,0,0,0,0,0,0,0,0,0,0,0,0,0,0,0,0,0,0,0,0,0,0,0,0,0,0,0,0,0,0,0,0,0,0,0,0,0,0,0,0,0,0,0,0,0,0,0,0,0,0,0,0,0,0,0,0,0,0],"id":1,"left_children":[1,3,5,7,9,11,-1,13,15,-1,17,19,21,23,25,27,29,31,33,35,37,39,41,-1,43,-1,45,47,49,51,-1,-1,-1,53,55,-1,57,59,61,63,65,-1,-1,-1,-1,-1,-1,-1,-1,-1,-1,-1,-1,-1,-1,-1,-1,-1,-1,-1,-1,-1,-1,-1,-1,-1,-1],"loss_changes":[7.476671E0,1.5278468E0,2.9237769E0,2.549747E0,9.063592E-1,1.1297631E0,0E0,1.1600685E-1,1.2355585E0,0E0,9.815569E-1,1.5889678E0,9.5642614E-1,2.6746142E-1,9.174049E-2,1.0385045E0,7.0227265E-2,9.337373E-1,6.393056E-1,4.9173635E-1,1.8909068E0,6.090113E-1,4.7257423E-1,0E0,1.08796164E-1,0E0,6.8278313E-3,9.787718E-1,5.141032E-1,4.2259693E-4,0E0,0E0,0E0,1.3535167E0,1.075028E0,0E0,4.2360166E-1,1.0488632E0,8.762169E-1,4.2441046E-1,3.3792007E-1,0E0,0E0,0E0,0E0,0E0,0E0,0E0,0E0,0E0,0E0,0E0,0E0,0E0,0E0,0E0,0E0,0E0,0E0,0E0,0E0,0E0,0E0,0E0,0E0,0E0,0E0],"parents":[2147483647,0,0,1,1,2,2,3,3,4,4,5,5,7,7,8,8,10,10,11,11,12,12,13,13,14,14,15,15,16,16,17,17,18,18,19,19,20,20,21,21,22,22,24,24,26,26,27,27,28,28,29,29,33,33,34,34,36,36,37,37,38,38,39,39,40,40],"right_children":[2,4,6,8,10,12,-1,14,16,-1,18,20,22,24,26,28,30,32,34,36,38,40,42,-1,44,-1,46,48,50,52,-1,-1,-1,54,56,-1,58,60,62,64,66,-1,-1,-1,-1,-1,-1,-1,-1,-1,-1,-1,-1,-1,-1,-1,-1,-1,-1,-1,-1,-1,-1,-1,-1,-1,-1],"split_conditions":[3E0,7.6666665E0,2E0,4.25E0,-1.3862944E0,-2.093287E0,-1.0032443E-1,3E0,-1.2455667E0,8.732656E-2,3E0,4E0,1E0,2.25E0,2E0,7.2E0,-6.613136E-1,3E0,1.9E1,-6.613136E-1,4E0,1.8E1,-9.5451194E-1,-6.597148E-2,3.125E0,-9.995867E-2,1E0,2E0,3E0,2E0,1.2758971E-4,-8.704845E-2,9.5662534E-2,-2.093287E0,4E0,-1.129405E-1,3E0,-2.4460056E0,-1.3470737E0,-1.7483408E0,1.8E1,1.0005512E-1,-6.364833E-2,1.8899525E-2,-3.269282E-2,-6.628064E-2,-3.6411487E-2,-4.6659477E-2,2.5795523E-2,-4.0392898E-2,8.712069E-2,5.958068E-2,2.9201554E-2,1.2587418E-2,-8.115877E-2,9.511962E-2,-9.594474E-2,-4.1595258E-2,8.5946314E-2,5.498673E-2,-1.1626569E-2,3.4497906E-2,1.11422025E-1,-2.7186051E-2,6.563162E-2,8.0494784E-2,2.7762765E-2],"split_indices":[0,1,4,1,11,14,0,12,14,0,9,9,5,1,5,1,11,5,3,11,0,3,6,0,1,0,4,5,10,0,0,0,0,14,9,0,9,14,6,14,12,0,0,0,0,0,0,0,0,0,0,0,0,0,0,0,0,0,0,0,0,0,0,0,0,0,0],"split_type":[0,0,0,0,0,0,0,0,0,0,0,0,0,0,0,0,0,0,0,0,0,0,0,0,0,0,0,0,0,0,0,0,0,0,0,0,0,0,0,0,0,0,0,0,0,0,0,0,0,0,0,0,0,0,0,0,0,0,0,0,0,0,0,0,0,0,0],"sum_hessian":[6.27E2,3.26E2,3.01E2,1.95E2,1.31E2,2.88E2,1.3E1,6.7E1,1.28E2,3E0,1.28E2,1.72E2,1.16E2,4.2E1,2.5E1,9E1,3.8E1,9E0,1.19E2,1.9E1,1.53E2,6.8E1,4.8E1,2.8E1,1.4E1,1.2E1,1.3E1,7.5E1,1.5E1,3.6E1,2E0,3E0,6E0,5.6E1,6.3E1,7E0,1.2E1,9.7E1,5.6E1,2.1E1,4.7E1,4.7E1,1E0,5E0,9E0,6E0,7E0,5.1E1,2.4E1,3E0,1.2E1,3.3E1,3E0,2.3E1,3.3E1,2E0,6.1E1,1E1,2E0,3E1,6.7E1,2.5E1,3.1E1,1.6E1,5E0,2.6E1,2.1E1],"tree_param":{"num_deleted":"0","num_feature":"15","num_nodes":"67","size_leaf_vector":"1"}},{"base_weights":[-4.5168836E-5,-7.391839E-2,7.994353E-2,-3.477077E-2,-1.3148667E-1,9.5226765E-2,-7.237691E-2,-1.4763336E-1,2.499223E-2,6.7678094E-2,-1.4153966E-1,2.9019704E-1,8.197422E-2,-1.1725753E-1,-1.9219212E-1,-1.22777015E-1,7.500659E-2,7.586499E-2,-1.5847722E-1,4.071976E-2,1.0757031E-1,3.5608537E-2,1.430945E-1,-4.6862498E-2,-3.4135487E-2,-6.699833E-2,-3.256986E-2,1.1368967E-1,-2.0505066E-1,3.421361E-2,2.3034889E-1,-6.746255E-2,7.10636E-2,-8.25548E-2,-1.9683498E-1,5.7168055E-2,-8.379629E-2,-7.747587E-2,9.45498E-2,9.4762996E-2,2.2714451E-1,-8.149521E-2,6.700516E-4,4.402181E-3,-1.02042615E-1,-1.8153174E-2,3.9146807E-2,8.1410214E-2,-8.23504E-2,-4.0613227E-2,7.708315E-2,2.1561379E-2,-6.478862E-2,9.837052E-2,-4.3448366E-2,4.3256108E-2,-3.1276103E-3,1.4956644E-2,6.0817312E-2,7.244447E-2,-5.410108E-2],"categories":[],"categories_nodes":[],"categories_segments":[],"categories_sizes":[],"default_left":[0,0,0,0,0,0,0,0,0,0,0,0,0,0,0,0,0,0,0,0,0,0,0,0,0,0,0,0,0,0,0,0,0,0,0,0,0,0,0,0,0,0,0,0,0,0,0,0,0,0,0,0,0,0,0,0,0,0,0,0,0],"id":2,"left_children":[1,3,5,7,9,11,-1,13,15,-1,17,19,21,23,25,27,29,31,33,35,-1,37,39,-1,41,-1,-1,-1,43,45,47,-1,-1,49,51,-1,-1,53,55,57,59,-1,-1,-1,-1,-1,-1,-1,-1,-1,-1,-1,-1,-1,-1,-1,-1,-1,-1,-1,-1],"loss_changes":[3.716776E0,7.3237514E-1,1.5054839E0,1.3257111E0,5.0577354E-1,7.229445E-1,0E0,6.950271E-2,9.625945E-1,0E0,4.8704004E-1,2.9242384E-1,7.657211E-1,1.3388747E-1,4.345143E-2,1.4399534E0,6.0679585E-1,5.3750086E-1,3.332162E-1,2.930026E-1,0E0,1.047118E0,4.537599E-1,0E0,1.3017958E-1,0E0,0E0,0E0,8.657954E-1,7.1922797E-1,4.8865473E-1,0E0,0E0,7.879791E-1,4.2154694E-1,0E0,0E0,1.5218513E0,5.3820276E-1,3.5836214E-1,2.8891516E-1,0E0,0E0,0E0,0E0,0E0,0E0,0E0,0E0,0E0,0E0,0E0,0E0,0E0,0E0,0E0,0E0,0E0,0E0,0E0,0E0],"parents":[2147483647,0,0,1,1,2,2,3,3,4,4,5,5,7,7,8,8,10,10,11,11,12,12,13,13,14,14,15,15,16,16,17,17,18,18,19,19,21,21,22,22,24,24,28,28,29,29,30,30,33,33,34,34,37,37,38,38,39,39,40,40],"right_children":[2,4,6,8,10,12,-1,14,16,-1,18,20,22,24,26,28,30,32,34,36,-1,38,40,-1,42,-1,-1,-1,44,46,48,-1,-1,50,52,-1,-1,54,56,58,60,-1,-1,-1,-1,-1,-1,-1,-1,-1,-1,-1,-1,-1,-1,-1,-1,-1,-1,-1,-1],"split_conditions":[3E0,7.6666665E0,2E0,4.25E0,-1.3862944E0,-1.4082623E0,-7.237691E-2,3E0,-2.0050488E0,6.7678094E-2,3E0,6.4E0,-2.1002483E0,2.25E0,1E0,-2.2895947E0,1.1E1,3E0,8.666667E0,3.8333333E0,1.0757031E-1,3E0,2E0,-4.6862498E-2,2E0,-6.699833E-2,-3.256986E-2,1.1368967E-1,5.2E0,-1.2455667E0,1.3E1,-6.746255E-2,7.10636E-2,4E0,4E0,5.7168055E-2,-8.379629E-2,-2.4585893E0,1.15E1,-1.8423951E0,-9.5451194E-1,-8.149521E-2,6.700516E-4,4.402181E-3,-1.02042615E-1,-1.8153174E-2,3.9146807E-2,8.1410214E-2,-8.23504E-2,-4.0613227E-2,7.708315E-2,2.1561379E-2,-6.478862E-2,9.837052E-2,-4.3448366E-2,4.3256108E-2,-3.1276103E-3,1.4956644E-2,6.0817312E-2,7.244447E-2,-5.410108E-2],"split_indices":[0,1,4,1,11,11,0,12,14,0,9,1,14,1,4,14,12,5,1,1,0,5,5,0,13,0,0,0,1,14,12,0,0,10,9,0,0,14,1,14,6,0,0,0,0,0,0,0,0,0,0,0,0,0,0,0,0,0,0,0,0],"split_type":[0,0,0,0,0,0,0,0,0,0,0,0,0,0,0,0,0,0,0,0,0,0,0,0,0,0,0,0,0,0,0,0,0,0,0,0,0,0,0,0,0,0,0,0,0,0,0,0,0,0,0,0,0,0,0,0,0,0,0,0,0],"sum_hessian":[6.27E2,3.26E2,3.01E2,1.95E2,1.31E2,2.88E2,1.3E1,6.7E1,1.28E2,3E0,1.28E2,1.7E1,2.71E2,4.2E1,2.5E1,3.2E1,9.6E1,9E0,1.19E2,4E0,1.3E1,1.55E2,1.16E2,2.8E1,1.4E1,1.7E1,8E0,4E0,2.8E1,7.7E1,1.9E1,3E0,6E0,4.1E1,7.8E1,3E0,1E0,5.3E1,1.02E2,7.5E1,4.1E1,1E0,1.3E1,1.1E1,1.7E1,3.9E1,3.8E1,1.8E1,1E0,3.6E1,5E0,5E0,7.3E1,7E0,4.6E1,6.9E1,3.3E1,5.4E1,2.1E1,4E1,1E0],"tree_param":{"num_deleted":"0","num_feature":"15","num_nodes":"61","size_leaf_vector":"1"}},{"base_weights":[8.160163E-5,-5.213012E-2,5.6615215E-2,-9.5079795E-2,-2.3667557E-2,6.759337E-2,-5.221477E-2,-4.5733072E-2,-1.7062211E-1,1.7142601E-2,-1.15604185E-1,-3.0523187E-2,8.347765E-2,-6.727127E-2,1.1409315E-1,-2.900061E-1,-1.1282306E-1,6.954114E-2,-1.0023885E-1,1.6221257E-1,-1.546214E-1,8.799572E-2,-1.5936783E-1,5.309049E-2,1.589118E-1,1.3153052E-2,-1.3460469E-1,-5.681109E-2,-9.943517E-2,-2.9232217E-2,-1.4307307E-1,-6.0086165E-2,8.039891E-2,9.372196E-2,-1.6275552E-1,-3.485565E-2,6.55745E-2,-1.8662965E-1,-9.95808E-2,-9.969546E-2,5.4669395E-2,-9.2491485E-2,-5.5455156E-2,1.0838281E-1,4.3981817E-2,7.4637026E-2,2.2614655E-1,-6.8016625E-3,1.24436505E-1,3.8012385E-2,-4.7386378E-2,-5.8500122E-2,-2.2786437E-2,1.5823156E-2,6.620669E-2,1.8115396E-2,-5.9518345E-2,-7.009066E-2,-4.1909143E-2,1.18349634E-1,-4.2568218E-2,-6.856369E-2,2.5887333E-2,-3.6053874E-2,6.0105827E-2,8.5995225E-3,6.1634813E-2,7.516796E-2,-5.3221063E-4,2.6480908E-2,7.055531E-2],"categories":[],"categories_nodes":[],"categories_segments":[],"categories_sizes":[],"default_left":[0,0,0,0,0,0,0,0,0,0,0,0,0,0,0,0,0,0,0,0,0,0,0,0,0,0,0,0,0,0,0,0,0,0,0,0,0,0,0,0,0,0,0,0,0,0,0,0,0,0,0,0,0,0,0,0,0,0,0,0,0,0,0,0,0,0,0,0,0,0,0],"id":3,"left_children":[1,3,5,7,9,11,-1,13,15,17,19,21,23,25,-1,27,29,31,33,35,37,39,41,43,45,47,49,-1,-1,-1,51,-1,53,-1,55,-1,-1,57,59,61,-1,-1,63,-1,65,67,69,-1,-1,-1,-1,-1,-1,-1,-1,-1,-1,-1,-1,-1,-1,-1,-1,-1,-1,-1,-1,-1,-1,-1,-1],"loss_changes":[1.8566298E0,3.974933E-1,7.765103E-1,4.7680652E-1,7.448675E-1,4.529575E-1,0E0,7.5968075E-1,3.191949E-1,8.5575587E-1,6.862994E-1,6.4011526E-1,5.6232834E-1,4.1874433E-1,0E0,3.9658546E-3,2.8102398E-3,2.973573E-1,1.1601262E0,1.5094036E-1,7.654989E-2,4.0728575E-1,2.9243195E-1,4.8659247E-1,3.8542092E-1,5.273969E-1,2.762823E-1,0E0,0E0,0E0,2.004151E-2,0E0,3.4917486E-1,0E0,3.141743E-1,0E0,0E0,4.016328E-2,5.159115E-1,2.1143664E-1,0E0,0E0,2.3931953E-1,0E0,4.2691323E-1,4.4404536E-1,2.783823E-2,0E0,0E0,0E0,0E0,0E0,0E0,0E0,0E0,0E0,0E0,0E0,0E0,0E0,0E0,0E0,0E0,0E0,0E0,0E0,0E0,0E0,0E0,0E0,0E0],"parents":[2147483647,0,0,1,1,2,2,3,3,4,4,5,5,7,7,8,8,9,9,10,10,11,11,12,12,13,13,15,15,16,16,17,17,18,18,19,19,20,20,21,21,22,22,23,23,24,24,25,25,26,26,30,30,32,32,34,34,37,37,38,38,39,39,42,42,44,44,45,45,46,46],"right_children":[2,4,6,8,10,12,-1,14,16,18,20,22,24,26,-1,28,30,32,34,36,38,40,42,44,46,48,50,-1,-1,-1,52,-1,54,-1,56,-1,-1,58,60,62,-1,-1,64,-1,66,68,70,-1,-1,-1,-1,-1,-1,-1,-1,-1,-1,-1,-1,-1,-1,-1,-1,-1,-1,-1,-1,-1,-1,-1,-1],"split_conditions":[3E0,-9.9425226E-1,2E0,-1.8136295E0,8.333333E0,4E0,-5.221477E-2,-1.9120456E0,-1.2455667E0,-6.613136E-1,4E0,1E1,4E0,-1.2243435E0,1.1409315E-1,-1.3416355E0,2E0,-2.2066112E0,-2.2066112E0,3E0,1.1125E1,1E0,-6.613136E-1,1.2E1,-1.3470737E0,-1.980301E0,-2.4899192E0,-5.681109E-2,-9.943517E-2,-2.9232217E-2,2E0,-6.0086165E-2,1.2E1,9.372196E-2,4E0,-3.485565E-2,6.55745E-2,-6.613136E-1,1.2333333E1,8E0,5.4669395E-2,-9.2491485E-2,3E0,1.0838281E-1,-1.8423951E0,-1.2455667E0,1.8E1,-6.8016625E-3,1.24436505E-1,3.8012385E-2,-4.7386378E-2,-5.8500122E-2,-2.2786437E-2,1.5823156E-2,6.620669E-2,1.8115396E-2,-5.9518345E-2,-7.009066E-2,-4.1909143E-2,1.18349634E-1,-4.2568218E-2,-6.856369E-2,2.5887333E-2,-3.6053874E-2,6.0105827E-2,8.5995225E-3,6.1634813E-2,7.516796E-2,-5.3221063E-4,2.6480908E-2,7.055531E-2],"split_indices":[0,11,4,14,1,9,0,14,14,11,9,13,0,11,0,11,13,14,14,5,1,5,11,12,6,14,14,0,0,0,0,0,12,0,3,0,0,11,1,13,0,0,9,0,14,11,12,0,0,0,0,0,0,0,0,0,0,0,0,0,0,0,0,0,0,0,0,0,0,0,0],"split_type":[0,0,0,0,0,0,0,0,0,0,0,0,0,0,0,0,0,0,0,0,0,0,0,0,0,0,0,0,0,0,0,0,0,0,0,0,0,0,0,0,0,0,0,0,0,0,0,0,0,0,0,0,0,0,0,0,0,0,0,0,0,0,0,0,0,0,0,0,0,0,0],"sum_hessian":[6.27E2,3.26E2,3.01E2,1.29E2,1.97E2,2.88E2,1.3E1,7.9E1,5E1,1.37E2,6E1,4E1,2.48E2,7.6E1,3E0,1.5E1,3.5E1,9.5E1,4.2E1,7E0,5.3E1,2.1E1,1.9E1,1.78E2,7E1,3.5E1,4.1E1,6E0,9E0,2.6E1,9E0,3E0,9.2E1,5E0,3.7E1,1E0,6E0,3.2E1,2.1E1,7E0,1.4E1,7E0,1.2E1,4E0,1.74E2,3.2E1,3.8E1,3.3E1,2E0,3E0,3.8E1,4E0,5E0,7.8E1,1.4E1,5E0,3.2E1,1.4E1,1.8E1,1E0,2E1,4E0,3E0,1E1,2E0,1.6E2,1.4E1,9E0,2.3E1,3E0,3.5E1],"tree_param":{"num_deleted":"0","num_feature":"15","num_nodes":"71","size_leaf_vector":"1"}},{"base_weights":[4.8065642E-4,-3.6416613E-2,4.0430743E-2,-6.689748E-2,-1.6219998E-2,4.8332114E-2,-3.7669227E-2,5.541038E-2,-8.454955E-2,1.1104502E-2,-8.570542E-2,4.1225474E-2,1.960404E-1,8.5632876E-2,-3.732601E-2,-5.126054E-2,-1.2466616E-1,4.4731773E-2,-6.0777612E-2,1.17388636E-1,-1.17114544E-1,-6.846374E-2,5.3345762E-2,-8.4733866E-2,7.783545E-2,-1.067531E-1,1.1936987E-1,-1.12435654E-1,1.2448453E-1,-6.38309E-2,-8.2046114E-2,8.8215396E-2,-8.44261E-3,1.749922E-1,-1.1501842E-1,-2.9627303E-2,4.871248E-2,-1.446572E-1,-6.164346E-2,-6.3126837E-3,-1.319376E-1,7.3974185E-2,4.170596E-2,4.7983017E-2,-5.2826025E-2,-1.2690528E-2,-3.9642893E-2,6.7393094E-2,-2.8974334E-2,-2.0787358E-2,-3.2483943E-2,1.6709693E-2,1.0171909E-1,-3.178439E-2,3.916859E-2,1.2682549E-2,7.029147E-2,-2.4227792E-2,-8.528216E-2,-2.706199E-2,-5.8040958E-2,2.155352E-2,-4.593662E-2,-4.4939842E-2,4.1297905E-2,-1.0098704E-1,1.3907468E-2],"categories":[],"categories_nodes":[],"categories_segments":[],"categories_sizes":[],"default_left":[0,0,0,0,0,0,0,0,0,0,0,0,0,0,0,0,0,0,0,0,0,0,0,0,0,0,0,0,0,0,0,0,0,0,0,0,0,0,0,0,0,0,0,0,0,0,0,0,0,0,0,0,0,0,0,0,0,0,0,0,0,0,0,0,0,0,0],"id":4,"left_children":[1,3,5,7,9,11,-1,13,15,17,19,21,23,-1,25,27,29,31,33,35,37,39,41,-1,-1,43,-1,45,47,-1,49,51,53,55,57,-1,-1,59,61,63,-1,-1,65,-1,-1,-1,-1,-1,-1,-1,-1,-1,-1,-1,-1,-1,-1,-1,-1,-1,-1,-1,-1,-1,-1,-1,-1],"loss_changes":[9.271751E-1,2.0021948E-1,4.0216812E-1,2.8535324E-1,3.7688524E-1,2.9528427E-1,0E0,3.7330502E-1,1.4585E-1,3.4837818E-1,3.709723E-1,3.7191412E-1,4.677186E-1,0E0,4.352908E-1,7.020749E-1,1.7404675E-1,2.273418E-1,6.083913E-1,9.382473E-2,6.594604E-2,6.434201E-1,5.520199E-1,0E0,0E0,2.500564E-1,0E0,6.0753405E-2,3.9810583E-1,0E0,4.543081E-3,4.2157564E-1,6.237488E-1,6.094092E-2,1.9738686E-1,0E0,0E0,6.759983E-2,2.3080526E-1,5.370746E-1,0E0,0E0,4.3274635E-1,0E0,0E0,0E0,0E0,0E0,0E0,0E0,0E0,0E0,0E0,0E0,0E0,0E0,0E0,0E0,0E0,0E0,0E0,0E0,0E0,0E0,0E0,0E0,0E0],"parents":[2147483647,0,0,1,1,2,2,3,3,4,4,5,5,7,7,8,8,9,9,10,10,11,11,12,12,14,14,15,15,16,16,17,17,18,18,19,19,20,20,21,21,22,22,25,25,27,27,28,28,30,30,31,31,32,32,33,33,34,34,37,37,38,38,39,39,42,42],"right_children":[2,4,6,8,10,12,-1,14,16,18,20,22,24,-1,26,28,30,32,34,36,38,40,42,-1,-1,44,-1,46,48,-1,50,52,54,56,58,-1,-1,60,62,64,-1,-1,66,-1,-1,-1,-1,-1,-1,-1,-1,-1,-1,-1,-1,-1,-1,-1,-1,-1,-1,-1,-1,-1,-1,-1,-1],"split_conditions":[3E0,-9.9425226E-1,2E0,-2.3835542E0,1.8E1,1.4E1,-3.7669227E-2,9.666667E0,-1.8136295E0,-6.613136E-1,4E0,-2.5226343E0,6E0,8.5632876E-2,8E0,-2.018359E0,-1.2455667E0,5.2E0,-2.2066112E0,3E0,3E0,-9.916968E-1,-2.4488962E0,-8.4733866E-2,7.783545E-2,-1.4195434E0,1.1936987E-1,-1.3862944E0,8.333333E0,-6.38309E-2,2E0,8E0,1.6E1,2E0,1.5E1,-2.9627303E-2,4.871248E-2,2E0,2.6E1,-1.2335733E0,-1.319376E-1,7.3974185E-2,-2.447257E0,4.7983017E-2,-5.2826025E-2,-1.2690528E-2,-3.9642893E-2,6.7393094E-2,-2.8974334E-2,-2.0787358E-2,-3.2483943E-2,1.6709693E-2,1.0171909E-1,-3.178439E-2,3.916859E-2,1.2682549E-2,7.029147E-2,-2.4227792E-2,-8.528216E-2,-2.706199E-2,-5.8040958E-2,2.155352E-2,-4.593662E-2,-4.4939842E-2,4.1297905E-2,-1.0098704E-1,1.3907468E-2],"split_indices":[0,11,4,14,3,9,0,1,14,11,9,14,5,0,5,14,14,1,14,5,5,11,14,0,0,11,0,11,1,0,13,12,3,0,3,0,0,5,3,11,0,0,14,0,0,0,0,0,0,0,0,0,0,0,0,0,0,0,0,0,0,0,0,0,0,0,0],"split_type":[0,0,0,0,0,0,0,0,0,0,0,0,0,0,0,0,0,0,0,0,0,0,0,0,0,0,0,0,0,0,0,0,0,0,0,0,0,0,0,0,0,0,0,0,0,0,0,0,0,0,0,0,0,0,0,0,0,0,0,0,0,0,0,0,0,0,0],"sum_hessian":[6.27E2,3.26E2,3.01E2,1.29E2,1.97E2,2.88E2,1.3E1,1.6E1,1.13E2,1.42E2,5.5E1,2.76E2,1.2E1,4E0,1.2E1,6.3E1,5E1,9.7E1,4.5E1,7E0,4.8E1,2.7E1,2.49E2,1E0,1.1E1,1.1E1,1E0,4.7E1,1.6E1,1.5E1,3.5E1,5.3E1,4.4E1,8E0,3.7E1,1E0,6E0,3.1E1,1.7E1,2.4E1,3E0,1.3E1,2.36E2,2E0,9E0,1.1E1,3.6E1,1.1E1,5E0,2.6E1,9E0,4.8E1,5E0,2.6E1,1.8E1,3E0,5E0,3.2E1,5E0,1.6E1,1.5E1,7E0,1E1,1.2E1,1.2E1,2E0,2.34E2],"tree_param":{"num_deleted":"0","num_feature":"15","num_nodes":"67","size_leaf_vector":"1"}},{"base_weights":[1.5296004E-4,-2.5253035E-2,2.7661595E-2,-2.0087812E-2,-1.3135052E-1,2.9483496E-4,6.8596214E-2,-6.83571E-2,-8.606531E-3,-1.7633817E-1,3.2213833E-2,-3.130545E-2,7.014293E-2,3.4576215E-2,1.3923886E-1,-4.7380056E-2,-3.6924817E-2,2.8688775E-2,-4.3293774E-2,-2.332335E-2,-3.1853914E-1,1.4612746E-2,-2.9066652E-1,2.1888453E-1,-6.166888E-2,4.791655E-2,-1.8311635E-1,1.2041651E-1,7.29443E-2,-6.1024494E-2,2.3353538E-2,3.8805425E-2,-1.7505345E-1,4.7735237E-2,-4.923448E-2,-2.887776E-2,-1.05013296E-1,-1.5471372E-1,5.4854147E-2,-1.0323199E-1,3.2714903E-2,2.493357E-1,-8.592691E-2,6.8496846E-2,-8.954151E-2,6.1994094E-2,-9.881377E-2,-2.8073156E-1,3.1101681E-2,2.6315553E-2,4.392741E-2,-1.47821205E-2,-2.4713501E-2,-6.835407E-2,2.753666E-2,5.339832E-3,4.635495E-2,-8.106771E-2,4.5121178E-2,-8.316725E-3,-2.7048549E-2,-7.285147E-2,5.653006E-3,7.474832E-2,3.4544708E-3,-6.103028E-2,8.267516E-2,-7.821582E-2,-6.967481E-3,8.752721E-3,3.8726777E-2,-1.2820551E-1,2.386931E-2],"categories":[],"categories_nodes":[],"categories_segments":[],"categories_sizes":[],"default_left":[0,0,0,0,0,0,0,0,0,0,0,0,0,0,0,0,0,0,0,0,0,0,0,0,0,0,0,0,0,0,0,0,0,0,0,0,0,0,0,0,0,0,0,0,0,0,0,0,0,0,0,0,0,0,0,0,0,0,0,0,0,0,0,0,0,0,0,0,0,0,0,0,0],"id":5,"left_children":[1,3,5,7,9,11,13,15,17,19,-1,21,23,25,27,29,-1,31,33,-1,35,37,39,41,43,45,47,49,-1,51,53,55,57,-1,59,-1,-1,61,63,-1,-1,65,-1,-1,67,69,-1,71,-1,-1,-1,-1,-1,-1,-1,-1,-1,-1,-1,-1,-1,-1,-1,-1,-1,-1,-1,-1,-1,-1,-1,-1,-1],"loss_changes":[4.3959787E-1,1.7656311E-1,3.3829457E-1,1.7287417E-1,1.8003356E-1,4.0390986E-1,2.8598052E-1,6.304723E-2,3.2983458E-1,1.5749684E-1,0E0,1.5048308E0,1.1310346E0,2.4981396E-1,4.6997607E-2,4.4855557E-2,0E0,2.603192E-1,1.665595E-1,0E0,1.3198853E-3,7.4439156E-1,4.4338143E-1,4.8687017E-1,2.7101207E-1,4.4002002E-1,1.6907874E-1,1.6920388E-2,0E0,5.4760277E-3,1.5844168E-1,2.840634E-1,2.2649005E-1,0E0,1.11076206E-1,0E0,0E0,3.2576305E-1,7.3818904E-1,0E0,0E0,3.650571E-1,0E0,0E0,3.231508E-1,1.6578412E-1,0E0,2.4530846E-1,0E0,0E0,0E0,0E0,0E0,0E0,0E0,0E0,0E0,0E0,0E0,0E0,0E0,0E0,0E0,0E0,0E0,0E0,0E0,0E0,0E0,0E0,0E0,0E0,0E0],"parents":[2147483647,0,0,1,1,2,2,3,3,4,4,5,5,6,6,7,7,8,8,9,9,11,11,12,12,13,13,14,14,15,15,17,17,18,18,20,20,21,21,22,22,23,23,24,24,25,25,26,26,27,27,29,29,30,30,31,31,32,32,34,34,37,37,38,38,41,41,44,44,45,45,47,47],"right_children":[2,4,6,8,10,12,14,16,18,20,-1,22,24,26,28,30,-1,32,34,-1,36,38,40,42,44,46,48,50,-1,52,54,56,58,-1,60,-1,-1,62,64,-1,-1,66,-1,-1,68,70,-1,72,-1,-1,-1,-1,-1,-1,-1,-1,-1,-1,-1,-1,-1,-1,-1,-1,-1,-1,-1,-1,-1,-1,-1,-1,-1],"split_conditions":[3E0,1E0,-2.1002483E0,4.25E0,1.3E1,-1.0391648E0,2.5E1,3.125E0,7.6666665E0,4.25E0,3.2213833E-2,-1.1316521E0,-8.242326E-1,7.2E0,9E0,2.6666667E0,-3.6924817E-2,1.3E1,-1.3862944E0,-2.332335E-2,2E0,2.9E1,4.2E1,6E0,4.3333335E0,7E0,7E0,6E0,7.29443E-2,2E0,2E0,2E0,3E0,4.7735237E-2,-2.093287E0,-2.887776E-2,-1.05013296E-1,1.6E1,2.6E1,-1.0323199E-1,3.2714903E-2,2E1,-8.592691E-2,6.8496846E-2,5.5E0,-1.8423951E0,-9.881377E-2,1E0,3.1101681E-2,2.6315553E-2,4.392741E-2,-1.47821205E-2,-2.4713501E-2,-6.835407E-2,2.753666E-2,5.339832E-3,4.635495E-2,-8.106771E-2,4.5121178E-2,-8.316725E-3,-2.7048549E-2,-7.285147E-2,5.653006E-3,7.474832E-2,3.4544708E-3,-6.103028E-2,8.267516E-2,-7.821582E-2,-6.967481E-3,8.752721E-3,3.8726777E-2,-1.2820551E-1,2.386931E-2],"split_indices":[0,4,14,1,12,11,3,1,1,1,0,11,11,1,9,1,0,12,11,0,5,3,3,0,1,9,9,5,0,13,13,5,5,0,14,0,0,13,12,0,0,3,0,0,1,14,0,5,0,0,0,0,0,0,0,0,0,0,0,0,0,0,0,0,0,0,0,0,0,0,0,0,0],"split_type":[0,0,0,0,0,0,0,0,0,0,0,0,0,0,0,0,0,0,0,0,0,0,0,0,0,0,0,0,0,0,0,0,0,0,0,0,0,0,0,0,0,0,0,0,0,0,0,0,0,0,0,0,0,0,0,0,0,0,0,0,0,0,0,0,0,0,0,0,0,0,0,0,0],"sum_hessian":[6.27E2,3.26E2,3.01E2,3.12E2,1.4E1,1.81E2,1.2E2,5.9E1,2.53E2,1.2E1,2E0,1.25E2,5.6E1,8.2E1,3.8E1,4.4E1,1.5E1,1.22E2,1.31E2,8E0,4E0,1.07E2,1.8E1,2.6E1,3E1,7.8E1,4E0,3.4E1,4E0,3.7E1,7E0,1.17E2,5E0,3E0,1.28E2,1E0,3E0,2E1,8.7E1,1.6E1,2E0,2.5E1,1E0,2E0,2.8E1,7.6E1,2E0,3E0,1E0,1.7E1,1.7E1,2.6E1,1.1E1,1E0,6E0,1E2,1.7E1,4E0,1E0,8.5E1,4.3E1,1.3E1,7E0,1.5E1,7.2E1,1E0,2.4E1,7E0,2.1E1,5.2E1,2.4E1,2E0,1E0],"tree_param":{"num_deleted":"0","num_feature":"15","num_nodes":"73","size_leaf_vector":"1"}},{"base_weights":[-4.2793326E-4,-1.4443478E-2,2.9201103E-2,3.0953952E-4,-8.368844E-2,-5.065409E-2,5.867972E-2,-8.091203E-3,1.571062E-1,7.284461E-2,-1.006652E-1,8.492427E-2,-1.3055384E-1,9.790077E-2,2.697279E-3,-1.6414555E-3,-2.1818884E-1,-6.5146476E-2,6.523831E-2,-5.2571587E-2,-2.3205411E-1,1.373525E-1,-1.7223383E-1,-4.9413227E-2,-2.4873526E-1,4.0683106E-2,1.6411445E-1,4.3872487E-2,-1.4160861E-1,-2.6657933E-2,4.727942E-2,-8.050616E-2,3.4994435E-2,8.003714E-2,-8.452896E-2,-2.6603624E-1,5.6943648E-2,-6.583997E-3,2.0986941E-1,-7.303787E-2,-2.020162E-2,6.5745525E-2,-8.7227315E-2,-8.404178E-2,-1.2042683E-1,1.4939515E-1,-8.4746545E-3,1.7930596E-1,-1.7435651E-2,8.144381E-3,1.8239766E-1,-1.005199E-1,-1.0136428E-1,-1.9631645E-2,-9.237987E-4,9.052269E-3,5.2171547E-2,-1.8743498E-2,5.1120006E-2,-3.5098575E-2,-1.3019835E-2,-5.5537235E-2,-1.03210784E-1,2.3865955E-2,-7.851106E-2,7.908137E-2,3.366006E-2,-9.949474E-2,-1.7072339E-2,2.1629531E-2,-3.4994192E-2,5.6416634E-2,2.3504077E-2,-3.021098E-2,2.6903301E-2,7.1546175E-2,3.3206258E-2,-2.9111184E-2,1.2433196E-2,1.0646952E-1,-2.954012E-3,6.860416E-2,-5.467527E-4,-6.3139335E-3,-3.667719E-2],"categories":[],"categories_nodes":[],"categories_segments":[],"categories_sizes":[],"default_left":[0,0,0,0,0,0,0,0,0,0,0,0,0,0,0,0,0,0,0,0,0,0,0,0,0,0,0,0,0,0,0,0,0,0,0,0,0,0,0,0,0,0,0,0,0,0,0,0,0,0,0,0,0,0,0,0,0,0,0,0,0,0,0,0,0,0,0,0,0,0,0,0,0,0,0,0,0,0,0,0,0,0,0,0,0],"id":6,"left_children":[1,3,5,7,9,11,13,15,17,-1,19,21,23,25,27,29,31,-1,-1,33,35,37,39,41,43,45,47,49,51,53,55,-1,-1,57,59,61,-1,63,65,-1,-1,-1,67,69,-1,71,73,75,77,79,81,83,-1,-1,-1,-1,-1,-1,-1,-1,-1,-1,-1,-1,-1,-1,-1,-1,-1,-1,-1,-1,-1,-1,-1,-1,-1,-1,-1,-1,-1,-1,-1,-1,-1],"loss_changes":[2.6120952E-1,4.3623716E-1,4.7848448E-1,4.6624574E-1,4.401663E-1,6.068845E-1,3.246981E-1,4.5494765E-1,4.5381504E-1,0E0,4.427662E-1,3.06786E-1,3.2333517E-1,3.2293075E-1,3.746059E-1,4.0145212E-1,1.9927394E-1,0E0,0E0,2.3560809E-1,3.2287943E-1,1.8926272E-1,1.3490669E-2,2.425379E-1,3.1831664E-1,2.5778005E-1,1.1344719E-1,2.4102733E-1,7.894027E-2,1.982231E-1,2.3517376E-1,0E0,0E0,1.5230548E-1,5.3676695E-2,4.9910784E-2,0E0,1.7464626E-1,3.340274E-2,0E0,0E0,0E0,1.2934163E-1,4.9138352E-2,0E0,2.6467621E-2,3.1681418E-1,1.2385666E-1,2.276927E-2,2.5303385E-1,8.5679114E-2,1.9885004E-2,0E0,0E0,0E0,0E0,0E0,0E0,0E0,0E0,0E0,0E0,0E0,0E0,0E0,0E0,0E0,0E0,0E0,0E0,0E0,0E0,0E0,0E0,0E0,0E0,0E0,0E0,0E0,0E0,0E0,0E0,0E0,0E0,0E0],"parents":[2147483647,0,0,1,1,2,2,3,3,4,4,5,5,6,6,7,7,8,8,10,10,11,11,12,12,13,13,14,14,15,15,16,16,19,19,20,20,21,21,22,22,23,23,24,24,25,25,26,26,27,27,28,28,29,29,30,30,33,33,34,34,35,35,37,37,38,38,42,42,43,43,45,45,46,46,47,47,48,48,49,49,50,50,51,51],"right_children":[2,4,6,8,10,12,14,16,18,-1,20,22,24,26,28,30,32,-1,-1,34,36,38,40,42,44,46,48,50,52,54,56,-1,-1,58,60,62,-1,64,66,-1,-1,-1,68,70,-1,72,74,76,78,80,82,84,-1,-1,-1,-1,-1,-1,-1,-1,-1,-1,-1,-1,-1,-1,-1,-1,-1,-1,-1,-1,-1,-1,-1,-1,-1,-1,-1,-1,-1,-1,-1,-1,-1],"split_conditions":[3E0,8.4E0,-2.4944284E0,2.6E1,-1.4468572E0,-2.6247356E0,1.04E1,7E0,5.5E0,7.284461E-2,2.3E1,9E0,1.1333333E1,7.5E0,-2.2185616E0,4E0,8E0,-6.5146476E-2,6.523831E-2,-1.2243435E0,3.7E1,9E0,1.2E1,5E0,3E0,1.2E1,-1.892962E0,2.9E1,3E0,-1.8456098E0,2E0,-8.050616E-2,3.4994435E-2,2E0,-5.6994677E-1,1.5E1,5.6943648E-2,1.75E1,6E0,-7.303787E-2,-2.020162E-2,6.5745525E-2,-2.6241686E0,4E0,-1.2042683E-1,4E0,3E1,7E0,3E0,1.9E1,4.9E1,2E0,-1.0136428E-1,-1.9631645E-2,-9.237987E-4,9.052269E-3,5.2171547E-2,-1.8743498E-2,5.1120006E-2,-3.5098575E-2,-1.3019835E-2,-5.5537235E-2,-1.03210784E-1,2.3865955E-2,-7.851106E-2,7.908137E-2,3.366006E-2,-9.949474E-2,-1.7072339E-2,2.1629531E-2,-3.4994192E-2,5.6416634E-2,2.3504077E-2,-3.021098E-2,2.6903301E-2,7.1546175E-2,3.3206258E-2,-2.9111184E-2,1.2433196E-2,1.0646952E-1,-2.954012E-3,6.860416E-2,-5.467527E-4,-6.3139335E-3,-3.667719E-2],"split_indices":[5,1,14,3,11,14,1,9,1,0,12,0,1,1,14,9,9,0,0,11,3,9,0,5,0,13,14,12,0,14,5,0,0,0,11,13,0,1,0,0,0,0,14,5,0,5,3,9,0,3,3,0,0,0,0,0,0,0,0,0,0,0,0,0,0,0,0,0,0,0,0,0,0,0,0,0,0,0,0,0,0,0,0,0,0],"split_type":[0,0,0,0,0,0,0,0,0,0,0,0,0,0,0,0,0,0,0,0,0,0,0,0,0,0,0,0,0,0,0,0,0,0,0,0,0,0,0,0,0,0,0,0,0,0,0,0,0,0,0,0,0,0,0,0,0,0,0,0,0,0,0,0,0,0,0,0,0,0,0,0,0,0,0,0,0,0,0,0,0,0,0,0,0],"sum_hessian":[6.27E2,4.26E2,2.01E2,3.52E2,7.4E1,5.4E1,1.47E2,3.35E2,1.7E1,3E0,7.1E1,2E1,3.4E1,8.6E1,6.1E1,3.26E2,9E0,2E0,1.5E1,5.3E1,1.8E1,1.7E1,3E0,2.1E1,1.3E1,4.7E1,3.9E1,4.8E1,1.3E1,2.16E2,1.1E2,8E0,1E0,1E1,4.3E1,1.7E1,1E0,6E0,1.1E1,1E0,2E0,2E0,1.9E1,7E0,6E0,1.4E1,3.3E1,3.6E1,3E0,3.9E1,9E0,1.2E1,1E0,8.1E1,1.35E2,9.8E1,1.2E1,4E0,6E0,2.3E1,2E1,1E1,7E0,5E0,1E0,6E0,5E0,1E0,1.8E1,1E0,6E0,8E0,6E0,1.7E1,1.6E1,1.8E1,1.8E1,1E0,2E0,1E0,3.8E1,7E0,2E0,3E0,9E0],"tree_param":{"num_deleted":"0","num_feature":"15","num_nodes":"85","size_leaf_vector":"1"}},{"base_weights":[-4.2265176E-4,-1.0226251E-2,2.030289E-2,2.0321565E-4,-5.9177924E-2,-3.9453432E-2,4.237245E-2,-2.862579E-3,6.424652E-2,5.6454565E-2,-7.209822E-2,5.7773508E-2,-9.666235E-2,7.0423484E-2,2.327084E-3,-1.0407827E-2,5.7379335E-2,-3.7091624E-2,-1.67796E-1,-1.533762E-1,1.0148603E-1,-3.6899332E-2,-1.8367122E-1,3.0074278E-2,1.1708195E-1,3.4212224E-2,-1.0943713E-1,-4.591016E-2,7.3933774E-3,9.169656E-2,2.0271946E-2,8.2778774E-2,-5.670591E-2,-2.0658463E-1,1.0793828E-1,1.5684942E-2,-7.1807116E-2,-3.4025718E-2,1.7207737E-1,6.7531146E-2,-1.1439206E-1,-6.0499825E-2,-2.9819977E-1,-7.360962E-2,6.288867E-2,-2.4744505E-2,1.24313876E-1,-2.5973795E-2,8.421468E-2,-7.3670946E-2,-8.615964E-2,-2.579398E-2,-4.1673547E-3,3.6890504E-3,-7.372713E-2,6.7323335E-2,-3.992298E-3,-3.2448545E-2,3.7652306E-2,-2.9380491E-2,-1.0295798E-2,-4.0390715E-2,-8.704054E-2,1.7012918E-4,4.84021E-2,2.762467E-2,-4.5488175E-2,6.649677E-2,3.1499706E-2,-2.8980404E-2,5.7915907E-2,-8.457053E-2,-2.308233E-2,1.8385105E-2,-2.5995685E-2,-2.4648778E-2,-9.615367E-2,-7.241991E-2,2.7427792E-3,2.3193963E-2,-6.845918E-2,5.4079015E-2,2.3266487E-2,5.9270747E-3,-1.0122926E-1,7.795079E-2,1.271239E-2,-4.8933015E-3,-2.6774349E-2],"categories":[],"categories_nodes":[],"categories_segments":[],"categories_sizes":[],"default_left":[0,0,0,0,0,0,0,0,0,0,0,0,0,0,0,0,0,0,0,0,0,0,0,0,0,0,0,0,0,0,0,0,0,0,0,0,0,0,0,0,0,0,0,0,0,0,0,0,0,0,0,0,0,0,0,0,0,0,0,0,0,0,0,0,0,0,0,0,0,0,0,0,0,0,0,0,0,0,0,0,0,0,0,0,0,0,0,0,0],"id":7,"left_children":[1,3,5,7,9,11,13,15,-1,-1,17,19,21,23,25,27,29,31,33,35,37,39,41,43,45,47,49,51,53,-1,55,57,59,61,63,-1,-1,65,67,69,71,73,75,77,79,-1,81,83,85,87,-1,-1,-1,-1,-1,-1,-1,-1,-1,-1,-1,-1,-1,-1,-1,-1,-1,-1,-1,-1,-1,-1,-1,-1,-1,-1,-1,-1,-1,-1,-1,-1,-1,-1,-1,-1,-1,-1,-1],"loss_changes":[1.2780774E-1,2.1801251E-1,2.6806846E-1,2.3215717E-1,2.5326473E-1,3.1150818E-1,1.6608658E-1,1.5923172E-1,0E0,0E0,2.3498008E-1,2.0939316E-1,1.752196E-1,1.6026786E-1,2.2468838E-1,1.9688654E-1,3.5310566E-1,1.3165736E-1,2.2551018E-1,8.324539E-2,1.7804226E-1,1.8576229E-1,1.7945194E-1,1.6794077E-1,6.798279E-2,1.4965037E-1,6.785178E-2,1.3223694E-1,2.61215E-1,0E0,2.4290833E-1,7.884461E-2,4.0018886E-2,6.313074E-2,1.7110027E-2,0E0,0E0,1.1777558E-1,1.6634107E-2,2.2467136E-1,5.9864327E-2,3.078987E-2,7.408142E-3,1.6882704E-1,1.7299747E-1,0E0,8.8049054E-2,3.342591E-1,1.873856E-1,1.01596415E-2,0E0,0E0,0E0,0E0,0E0,0E0,0E0,0E0,0E0,0E0,0E0,0E0,0E0,0E0,0E0,0E0,0E0,0E0,0E0,0E0,0E0,0E0,0E0,0E0,0E0,0E0,0E0,0E0,0E0,0E0,0E0,0E0,0E0,0E0,0E0,0E0,0E0,0E0,0E0],"parents":[2147483647,0,0,1,1,2,2,3,3,4,4,5,5,6,6,7,7,10,10,11,11,12,12,13,13,14,14,15,15,16,16,17,17,18,18,19,19,20,20,21,21,22,22,23,23,24,24,25,25,26,26,27,27,28,28,30,30,31,31,32,32,33,33,34,34,37,37,38,38,39,39,40,40,41,41,42,42,43,43,44,44,46,46,47,47,48,48,49,49],"right_children":[2,4,6,8,10,12,14,16,-1,-1,18,20,22,24,26,28,30,32,34,36,38,40,42,44,46,48,50,52,54,-1,56,58,60,62,64,-1,-1,66,68,70,72,74,76,78,80,-1,82,84,86,88,-1,-1,-1,-1,-1,-1,-1,-1,-1,-1,-1,-1,-1,-1,-1,-1,-1,-1,-1,-1,-1,-1,-1,-1,-1,-1,-1,-1,-1,-1,-1,-1,-1,-1,-1,-1,-1,-1,-1],"split_conditions":[3E0,8.4E0,-2.4944284E0,8.333333E0,-1.4468572E0,-2.6247356E0,1.04E1,4E0,6.424652E-2,5.6454565E-2,2.3E1,9.923077E0,1.1333333E1,7.5E0,-2.2185616E0,-9.916968E-1,1.7E1,-2.4360626E0,1.15E1,8.5E0,-1.3416355E0,9E0,3E0,-1.0498221E0,1.3E1,2.8E1,3E0,1E0,7E0,9.169656E-2,9E0,5E0,-2.2766483E0,1.5E1,3E0,1.5684942E-2,-7.1807116E-2,-2.7399323E0,5.8E1,2.8E1,8E0,4E0,1.2333333E1,4.3333335E0,7.2E0,-2.4744505E-2,6E0,2.6E1,9E0,2E0,-8.615964E-2,-2.579398E-2,-4.1673547E-3,3.6890504E-3,-7.372713E-2,6.7323335E-2,-3.992298E-3,-3.2448545E-2,3.7652306E-2,-2.9380491E-2,-1.0295798E-2,-4.0390715E-2,-8.704054E-2,1.7012918E-4,4.84021E-2,2.762467E-2,-4.5488175E-2,6.649677E-2,3.1499706E-2,-2.8980404E-2,5.7915907E-2,-8.457053E-2,-2.308233E-2,1.8385105E-2,-2.5995685E-2,-2.4648778E-2,-9.615367E-2,-7.241991E-2,2.7427792E-3,2.3193963E-2,-6.845918E-2,5.4079015E-2,2.3266487E-2,5.9270747E-3,-1.0122926E-1,7.795079E-2,1.271239E-2,-4.8933015E-3,-2.6774349E-2],"split_indices":[5,1,14,1,11,14,1,10,0,0,12,1,1,1,14,11,3,14,1,1,11,5,0,11,12,12,0,5,9,0,13,9,14,13,0,0,0,14,3,3,1,5,1,1,1,0,5,12,9,0,0,0,0,0,0,0,0,0,0,0,0,0,0,0,0,0,0,0,0,0,0,0,0,0,0,0,0,0,0,0,0,0,0,0,0,0,0,0,0],"split_type":[0,0,0,0,0,0,0,0,0,0,0,0,0,0,0,0,0,0,0,0,0,0,0,0,0,0,0,0,0,0,0,0,0,0,0,0,0,0,0,0,0,0,0,0,0,0,0,0,0,0,0,0,0,0,0,0,0,0,0,0,0,0,0,0,0,0,0,0,0,0,0,0,0,0,0,0,0,0,0,0,0,0,0,0,0,0,0,0,0],"sum_hessian":[6.27E2,4.26E2,2.01E2,3.52E2,7.4E1,5.4E1,1.47E2,3.48E2,4E0,3E0,7.1E1,2E1,3.4E1,8.6E1,6.1E1,3.1E2,3.8E1,5.3E1,1.8E1,3E0,1.7E1,2.1E1,1.3E1,4.7E1,3.9E1,4.8E1,1.3E1,1.03E2,2.07E2,4E0,3.4E1,7E0,4.6E1,1.6E1,2E0,1E0,2E0,6E0,1.1E1,9E0,1.2E1,7E0,6E0,1.1E1,3.6E1,1E0,3.8E1,2.2E1,2.6E1,1.2E1,1E0,4.5E1,5.8E1,2.04E2,3E0,4E0,3E1,1E0,6E0,1.5E1,3.1E1,1E1,6E0,1E0,1E0,3E0,3E0,5E0,6E0,4E0,5E0,1E0,1.1E1,1E0,6E0,1E0,5E0,3E0,8E0,3.5E1,1E0,1.6E1,2.2E1,2E1,2E0,4E0,2.2E1,3E0,9E0],"tree_param":{"num_deleted":"0","num_feature":"15","num_nodes":"89","size_leaf_vector":"1"}},{"base_weights":[-7.823671E-4,-1.2805977E-2,7.046078E-3,-3.524585E-2,5.3362832E-3,2.9421845E-2,-1.4224019E-2,-6.3321814E-2,1.6172027E-2,-1.641426E-2,1.5125181E-1,3.217133E-2,-7.1884945E-2,1.3982147E-2,-4.8999563E-2,1.3394696E-2,-1.0441346E-1,7.058749E-2,-2.3046097E-2,2.6002629E-3,-6.832065E-2,-1.217747E-2,1.988157E-1,1.2224572E-2,7.060435E-2,7.122248E-2,-1.3110688E-3,-1.0046894E-1,-2.5795165E-2,8.168047E-2,-1.0403059E-1,-2.3649042E-2,-1.4939167E-1,9.341135E-2,3.607782E-2,2.0143391E-4,-7.2319466E-3,-9.22789E-3,1.8134081E-1,-1.089202E-1,5.6219023E-2,2.515089E-1,8.663995E-2,2.6033508E-2,-1.4641976E-1,8.605719E-2,-8.0141485E-2,1.769249E-1,1.3919865E-2,2.276706E-2,-1.401225E-1,-1.2960872E-1,-4.6301194E-2,-3.940484E-2,5.8729008E-2,-7.635401E-3,5.3921E-2,-9.826974E-3,-7.782532E-2,1.8846381E-2,-2.5315989E-2,-5.736457E-2,-1.39869E-2,2.0342235E-2,-3.7205912E-2,-2.7311774E-2,2.5622365E-3,1.5434228E-2,1.0121487E-1,-8.088409E-2,5.597401E-2,9.8825485E-2,2.1530293E-2,-3.078915E-2,4.3506045E-2,-2.9754601E-3,2.5036447E-2,-6.395978E-2,6.818937E-2,1.9203274E-2,4.0550146E-2,-7.6766154E-3,6.2853284E-2,-1.3324828E-2,1.3342211E-2,5.3819727E-2,2.704864E-3,-6.894673E-2,-9.121524E-3,-2.8622996E-2,-7.721985E-2,2.5312014E-2,-2.5414443E-2,-3.4584288E-2,-8.255593E-3,3.0142596E-2,-4.1286223E-2],"categories":[],"categories_nodes":[],"categories_segments":[],"categories_sizes":[],"default_left":[0,0,0,0,0,0,0,0,0,0,0,0,0,0,0,0,0,0,0,0,0,0,0,0,0,0,0,0,0,0,0,0,0,0,0,0,0,0,0,0,0,0,0,0,0,0,0,0,0,0,0,0,0,0,0,0,0,0,0,0,0,0,0,0,0,0,0,0,0,0,0,0,0,0,0,0,0,0,0,0,0,0,0,0,0,0,0,0,0,0,0,0,0,0,0,0,0],"id":8,"left_children":[1,3,5,7,9,11,13,15,17,19,21,23,-1,25,27,29,31,33,35,37,-1,39,41,43,45,47,49,51,53,55,57,59,61,-1,63,-1,-1,65,67,69,-1,71,73,75,77,79,-1,81,83,85,87,89,91,93,95,-1,-1,-1,-1,-1,-1,-1,-1,-1,-1,-1,-1,-1,-1,-1,-1,-1,-1,-1,-1,-1,-1,-1,-1,-1,-1,-1,-1,-1,-1,-1,-1,-1,-1,-1,-1,-1,-1,-1,-1,-1,-1],"loss_changes":[5.9201464E-2,1.0115136E-1,1.8174963E-1,1.6126437E-1,4.4045907E-1,1.4529616E-1,1.9293855E-1,2.2837189E-1,8.698966E-2,4.86791E-1,1.423411E-1,1.4096051E-1,0E0,9.551075E-2,1.0250819E-1,2.1697764E-1,1.6720098E-1,1.3002563E-1,6.1978213E-4,2.384605E-1,0E0,1.1694807E-1,6.0961843E-2,2.732691E-1,3.517915E-1,1.368488E-1,2.93972E-1,3.6616743E-2,7.363569E-2,1.8315846E-1,1.02253005E-1,9.983724E-2,1.2002957E-1,0E0,8.968681E-2,0E0,0E0,1.5486757E-1,1.2452434E-1,2.402443E-1,0E0,1.0239017E-1,8.118136E-2,2.3616868E-1,2.980265E-1,5.739203E-2,0E0,5.8154076E-2,3.049387E-2,1.5991923E-1,1.2095356E-1,4.973632E-2,6.2364176E-2,4.5529075E-2,8.759938E-2,0E0,0E0,0E0,0E0,0E0,0E0,0E0,0E0,0E0,0E0,0E0,0E0,0E0,0E0,0E0,0E0,0E0,0E0,0E0,0E0,0E0,0E0,0E0,0E0,0E0,0E0,0E0,0E0,0E0,0E0,0E0,0E0,0E0,0E0,0E0,0E0,0E0,0E0,0E0,0E0,0E0,0E0],"parents":[2147483647,0,0,1,1,2,2,3,3,4,4,5,5,6,6,7,7,8,8,9,9,10,10,11,11,13,13,14,14,15,15,16,16,17,17,18,18,19,19,21,21,22,22,23,23,24,24,25,25,26,26,27,27,28,28,29,29,30,30,31,31,32,32,34,34,37,37,38,38,39,39,41,41,42,42,43,43,44,44,45,45,47,47,48,48,49,49,50,50,51,51,52,52,53,53,54,54],"right_children":[2,4,6,8,10,12,14,16,18,20,22,24,-1,26,28,30,32,34,36,38,-1,40,42,44,46,48,50,52,54,56,58,60,62,-1,64,-1,-1,66,68,70,-1,72,74,76,78,80,-1,82,84,86,88,90,92,94,96,-1,-1,-1,-1,-1,-1,-1,-1,-1,-1,-1,-1,-1,-1,-1,-1,-1,-1,-1,-1,-1,-1,-1,-1,-1,-1,-1,-1,-1,-1,-1,-1,-1,-1,-1,-1,-1,-1,-1,-1,-1,-1],"split_conditions":[4E0,-1.8456098E0,8.5E0,7.6666665E0,1E1,1.1E1,-1.1316521E0,1.2E1,-2.1002483E0,1.1E1,1E0,7.5E0,-7.1884945E-2,1.5E1,-9.5451194E-1,1E0,2E0,2E0,3E0,8E0,-6.832065E-2,-1.6415817E0,8E0,7.3333335E0,-6.613136E-1,-2.2185616E0,-2.3227878E0,1.1125E1,3E0,1.1E1,4.25E0,1.5E1,3E0,9.341135E-2,1.8E1,2.0143391E-4,-7.2319466E-3,-1.2455667E0,4.25E0,8E0,5.6219023E-2,3E0,1.1E1,1.7E1,1.3E1,-2.0414932E0,-8.0141485E-2,1.3E1,1.9E1,1.6E1,-2.2055578E0,-1.0498221E0,-2.5507782E0,8.666667E0,1.2E1,-7.635401E-3,5.3921E-2,-9.826974E-3,-7.782532E-2,1.8846381E-2,-2.5315989E-2,-5.736457E-2,-1.39869E-2,2.0342235E-2,-3.7205912E-2,-2.7311774E-2,2.5622365E-3,1.5434228E-2,1.0121487E-1,-8.088409E-2,5.597401E-2,9.8825485E-2,2.1530293E-2,-3.078915E-2,4.3506045E-2,-2.9754601E-3,2.5036447E-2,-6.395978E-2,6.818937E-2,1.9203274E-2,4.0550146E-2,-7.6766154E-3,6.2853284E-2,-1.3324828E-2,1.3342211E-2,5.3819727E-2,2.704864E-3,-6.894673E-2,-9.121524E-3,-2.8622996E-2,-7.721985E-2,2.5312014E-2,-2.5414443E-2,-3.4584288E-2,-8.255593E-3,3.0142596E-2,-4.1286223E-2],"split_indices":[9,14,1,1,12,5,11,3,14,3,5,1,0,13,11,4,10,5,9,12,0,14,13,1,11,14,14,1,0,3,1,3,10,0,13,0,0,14,1,13,0,0,12,12,13,14,0,13,12,13,14,11,14,1,1,0,0,0,0,0,0,0,0,0,0,0,0,0,0,0,0,0,0,0,0,0,0,0,0,0,0,0,0,0,0,0,0,0,0,0,0,0,0,0,0,0,0],"split_type":[0,0,0,0,0,0,0,0,0,0,0,0,0,0,0,0,0,0,0,0,0,0,0,0,0,0,0,0,0,0,0,0,0,0,0,0,0,0,0,0,0,0,0,0,0,0,0,0,0,0,0,0,0,0,0,0,0,0,0,0,0,0,0,0,0,0,0,0,0,0,0,0,0,0,0,0,0,0,0,0,0,0,0,0,0,0,0,0,0,0,0,0,0,0,0,0,0],"sum_hessian":[6.27E2,2.47E2,3.8E2,1.1E2,1.37E2,1.85E2,1.95E2,7.1E1,3.9E1,1.2E2,1.7E1,1.84E2,1E0,1.08E2,8.7E1,2.5E1,4.6E1,1.6E1,2.3E1,1.11E2,9E0,4E0,1.3E1,1.22E2,6.2E1,2.2E1,8.6E1,2.6E1,6.1E1,1.6E1,9E0,1.7E1,2.9E1,1E0,1.5E1,1E0,2.2E1,1.05E2,6E0,3E0,1E0,8E0,5E0,1.13E2,9E0,6E1,2E0,7E0,1.5E1,7.4E1,1.2E1,1.6E1,1E1,5.3E1,8E0,8E0,8E0,7E0,2E0,7E0,1E1,2E1,9E0,1.3E1,2E0,1.8E1,8.7E1,4E0,2E0,2E0,1E0,5E0,3E0,1E0,4E0,7E1,4.3E1,8E0,1E0,4.3E1,1.7E1,1E0,6E0,5E0,1E1,5E0,6.9E1,6E0,6E0,1.4E1,2E0,2E0,8E0,6E0,4.7E1,7E0,1E0],"tree_param":{"num_deleted":"0","num_feature":"15","num_nodes":"97","size_leaf_vector":"1"}},{"base_weights":[-6.3359464E-4,1.6625345E-3,-4.645852E-2,-2.800742E-3,4.334242E-2,-9.3693644E-2,-1.6314972E-2,9.394483E-3,-1.0305536E-2,-4.718365E-2,5.6692738E-2,8.035323E-2,-5.899992E-2,-2.619155E-2,3.023975E-2,-5.3807277E-2,5.347531E-3,1.5943725E-2,-2.6845323E-2,1.0832611E-1,1.6938506E-2,3.1582907E-2,1.1807842E-2,-1.8394016E-1,-2.613163E-2,-3.6280207E-2,1.960745E-2,4.12173E-2,-8.205573E-2,-1.0563051E-1,-7.3409644E-3,1.20687775E-1,9.9999E-4,4.1836537E-2,6.451935E-2,-4.8383307E-3,1.0485224E-1,-6.722024E-2,-9.533743E-3,5.34783E-2,-1.6422214E-2,-5.05488E-3,-3.1920742E-2,-2.9533731E-3,2.373041E-2,-7.827158E-2,4.2083405E-2,-2.4310501E-2,-1.1950814E-1,-1.3496969E-2,1.918783E-2,9.026313E-3,3.8475547E-2,-5.9728947E-2,1.055404E-3,2.7626399E-2,3.9058186E-3,3.7291616E-3,-6.289368E-2,8.810431E-3,4.0575687E-2,1.931017E-2,1.4883847E-3],"categories":[],"categories_nodes":[],"categories_segments":[],"categories_sizes":[],"default_left":[0,0,0,0,0,0,0,0,0,0,0,0,0,0,0,0,0,0,0,0,0,0,0,0,0,0,0,0,0,0,0,0,0,0,0,0,0,0,0,0,0,0,0,0,0,0,0,0,0,0,0,0,0,0,0,0,0,0,0,0,0,0,0],"id":9,"left_children":[1,3,5,7,9,-1,11,13,15,17,19,21,23,25,27,29,31,-1,-1,33,35,-1,-1,37,39,41,-1,43,45,47,49,51,53,-1,55,57,59,-1,-1,61,-1,-1,-1,-1,-1,-1,-1,-1,-1,-1,-1,-1,-1,-1,-1,-1,-1,-1,-1,-1,-1,-1,-1],"loss_changes":[6.615537E-2,1.1155268E-1,2.3531774E-1,4.9702093E-2,7.2770976E-2,0E0,1.20276585E-1,1.5434468E-1,2.2908212E-1,3.8707793E-2,1.0284999E-1,5.051609E-3,7.732478E-2,7.348949E-2,1.6486967E-1,2.1353963E-1,1.2423804E-1,0E0,0E0,2.1003008E-2,5.79418E-2,0E0,0E0,1.7302558E-2,4.1646075E-2,9.358342E-2,0E0,2.3291047E-1,5.137707E-1,2.701123E-1,1.3172795E-1,2.3089051E-3,1.2162383E-1,0E0,1.4418691E-2,9.1025755E-2,9.796225E-3,0E0,0E0,2.3221476E-3,0E0,0E0,0E0,0E0,0E0,0E0,0E0,0E0,0E0,0E0,0E0,0E0,0E0,0E0,0E0,0E0,0E0,0E0,0E0,0E0,0E0,0E0,0E0],"parents":[2147483647,0,0,1,1,2,2,3,3,4,4,6,6,7,7,8,8,9,9,10,10,11,11,12,12,13,13,14,14,15,15,16,16,19,19,20,20,23,23,24,24,25,25,27,27,28,28,29,29,30,30,31,31,32,32,34,34,35,35,36,36,39,39],"right_children":[2,4,6,8,10,-1,12,14,16,18,20,22,24,26,28,30,32,-1,-1,34,36,-1,-1,38,40,42,-1,44,46,48,50,52,54,-1,56,58,60,-1,-1,62,-1,-1,-1,-1,-1,-1,-1,-1,-1,-1,-1,-1,-1,-1,-1,-1,-1,-1,-1,-1,-1,-1,-1],"split_conditions":[6E0,4E0,1.5E1,9E0,4E0,-9.3693644E-2,1.1E1,4.25E0,7.5E0,2.7777777E0,7E0,9E0,1.4E1,1E1,-4.541303E-1,2E0,-1.4195434E0,1.5943725E-2,-2.6845323E-2,-9.346684E-1,-2.2055578E0,3.1582907E-2,1.1807842E-2,9.923077E0,2E0,2E0,1.960745E-2,-8.848459E-1,5.2E0,-1.9255025E0,4E0,2E0,-2.6513822E0,4.1836537E-2,4E0,-2.2293346E0,5E0,-6.722024E-2,-9.533743E-3,1.55E1,-1.6422214E-2,-5.05488E-3,-3.1920742E-2,-2.9533731E-3,2.373041E-2,-7.827158E-2,4.2083405E-2,-2.4310501E-2,-1.1950814E-1,-1.3496969E-2,1.918783E-2,9.026313E-3,3.8475547E-2,-5.9728947E-2,1.055404E-3,2.7626399E-2,3.9058186E-3,3.7291616E-3,-6.289368E-2,8.810431E-3,4.0575687E-2,1.931017E-2,1.4883847E-3],"split_indices":[7,2,13,13,9,0,5,1,1,1,9,0,9,12,11,5,11,0,0,11,14,0,0,1,4,9,0,11,1,14,9,0,14,0,5,14,0,0,0,1,0,0,0,0,0,0,0,0,0,0,0,0,0,0,0,0,0,0,0,0,0,0,0],"split_type":[0,0,0,0,0,0,0,0,0,0,0,0,0,0,0,0,0,0,0,0,0,0,0,0,0,0,0,0,0,0,0,0,0,0,0,0,0,0,0,0,0,0,0,0,0,0,0,0,0,0,0,0,0,0,0,0,0,0,0,0,0,0,0],"sum_hessian":[6.27E2,5.98E2,2.9E1,5.41E2,5.7E1,2E0,2.7E1,2.06E2,3.35E2,7E0,5E1,8E0,1.9E1,7.6E1,1.3E2,8.8E1,2.47E2,2E0,5E0,2.1E1,2.9E1,4E0,4E0,3E0,1.6E1,6.9E1,7E0,1.19E2,1.1E1,4.1E1,4.7E1,8E0,2.39E2,1.1E1,1E1,2.4E1,5E0,2E0,1E0,4E0,1.2E1,5.5E1,1.4E1,5.1E1,6.8E1,6E0,5E0,3.9E1,2E0,3.1E1,1.6E1,1E0,7E0,2E0,2.37E2,6E0,4E0,2.3E1,1E0,2E0,3E0,3E0,1E0],"tree_param":{"num_deleted":"0","num_feature":"15","num_nodes":"63","size_leaf_vector":"1"}},{"base_weights":[-8.449029E-4,-1.061953E-2,6.9492855E-3,-2.73899E-3,-8.719791E-2,4.5119003E-5,4.9359675E-2,5.8294985E-2,-5.868406E-3,-1.6217401E-2,-1.6865703E-1,4.2921986E-2,-5.55464E-3,9.855616E-2,-5.9931763E-3,7.391053E-2,-7.862827E-3,-2.578702E-2,1.766359E-2,-2.2633155E-1,-4.264643E-2,1.846239E-1,9.0279855E-4,-2.5149237E-2,1.3365371E-2,-7.867298E-3,1.2243554E-1,-2.0106868E-1,2.0880446E-2,-4.5987155E-2,5.034722E-4,-3.7211664E-3,-8.969965E-3,-2.812062E-2,-7.647231E-2,-1.6931297E-2,-4.39192E-3,6.0807582E-2,8.722141E-3,-7.37496E-2,3.445124E-2,-1.8684434E-2,-1.5779604E-1,8.52954E-4,9.603897E-2,5.7991028E-2,5.8190957E-2,-9.209546E-2,1.6145469E-3,9.722636E-2,-2.1229403E-2,-2.1495074E-2,1.9387905E-2,6.0445417E-2,-1.6495419E-3,-4.2086642E-2,-1.0409143E-2,1.8625617E-2,8.918747E-3,-8.281257E-3,4.1450735E-2,-7.40315E-2,4.0310384E-3,-1.9212324E-2,7.252817E-3,6.26812E-2,1.560076E-3,1.0031888E-2,3.1461537E-2,4.5036547E-2,1.0639415E-2,3.3324368E-3,-1.7932035E-2],"categories":[],"categories_nodes":[],"categories_segments":[],"categories_sizes":[],"default_left":[0,0,0,0,0,0,0,0,0,0,0,0,0,0,0,0,0,0,0,0,0,0,0,0,0,0,0,0,0,0,0,0,0,0,0,0,0,0,0,0,0,0,0,0,0,0,0,0,0,0,0,0,0,0,0,0,0,0,0,0,0,0,0,0,0,0,0,0,0,0,0,0,0],"id":10,"left_children":[1,3,5,7,9,11,13,-1,15,17,19,21,23,25,27,-1,29,31,-1,33,35,37,39,41,43,-1,45,47,49,51,53,-1,-1,-1,-1,-1,-1,-1,-1,55,57,59,61,63,65,67,-1,-1,-1,69,71,-1,-1,-1,-1,-1,-1,-1,-1,-1,-1,-1,-1,-1,-1,-1,-1,-1,-1,-1,-1,-1,-1],"loss_changes":[4.791816E-2,1.681318E-1,1.0248072E-1,1.5777424E-1,1.4759707E-1,7.2748646E-2,1.3402578E-1,0E0,1.282068E-1,1.229791E-2,7.7558964E-2,2.0823029E-1,9.969177E-2,8.068246E-2,1.3001566E-1,0E0,7.976304E-2,3.997283E-4,0E0,6.4187944E-3,1.1050012E-3,1.6590834E-2,7.266597E-2,1.1024637E-1,1.4163727E-1,0E0,9.017137E-2,6.725145E-2,7.279219E-2,1.3237129E-1,2.4960119E-1,0E0,0E0,0E0,0E0,0E0,0E0,0E0,0E0,1.8519051E-2,7.640682E-4,1.8149914E-1,9.472911E-2,1.8317187E-1,1.8351321E-1,1.1455972E-2,0E0,0E0,0E0,2.0811252E-2,1.9360257E-2,0E0,0E0,0E0,0E0,0E0,0E0,0E0,0E0,0E0,0E0,0E0,0E0,0E0,0E0,0E0,0E0,0E0,0E0,0E0,0E0,0E0,0E0],"parents":[2147483647,0,0,1,1,2,2,3,3,4,4,5,5,6,6,8,8,9,9,10,10,11,11,12,12,13,13,14,14,16,16,17,17,19,19,20,20,21,21,22,22,23,23,24,24,26,26,27,27,28,28,29,29,30,30,39,39,40,40,41,41,42,42,43,43,44,44,45,45,49,49,50,50],"right_children":[2,4,6,8,10,12,14,-1,16,18,20,22,24,26,28,-1,30,32,-1,34,36,38,40,42,44,-1,46,48,50,52,54,-1,-1,-1,-1,-1,-1,-1,-1,56,58,60,62,64,66,68,-1,-1,-1,70,72,-1,-1,-1,-1,-1,-1,-1,-1,-1,-1,-1,-1,-1,-1,-1,-1,-1,-1,-1,-1,-1,-1],"split_conditions":[-2.101729E0,-2.1254854E0,4E0,1.3E1,3E0,-2.0402207E0,1E0,5.8294985E-2,1E0,4E0,7.2E0,-9.346684E-1,-8.848459E-1,2E0,7E0,7.391053E-2,1.3E1,4.25E0,1.766359E-2,4E0,8.333333E0,1.8E1,2E1,2.3E1,5E0,-7.867298E-3,-1.9647288E0,4E0,-1.3416355E0,3E0,1.5E1,-3.7211664E-3,-8.969965E-3,-2.812062E-2,-7.647231E-2,-1.6931297E-2,-4.39192E-3,6.0807582E-2,8.722141E-3,1.6E1,2.5E1,1.5E1,3E0,-1.8423951E0,1E0,7E0,5.8190957E-2,-9.209546E-2,1.6145469E-3,4E0,1.35E1,-2.1495074E-2,1.9387905E-2,6.0445417E-2,-1.6495419E-3,-4.2086642E-2,-1.0409143E-2,1.8625617E-2,8.918747E-3,-8.281257E-3,4.1450735E-2,-7.40315E-2,4.0310384E-3,-1.9212324E-2,7.252817E-3,6.26812E-2,1.560076E-3,1.0031888E-2,3.1461537E-2,4.5036547E-2,1.0639415E-2,3.3324368E-3,-1.7932035E-2],"split_indices":[14,14,10,3,10,14,5,0,5,0,1,11,11,0,1,0,13,1,0,9,1,3,3,3,9,0,14,0,11,5,12,0,0,0,0,0,0,0,0,3,3,12,5,14,5,1,0,0,0,5,1,0,0,0,0,0,0,0,0,0,0,0,0,0,0,0,0,0,0,0,0,0,0],"split_type":[0,0,0,0,0,0,0,0,0,0,0,0,0,0,0,0,0,0,0,0,0,0,0,0,0,0,0,0,0,0,0,0,0,0,0,0,0,0,0,0,0,0,0,0,0,0,0,0,0,0,0,0,0,0,0,0,0,0,0,0,0,0,0,0,0,0,0,0,0,0,0,0,0],"sum_hessian":[6.27E2,2.78E2,3.49E2,2.53E2,2.5E1,3.01E2,4.8E1,3E0,2.5E2,1.4E1,1.1E1,3.4E1,2.67E2,2.5E1,2.3E1,1E0,2.49E2,1.3E1,1E0,7E0,4E0,7E0,2.7E1,1.31E2,1.36E2,4E0,2.1E1,2E0,2.1E1,4.4E1,2.05E2,4E0,9E0,2E0,5E0,2E0,2E0,6E0,1E0,8E0,1.9E1,1.26E2,5E0,1.19E2,1.7E1,1.2E1,9E0,1E0,1E0,7E0,1.4E1,3.6E1,8E0,5E0,2E2,2E0,6E0,1E0,1.8E1,1.2E2,6E0,3E0,2E0,3.1E1,8.8E1,7E0,1E1,9E0,3E0,3E0,4E0,8E0,6E0],"tree_param":{"num_deleted":"0","num_feature":"15","num_nodes":"73","size_leaf_vector":"1"}},{"base_weights":[-3.2010578E-4,4.5968406E-2,-1.9183601E-3,6.726976E-3,5.105868E-2,-5.1617797E-2,1.5788205E-3,-4.745325E-2,3.9259408E-2,3.941086E-2,-8.75049E-2,3.1209766E-4,1.8042539E-1,6.873154E-2,-5.8971837E-2,-6.2445987E-2,9.814503E-2,-1.3334528E-1,-2.0828648E-2,-4.4382066E-3,1.4134969E-2,8.10332E-2,-1.3294564E-2,7.406315E-2,1.5125603E-3,-2.939768E-2,-3.9902823E-3,-1.971721E-2,-3.5004165E-2,1.2230621E-1,1.3022188E-2,-1.880205E-2,-1.5654725E-1,3.5470188E-2,-1.2681008E-2,-2.593463E-2,3.6024647E-3,1.0045019E-1,4.8732413E-3,5.9617106E-3,2.32485E-2,1.4720694E-3,-8.868264E-3,9.6977055E-3,4.101598E-2,-1.4621767E-2,1.0651419E-2,-2.6137685E-2,-5.9316836E-2,2.1412408E-2,-1.0461027E-2,-5.1845226E-4,1.6483944E-2,1.2953448E-2,6.985071E-2,-6.1739367E-2,2.4157183E-3],"categories":[],"categories_nodes":[],"categories_segments":[],"categories_sizes":[],"default_left":[0,0,0,0,0,0,0,0,0,0,0,0,0,0,0,0,0,0,0,0,0,0,0,0,0,0,0,0,0,0,0,0,0,0,0,0,0,0,0,0,0,0,0,0,0,0,0,0,0,0,0,0,0,0,0,0,0],"id":11,"left_children":[1,3,5,7,-1,9,11,-1,13,15,17,19,21,23,25,27,29,31,33,35,37,-1,-1,39,-1,-1,-1,41,-1,43,-1,45,47,-1,-1,49,51,53,55,-1,-1,-1,-1,-1,-1,-1,-1,-1,-1,-1,-1,-1,-1,-1,-1,-1,-1],"loss_changes":[4.6548136E-2,1.01227E-1,1.0575669E-1,9.741059E-2,0E0,1.3411885E-1,1.2885009E-1,0E0,4.747948E-2,7.791849E-2,8.586007E-2,3.7227906E-2,9.2593715E-2,3.7014075E-3,5.8250027E-3,9.286268E-3,5.2712485E-3,4.223627E-2,4.375977E-2,7.30343E-2,1.1542754E-1,0E0,0E0,5.0570443E-4,0E0,0E0,0E0,1.1146185E-3,0E0,2.065204E-3,0E0,8.233638E-3,2.2791892E-2,0E0,0E0,1.0248172E-1,8.439345E-2,9.6094415E-2,9.006491E-2,0E0,0E0,0E0,0E0,0E0,0E0,0E0,0E0,0E0,0E0,0E0,0E0,0E0,0E0,0E0,0E0,0E0,0E0],"parents":[2147483647,0,0,1,1,2,2,3,3,5,5,6,6,8,8,9,9,10,10,11,11,12,12,13,13,14,14,15,15,16,16,17,17,18,18,19,19,20,20,23,23,27,27,29,29,31,31,32,32,35,35,36,36,37,37,38,38],"right_children":[2,4,6,8,-1,10,12,-1,14,16,18,20,22,24,26,28,30,32,34,36,38,-1,-1,40,-1,-1,-1,42,-1,44,-1,46,48,-1,-1,50,52,54,56,-1,-1,-1,-1,-1,-1,-1,-1,-1,-1,-1,-1,-1,-1,-1,-1,-1,-1],"split_conditions":[-2.6247356E0,-2.6513822E0,-2.4944284E0,5.6E1,5.105868E-2,5E0,1.9E1,-4.745325E-2,9E0,4E0,1E0,3E0,2E1,1.18E2,1.2E1,3E0,-2.5326972E0,4E0,8.428572E0,-2.1075842E0,1.9E1,8.10332E-2,-1.3294564E-2,8.5E0,1.5125603E-3,-2.939768E-2,-3.9902823E-3,3E0,-3.5004165E-2,3E0,1.3022188E-2,4E0,3.7E1,3.5470188E-2,-1.2681008E-2,-1.4468572E0,4E0,1.1E1,-1.5296495E0,5.9617106E-3,2.32485E-2,1.4720694E-3,-8.868264E-3,9.6977055E-3,4.101598E-2,-1.4621767E-2,1.0651419E-2,-2.6137685E-2,-5.9316836E-2,2.1412408E-2,-1.0461027E-2,-5.1845226E-4,1.6483944E-2,1.2953448E-2,6.985071E-2,-6.1739367E-2,2.4157183E-3],"split_indices":[14,14,14,3,0,5,13,0,0,10,4,5,1,3,0,0,14,10,1,14,3,0,0,1,0,0,0,5,0,0,0,0,3,0,0,11,10,13,11,0,0,0,0,0,0,0,0,0,0,0,0,0,0,0,0,0,0],"split_type":[0,0,0,0,0,0,0,0,0,0,0,0,0,0,0,0,0,0,0,0,0,0,0,0,0,0,0,0,0,0,0,0,0,0,0,0,0,0,0,0,0,0,0,0,0,0,0,0,0,0,0,0,0,0,0,0,0],"sum_hessian":[6.27E2,2E1,6.07E2,1.6E1,4E0,3.9E1,5.68E2,2E0,1.4E1,1.1E1,2.8E1,5.65E2,3E0,1.1E1,3E0,4E0,7E0,1.6E1,1.2E1,4.21E2,1.44E2,2E0,1E0,1E1,1E0,1E0,2E0,3E0,1E0,4E0,3E0,3E0,1.3E1,1E0,1.1E1,1.14E2,3.07E2,1.3E1,1.31E2,1E0,9E0,1E0,2E0,1E0,3E0,2E0,1E0,6E0,7E0,9E0,1.05E2,2.79E2,2.8E1,1E1,3E0,1E0,1.3E2],"tree_param":{"num_deleted":"0","num_feature":"15","num_nodes":"57","size_leaf_vector":"1"}},{"base_weights":[-1.06600666E-4,1.3339493E-3,-2.8866027E-2,-1.6817526E-3,2.7480943E-2,-6.762587E-2,-6.7757904E-3,-1.9387636E-4,-4.4654075E-2,4.2251807E-2,-1.0972938E-2,5.6931656E-2,-3.510535E-2,3.5482208E-4,-2.8516226E-2,-8.124488E-2,2.00193E-2,5.133928E-2,-6.372959E-2,2.7253062E-2,-1.1581115E-1,1.1021687E-2,3.277099E-2,-1.2136056E-1,-1.27449855E-2,-1.1515121E-3,4.23451E-2,-2.0562304E-2,-1.5872793E-1,3.58297E-2,9.179085E-2,3.4081776E-2,-5.357456E-2,4.860044E-2,-9.310181E-3,-8.618541E-3,-3.9119914E-2,-4.4574827E-2,-5.9540994E-3,2.8662551E-2,-2.7690578E-2,1.3768019E-5,-3.6054842E-2,-5.7458533E-3,3.6483493E-2,-3.1365824E-3,-7.967062E-3,-5.1100296E-3,-5.5098046E-2,-5.517559E-3,1.2621909E-2,2.9274015E-2,5.0848247E-3,-3.4482123E-3,1.8785013E-2,4.3672295E-3,1.8958712E-2,4.6720267E-3,-7.693602E-3,1.0105621E-2,1.2856722E-3,-8.946962E-3,-3.192226E-3],"categories":[],"categories_nodes":[],"categories_segments":[],"categories_sizes":[],"default_left":[0,0,0,0,0,0,0,0,0,0,0,0,0,0,0,0,0,0,0,0,0,0,0,0,0,0,0,0,0,0,0,0,0,0,0,0,0,0,0,0,0,0,0,0,0,0,0,0,0,0,0,0,0,0,0,0,0,0,0,0,0,0,0],"id":12,"left_children":[1,3,5,7,9,-1,11,13,15,17,19,21,23,25,-1,27,-1,29,31,33,35,-1,-1,37,39,41,43,45,47,49,51,53,-1,55,57,-1,-1,-1,-1,59,61,-1,-1,-1,-1,-1,-1,-1,-1,-1,-1,-1,-1,-1,-1,-1,-1,-1,-1,-1,-1,-1,-1],"loss_changes":[2.6056161E-2,4.727829E-2,1.2873003E-1,3.438972E-2,3.5679452E-2,0E0,5.253312E-2,2.7151594E-2,7.87836E-2,4.6611458E-2,7.529202E-2,5.4923687E-3,3.7027225E-2,3.287623E-2,0E0,6.25624E-2,0E0,2.3061395E-2,5.1021814E-2,1.137989E-2,2.6058704E-3,0E0,0E0,8.104768E-3,1.1314305E-2,7.1554944E-2,9.007433E-2,2.6762625E-4,1.806818E-2,1.1606544E-2,3.1120703E-3,4.6212263E-3,0E0,3.5518333E-3,2.838251E-3,0E0,0E0,0E0,0E0,4.6784803E-4,1.5535112E-4,0E0,0E0,0E0,0E0,0E0,0E0,0E0,0E0,0E0,0E0,0E0,0E0,0E0,0E0,0E0,0E0,0E0,0E0,0E0,0E0,0E0,0E0],"parents":[2147483647,0,0,1,1,2,2,3,3,4,4,6,6,7,7,8,8,9,9,10,10,11,11,12,12,13,13,15,15,17,17,18,18,19,19,20,20,23,23,24,24,25,25,26,26,27,27,28,28,29,29,30,30,31,31,33,33,34,34,39,39,40,40],"right_children":[2,4,6,8,10,-1,12,14,16,18,20,22,24,26,-1,28,-1,30,32,34,36,-1,-1,38,40,42,44,46,48,50,52,54,-1,56,58,-1,-1,-1,-1,60,62,-1,-1,-1,-1,-1,-1,-1,-1,-1,-1,-1,-1,-1,-1,-1,-1,-1,-1,-1,-1,-1,-1],"split_conditions":[6E0,4E0,1.5E1,1E0,-8.7646925E-1,-6.762587E-2,1.1E1,1.8E1,1.2E1,1.3E1,1.6E1,-3.7106368E-1,1.4E1,1.1E1,-2.8516226E-2,4.25E0,2.00193E-2,5E0,1.1E1,4E0,4.5E0,1.1021687E-2,3.277099E-2,9.923077E0,2E0,4.3E1,3E0,3.6E0,2E0,-1.4077474E0,1E1,5E0,-5.357456E-2,2E0,2E1,-8.618541E-3,-3.9119914E-2,-4.4574827E-2,-5.9540994E-3,1.55E1,1.1333333E1,1.3768019E-5,-3.6054842E-2,-5.7458533E-3,3.6483493E-2,-3.1365824E-3,-7.967062E-3,-5.1100296E-3,-5.5098046E-2,-5.517559E-3,1.2621909E-2,2.9274015E-2,5.0848247E-3,-3.4482123E-3,1.8785013E-2,4.3672295E-3,1.8958712E-2,4.6720267E-3,-7.693602E-3,1.0105621E-2,1.2856722E-3,-8.946962E-3,-3.192226E-3],"split_indices":[7,0,13,4,11,0,5,9,13,9,13,11,9,9,0,1,0,2,1,5,1,0,0,1,4,3,0,1,5,11,9,0,0,9,12,0,0,0,0,1,1,0,0,0,0,0,0,0,0,0,0,0,0,0,0,0,0,0,0,0,0,0,0],"split_type":[0,0,0,0,0,0,0,0,0,0,0,0,0,0,0,0,0,0,0,0,0,0,0,0,0,0,0,0,0,0,0,0,0,0,0,0,0,0,0,0,0,0,0,0,0,0,0,0,0,0,0,0,0,0,0,0,0,0,0,0,0,0,0],"sum_hessian":[6.27E2,5.98E2,2.9E1,5.37E2,6.1E1,2E0,2.7E1,5.2E2,1.7E1,4.4E1,1.7E1,8E0,1.9E1,5.18E2,2E0,1.3E1,4E0,4.1E1,3E0,1.3E1,4E0,7E0,1E0,3E0,1.6E1,5.01E2,1.7E1,8E0,5E0,3.1E1,1E1,2E0,1E0,8E0,5E0,1E0,3E0,2E0,1E0,4E0,1.2E1,4.97E2,4E0,1E1,7E0,4E0,4E0,1E0,4E0,3E0,2.8E1,9E0,1E0,1E0,1E0,3E0,5E0,2E0,3E0,3E0,1E0,1E1,2E0],"tree_param":{"num_deleted":"0","num_feature":"15","num_nodes":"63","size_leaf_vector":"1"}},{"base_weights":[-3.682983E-4,-1.356879E-2,2.2473577E-3,-9.6666336E-2,4.3156536E-4,1.0287643E-1,9.427862E-4,-1.24606624E-1,-3.3988137E-2,5.7108747E-3,-9.045886E-2,-1.2948071E-3,6.775188E-2,-8.970996E-2,-5.2838657E-2,-5.284299E-3,-1.4105694E-2,2.3330061E-3,4.3924455E-2,-3.8934316E-2,-6.2951157E-3,-3.280322E-2,8.923199E-4,1.6583721E-1,-3.7861444E-2,-4.65125E-2,4.314651E-3,-3.6084335E-4,-2.0170915E-3,-1.4226096E-2,2.1317648E-2,-1.1346371E-1,1.2684467E-2,-2.0537728E-3,8.5720845E-2,1.1420098E-2,8.6126074E-2,1.7667528E-2,-1.5480857E-1,-8.908579E-4,-1.493175E-2,7.085714E-3,1.3019651E-3,-6.391786E-2,-3.5660302E-3,2.4463883E-2,-4.3957803E-2,1.0908498E-4,-2.5616612E-2,-5.5494115E-2,4.1281603E-2,-2.2918982E-2,1.5742028E-2,-2.1687489E-2,1.3412798E-2,-1.3651643E-2,-5.6012217E-2],"categories":[],"categories_nodes":[],"categories_segments":[],"categories_sizes":[],"default_left":[0,0,0,0,0,0,0,0,0,0,0,0,0,0,0,0,0,0,0,0,0,0,0,0,0,0,0,0,0,0,0,0,0,0,0,0,0,0,0,0,0,0,0,0,0,0,0,0,0,0,0,0,0,0,0,0,0],"id":13,"left_children":[1,3,5,7,9,-1,11,13,15,17,19,21,23,25,-1,27,-1,29,-1,-1,-1,31,33,35,37,-1,-1,-1,-1,39,41,43,45,47,49,51,-1,53,55,-1,-1,-1,-1,-1,-1,-1,-1,-1,-1,-1,-1,-1,-1,-1,-1,-1,-1],"loss_changes":[2.1714045E-2,1.2103482E-1,2.330044E-1,2.2033542E-2,4.370208E-2,0E0,7.842131E-2,2.1790266E-3,1.9957493E-3,4.053245E-2,1.093629E-2,3.503702E-2,1.8238387E-1,5.6633964E-2,0E0,9.536663E-6,0E0,2.70246E-2,0E0,0E0,0E0,1.2251818E-1,1.1913449E-1,1.6522866E-1,6.1180674E-2,0E0,0E0,0E0,0E0,1.8258207E-2,1.4603995E-3,1.18867084E-1,2.5314608E-1,9.290087E-2,2.5017738E-1,2.203463E-2,0E0,2.026071E-2,1.9637048E-3,0E0,0E0,0E0,0E0,0E0,0E0,0E0,0E0,0E0,0E0,0E0,0E0,0E0,0E0,0E0,0E0,0E0,0E0],"parents":[2147483647,0,0,1,1,2,2,3,3,4,4,6,6,7,7,8,8,9,9,10,10,11,11,12,12,13,13,15,15,17,17,21,21,22,22,23,23,24,24,29,29,30,30,31,31,32,32,33,33,34,34,35,35,37,37,38,38],"right_children":[2,4,6,8,10,-1,12,14,16,18,20,22,24,26,-1,28,-1,30,-1,-1,-1,32,34,36,38,-1,-1,-1,-1,40,42,44,46,48,50,52,-1,54,56,-1,-1,-1,-1,-1,-1,-1,-1,-1,-1,-1,-1,-1,-1,-1,-1,-1,-1],"split_conditions":[6E0,-1.2455667E0,8E0,2E0,7.2E0,1.0287643E-1,-1.6952479E0,6.25E0,2E0,6.25E0,8.333333E0,8E0,3E0,5.2E0,-5.2838657E-2,1E0,-1.4105694E-2,5E0,4.3924455E-2,-3.8934316E-2,-6.2951157E-3,4.4E0,-1.8153694E0,2E0,5.2E0,-4.65125E-2,4.314651E-3,-3.6084335E-4,-2.0170915E-3,3.125E0,2E0,1E0,6.6E0,-1.892962E0,1.1E1,3E0,8.6126074E-2,4E0,3E0,-8.908579E-4,-1.493175E-2,7.085714E-3,1.3019651E-3,-6.391786E-2,-3.5660302E-3,2.4463883E-2,-4.3957803E-2,1.0908498E-4,-2.5616612E-2,-5.5494115E-2,4.1281603E-2,-2.2918982E-2,1.5742028E-2,-2.1687489E-2,1.3412798E-2,-1.3651643E-2,-5.6012217E-2],"split_indices":[12,14,3,0,1,0,14,1,1,1,1,13,10,1,0,4,0,3,0,0,0,1,14,10,1,0,0,0,0,1,0,5,1,14,12,0,0,9,0,0,0,0,0,0,0,0,0,0,0,0,0,0,0,0,0,0,0],"split_type":[0,0,0,0,0,0,0,0,0,0,0,0,0,0,0,0,0,0,0,0,0,0,0,0,0,0,0,0,0,0,0,0,0,0,0,0,0,0,0,0,0,0,0,0,0,0,0,0,0,0,0,0,0,0,0,0,0],"sum_hessian":[6.27E2,1.03E2,5.24E2,1.4E1,8.9E1,1E0,5.23E2,9E0,5E0,8.5E1,4E0,5.07E2,1.6E1,7E0,2E0,2E0,3E0,8.4E1,1E0,2E0,2E0,3.2E1,4.75E2,8E0,8E0,4E0,3E0,1E0,1E0,4.5E1,3.9E1,1.1E1,2.1E1,4.6E2,1.5E1,4E0,4E0,6E0,2E0,3.5E1,1E1,3.4E1,5E0,5E0,6E0,1.5E1,6E0,4.48E2,1.2E1,2E0,1.3E1,1E0,3E0,1E0,5E0,1E0,1E0],"tree_param":{"num_deleted":"0","num_feature":"15","num_nodes":"57","size_leaf_vector":"1"}},{"base_weights":[-4.8562727E-4,6.3353236E-4,-2.2815326E-2,-2.1443085E-3,2.0370163E-2,-5.412251E-2,-5.1155253E-3,-7.0497365E-4,-1.0875999E-1,6.185265E-2,-9.319092E-3,4.4621065E-2,-2.7241213E-2,-2.2751123E-3,4.8896592E-2,-6.0802363E-2,2.520528E-2,2.1183616E-2,1.2447999E-1,3.2360606E-2,-3.42918E-2,2.6999548E-2,2.7838979E-2,-9.766644E-2,-9.068148E-3,3.8240116E-5,-4.8640147E-2,-6.844273E-3,8.302554E-2,4.6902098E-2,-9.341584E-2,7.47088E-2,3.107667E-2,8.4663175E-2,-1.2717508E-2,-1.073291E-3,-1.17203906E-1,1.1892176E-2,4.853732E-3,-3.568168E-2,-5.077347E-3,2.225479E-2,-2.0417882E-2,-7.2280737E-4,1.8979719E-2,6.1035547E-3,-2.7416307E-2,-7.0837378E-3,1.4064726E-2,-7.0539773E-3,2.9242732E-2,3.047846E-2,-4.6269762E-4,-1.16328215E-2,-3.8600273E-2,-1.133406E-2,1.3893162E-2,3.3177696E-2,9.3257865E-3,6.705599E-3,-9.282132E-3,2.7603123E-3,-1.973589E-2,-9.576559E-3,-4.859663E-2,7.8073163E-3,1.0764599E-3,-6.5366314E-3,-2.5755977E-3],"categories":[],"categories_nodes":[],"categories_segments":[],"categories_sizes":[],"default_left":[0,0,0,0,0,0,0,0,0,0,0,0,0,0,0,0,0,0,0,0,0,0,0,0,0,0,0,0,0,0,0,0,0,0,0,0,0,0,0,0,0,0,0,0,0,0,0,0,0,0,0,0,0,0,0,0,0,0,0,0,0,0,0,0,0,0,0,0,0],"id":14,"left_children":[1,3,5,7,9,-1,11,13,15,17,19,21,23,25,27,-1,-1,29,31,33,35,37,-1,39,41,43,45,47,49,51,53,-1,55,57,59,61,63,-1,-1,-1,-1,65,67,-1,-1,-1,-1,-1,-1,-1,-1,-1,-1,-1,-1,-1,-1,-1,-1,-1,-1,-1,-1,-1,-1,-1,-1,-1,-1],"loss_changes":[1.5708486E-2,3.2883987E-2,8.2758084E-2,8.0641E-2,9.171364E-2,0E0,3.202831E-2,4.0609542E-2,1.4376058E-1,7.631985E-2,4.690732E-2,5.1348656E-3,2.4711197E-2,5.4167483E-2,3.100628E-2,0E0,0E0,6.332788E-2,1.3186084E-1,4.1157626E-2,7.699227E-2,4.5290403E-4,0E0,4.8573427E-3,6.4980146E-3,7.4744575E-2,7.2634175E-2,7.4133035E-3,1.7687075E-2,4.5199208E-2,2.715364E-3,0E0,1.0141272E-2,7.675819E-3,7.082271E-3,1.4567841E-2,2.538377E-2,0E0,0E0,0E0,0E0,2.584469E-4,2.3811124E-5,0E0,0E0,0E0,0E0,0E0,0E0,0E0,0E0,0E0,0E0,0E0,0E0,0E0,0E0,0E0,0E0,0E0,0E0,0E0,0E0,0E0,0E0,0E0,0E0,0E0,0E0],"parents":[2147483647,0,0,1,1,2,2,3,3,4,4,6,6,7,7,8,8,9,9,10,10,11,11,12,12,13,13,14,14,17,17,18,18,19,19,20,20,21,21,23,23,24,24,25,25,26,26,27,27,28,28,29,29,30,30,32,32,33,33,34,34,35,35,36,36,41,41,42,42],"right_children":[2,4,6,8,10,-1,12,14,16,18,20,22,24,26,28,-1,-1,30,32,34,36,38,-1,40,42,44,46,48,50,52,54,-1,56,58,60,62,64,-1,-1,-1,-1,66,68,-1,-1,-1,-1,-1,-1,-1,-1,-1,-1,-1,-1,-1,-1,-1,-1,-1,-1,-1,-1,-1,-1,-1,-1,-1,-1],"split_conditions":[6E0,2.8E1,1.5E1,3.5E1,1E1,-5.412251E-2,1.1E1,9E0,1E1,-2.4488962E0,-1.3235136E0,-3.7106368E-1,1.4E1,8E0,3E0,-6.0802363E-2,2.520528E-2,1.75E1,4E0,-2.412956E0,1.2333333E1,7E0,2.7838979E-2,9.923077E0,2E0,1.1666667E1,1.0125E1,1.5E1,-1.4077474E0,-1.184437E0,3E0,7.47088E-2,5.5E0,1.8666666E1,1.0125E1,5E1,3E0,1.1892176E-2,4.853732E-3,-3.568168E-2,-5.077347E-3,1.55E1,1.1333333E1,-7.2280737E-4,1.8979719E-2,6.1035547E-3,-2.7416307E-2,-7.0837378E-3,1.4064726E-2,-7.0539773E-3,2.9242732E-2,3.047846E-2,-4.6269762E-4,-1.16328215E-2,-3.8600273E-2,-1.133406E-2,1.3893162E-2,3.3177696E-2,9.3257865E-3,6.705599E-3,-9.282132E-3,2.7603123E-3,-1.973589E-2,-9.576559E-3,-4.859663E-2,7.8073163E-3,1.0764599E-3,-6.5366314E-3,-2.5755977E-3],"split_indices":[7,12,13,3,9,0,5,9,9,14,11,11,9,9,0,0,0,1,0,14,1,2,0,1,4,1,1,1,11,11,0,0,1,1,1,3,0,0,0,0,0,1,1,0,0,0,0,0,0,0,0,0,0,0,0,0,0,0,0,0,0,0,0,0,0,0,0,0,0],"split_type":[0,0,0,0,0,0,0,0,0,0,0,0,0,0,0,0,0,0,0,0,0,0,0,0,0,0,0,0,0,0,0,0,0,0,0,0,0,0,0,0,0,0,0,0,0,0,0,0,0,0,0,0,0,0,0,0,0,0,0,0,0,0,0,0,0,0,0,0,0],"sum_hessian":[6.27E2,5.98E2,2.9E1,5.25E2,7.3E1,2E0,2.7E1,5.19E2,6E0,3E1,4.3E1,8E0,1.9E1,5.04E2,1.5E1,4E0,2E0,1.9E1,1.1E1,1.6E1,2.7E1,7E0,1E0,3E0,1.6E1,4.81E2,2.3E1,6E0,9E0,1.6E1,3E0,4E0,7E0,7E0,9E0,2E1,7E0,2E0,5E0,2E0,1E0,4E0,1.2E1,4.64E2,1.7E1,9E0,1.4E1,5E0,1E0,1E0,8E0,7E0,9E0,2E0,1E0,1E0,6E0,4E0,3E0,3E0,6E0,1.8E1,2E0,3E0,4E0,3E0,1E0,1E1,2E0],"tree_param":{"num_deleted":"0","num_feature":"15","num_nodes":"69","size_leaf_vector":"1"}},{"base_weights":[-4.0072983E-4,-5.73651E-3,3.853794E-3,-2.8573023E-4,-5.87658E-2,-6.1876385E-4,3.1340707E-2,5.2561764E-2,-2.373782E-3,-1.4340596E-2,-1.0940015E-1,3.2054592E-2,-4.7461814E-3,8.3519354E-2,-1.6507475E-3,6.44831E-2,-4.0959376E-3,-2.1031568E-2,1.1899952E-2,-4.4492252E-2,-2.5268346E-2,1.3890655E-1,-7.924537E-4,-2.0408656E-2,1.0269708E-2,7.8475015E-4,1.0491924E-1,-1.2612773E-1,2.1461684E-2,-5.238847E-2,-2.7152956E-3,-1.04963E-2,-6.8851844E-3,-1.1332834E-2,-1.3013397E-3,7.028797E-2,9.180943E-2,-3.344563E-2,1.2522402E-2,-4.0136576E-3,-8.1161015E-2,-5.891202E-2,1.3211434E-2,9.418268E-3,1.5044767E-1,-8.895457E-3,-7.680489E-2,3.9187234E-2,-1.0434276E-2,1.241725E-3,-7.4925153E-3,-1.470554E-3,-4.091949E-3,5.0508574E-2,1.5297109E-2,-7.4449186E-3,7.6859184E-3,9.223505E-3,-1.0851435E-2,-4.485111E-2,1.1415218E-2,4.300734E-2,2.465814E-3,4.865179E-2,8.497203E-3,2.7852623E-2,7.526061E-3],"categories":[],"categories_nodes":[],"categories_segments":[],"categories_sizes":[],"default_left":[0,0,0,0,0,0,0,0,0,0,0,0,0,0,0,0,0,0,0,0,0,0,0,0,0,0,0,0,0,0,0,0,0,0,0,0,0,0,0,0,0,0,0,0,0,0,0,0,0,0,0,0,0,0,0,0,0,0,0,0,0,0,0,0,0,0,0],"id":15,"left_children":[1,3,5,7,9,11,13,-1,15,17,19,21,23,25,27,-1,29,31,-1,-1,33,35,37,39,41,-1,43,45,47,-1,49,51,-1,-1,-1,-1,53,-1,55,57,59,-1,61,-1,63,-1,-1,65,-1,-1,-1,-1,-1,-1,-1,-1,-1,-1,-1,-1,-1,-1,-1,-1,-1,-1,-1],"loss_changes":[1.4278462E-2,8.062843E-2,4.304727E-2,9.3490526E-2,5.691661E-2,4.087883E-2,8.44889E-2,0E0,9.519252E-2,6.2546483E-3,3.5532653E-2,1.19442314E-1,6.347462E-2,3.2620728E-2,9.189285E-2,0E0,5.862229E-2,4.215073E-5,0E0,0E0,1.1451067E-3,1.4429167E-2,4.1190315E-2,1.3115084E-1,8.648283E-2,0E0,4.5488983E-2,5.5064507E-2,2.8280104E-2,0E0,3.8247574E-2,3.48498E-6,0E0,0E0,0E0,0E0,1.3288766E-2,0E0,1.2861748E-2,1.1847712E-1,2.338117E-1,0E0,8.783029E-2,0E0,8.293673E-3,0E0,0E0,1.3558492E-2,0E0,0E0,0E0,0E0,0E0,0E0,0E0,0E0,0E0,0E0,0E0,0E0,0E0,0E0,0E0,0E0,0E0,0E0,0E0],"parents":[2147483647,0,0,1,1,2,2,3,3,4,4,5,5,6,6,8,8,9,9,10,10,11,11,12,12,13,13,14,14,16,16,17,17,20,20,21,21,22,22,23,23,24,24,26,26,27,27,28,28,30,30,31,31,36,36,38,38,39,39,40,40,42,42,44,44,47,47],"right_children":[2,4,6,8,10,12,14,-1,16,18,20,22,24,26,28,-1,30,32,-1,-1,34,36,38,40,42,-1,44,46,48,-1,50,52,-1,-1,-1,-1,54,-1,56,58,60,-1,62,-1,64,-1,-1,66,-1,-1,-1,-1,-1,-1,-1,-1,-1,-1,-1,-1,-1,-1,-1,-1,-1,-1,-1],"split_conditions":[-2.101729E0,-2.1254854E0,4E0,1.2E1,3E0,-2.0414932E0,1.6E1,5.2561764E-2,1E0,4E0,7.2E0,-9.346684E-1,-8.848459E-1,2E0,2.3E1,6.44831E-2,-1.5296495E0,2E0,1.1899952E-2,-4.4492252E-2,8.333333E0,4E0,1.6E1,3E0,2E0,7.8475015E-4,-2.018359E0,1E0,1.3E1,-5.238847E-2,-7.985077E-1,5.2E0,-6.8851844E-3,-1.1332834E-2,-1.3013397E-3,7.028797E-2,5.2E0,-3.344563E-2,2E1,-1.8136295E0,-1.8456098E0,-5.891202E-2,4E0,9.418268E-3,2.1E1,-8.895457E-3,-7.680489E-2,2.5E1,-1.0434276E-2,1.241725E-3,-7.4925153E-3,-1.470554E-3,-4.091949E-3,5.0508574E-2,1.5297109E-2,-7.4449186E-3,7.6859184E-3,9.223505E-3,-1.0851435E-2,-4.485111E-2,1.1415218E-2,4.300734E-2,2.465814E-3,4.865179E-2,8.497203E-3,2.7852623E-2,7.526061E-3],"split_indices":[14,14,10,3,10,14,12,0,5,0,1,11,11,0,3,0,11,5,0,0,1,9,3,0,13,0,14,5,13,0,11,1,0,0,0,0,1,0,3,14,14,0,3,0,3,0,0,3,0,0,0,0,0,0,0,0,0,0,0,0,0,0,0,0,0,0,0],"split_type":[0,0,0,0,0,0,0,0,0,0,0,0,0,0,0,0,0,0,0,0,0,0,0,0,0,0,0,0,0,0,0,0,0,0,0,0,0,0,0,0,0,0,0,0,0,0,0,0,0,0,0,0,0,0,0,0,0,0,0,0,0,0,0,0,0,0,0],"sum_hessian":[6.27E2,2.78E2,3.49E2,2.53E2,2.5E1,3.01E2,4.8E1,2E0,2.51E2,1.4E1,1.1E1,3.3E1,2.68E2,1.8E1,3E1,1E0,2.5E2,1.3E1,1E0,7E0,4E0,7E0,2.6E1,1.31E2,1.37E2,4E0,1.4E1,4E0,2.6E1,1E0,2.49E2,3E0,1E1,2E0,2E0,1E0,6E0,2E0,2.4E1,1.04E2,2.7E1,1E0,1.36E2,6E0,8E0,3E0,1E0,2E1,6E0,1.91E2,5.8E1,2E0,1E0,1E0,5E0,6E0,1.8E1,5E1,5.4E1,1.7E1,1E1,4E0,1.32E2,7E0,1E0,3E0,1.7E1],"tree_param":{"num_deleted":"0","num_feature":"15","num_nodes":"67","size_leaf_vector":"1"}},{"base_weights":[-1.8223788E-4,2.8035834E-3,-8.242884E-3,-8.9492474E-4,9.346675E-2,-1.4106611E-2,6.365802E-2,1.497552E-1,-3.3115668E-3,7.103567E-2,3.560527E-2,2.8212778E-3,-5.0727274E-2,7.558138E-2,-1.1913334E-2,2.0387935E-2,9.607916E-2,-9.6372365E-5,-5.850172E-2,5.0258406E-2,1.8333115E-2,-2.2108812E-2,8.794976E-3,-7.4654266E-2,-7.7593247E-3,8.9698315E-2,9.993375E-4,1.388701E-1,-2.1397609E-3,5.2616913E-2,-9.846443E-2,1.7500803E-2,7.045141E-2,8.307454E-3,-1.9484163E-3,4.5579378E-2,-1.890476E-3,-8.316552E-2,-1.2060428E-2,2.8979482E-2,-6.189762E-2,1.2307549E-2,1.046975E-1,6.8093985E-2,2.2755647E-2,-1.814979E-2,3.5500937E-4,-4.019106E-2,4.621374E-2,-7.4561305E-2,-1.9251503E-2,1.1518389E-3,6.232429E-3,2.2021115E-3,2.671249E-2,3.143438E-2,-2.4061878E-3,-1.796544E-2,2.7673424E-3,-1.3298751E-2,-3.0683562E-2,-5.6450665E-3,2.2448124E-3,1.7850367E-2,-2.4725841E-2,-4.2233046E-2,-3.642527E-3,1.2515522E-2,3.6463637E-2],"categories":[],"categories_nodes":[],"categories_segments":[],"categories_sizes":[],"default_left":[0,0,0,0,0,0,0,0,0,0,0,0,0,0,0,0,0,0,0,0,0,0,0,0,0,0,0,0,0,0,0,0,0,0,0,0,0,0,0,0,0,0,0,0,0,0,0,0,0,0,0,0,0,0,0,0,0,0,0,0,0,0,0,0,0,0,0,0,0],"id":16,"left_children":[1,3,5,7,9,11,13,15,17,-1,19,21,23,25,-1,-1,-1,27,29,31,33,-1,35,37,39,41,-1,43,45,47,49,51,53,-1,-1,55,57,59,61,63,65,-1,67,-1,-1,-1,-1,-1,-1,-1,-1,-1,-1,-1,-1,-1,-1,-1,-1,-1,-1,-1,-1,-1,-1,-1,-1,-1,-1],"loss_changes":[1.5137593E-2,1.5399481E-1,7.257124E-2,1.6141373E-1,1.408367E-1,9.808897E-2,1.9024007E-2,7.586272E-2,7.736129E-2,0E0,2.6218835E-3,5.0471116E-2,5.0825417E-2,1.1940636E-2,0E0,0E0,0E0,1.1757367E-1,1.1175533E-1,3.3973642E-3,2.038639E-3,0E0,4.0178083E-2,1.6045034E-2,3.9584313E-2,3.0053407E-3,0E0,1.609809E-2,7.9197496E-2,1.531148E-1,7.668659E-2,9.91429E-5,4.0393937E-3,0E0,0E0,7.382449E-2,5.2120727E-2,1.6249925E-2,8.0101343E-4,4.570513E-2,2.9688336E-2,0E0,2.356805E-3,0E0,0E0,0E0,0E0,0E0,0E0,0E0,0E0,0E0,0E0,0E0,0E0,0E0,0E0,0E0,0E0,0E0,0E0,0E0,0E0,0E0,0E0,0E0,0E0,0E0,0E0],"parents":[2147483647,0,0,1,1,2,2,3,3,4,4,5,5,6,6,7,7,8,8,10,10,11,11,12,12,13,13,17,17,18,18,19,19,20,20,22,22,23,23,24,24,25,25,27,27,28,28,29,29,30,30,31,31,32,32,35,35,36,36,37,37,38,38,39,39,40,40,42,42],"right_children":[2,4,6,8,10,12,14,16,18,-1,20,22,24,26,-1,-1,-1,28,30,32,34,-1,36,38,40,42,-1,44,46,48,50,52,54,-1,-1,56,58,60,62,64,66,-1,68,-1,-1,-1,-1,-1,-1,-1,-1,-1,-1,-1,-1,-1,-1,-1,-1,-1,-1,-1,-1,-1,-1,-1,-1,-1,-1],"split_conditions":[2.3E1,2.1E1,-6.348783E-1,-2.4743378E0,2.8E1,-1.1316521E0,3.7E1,9.666667E0,1.4E1,7.103567E-2,5E0,2.9E1,2.8E1,9E0,-1.1913334E-2,2.0387935E-2,9.607916E-2,-2.3837297E0,7.5E0,4E0,1.1E1,-2.2108812E-2,8E0,-2.3306143E0,4E0,-2.4488962E0,9.993375E-4,2E0,-2.2148163E0,2.2E1,7.8E0,-2.5151024E0,4E0,8.307454E-3,-1.9484163E-3,5E0,6E0,-2.4782622E0,5E0,-6.7334455E-1,4.2E1,1.2307549E-2,3E0,6.8093985E-2,2.2755647E-2,-1.814979E-2,3.5500937E-4,-4.019106E-2,4.621374E-2,-7.4561305E-2,-1.9251503E-2,1.1518389E-3,6.232429E-3,2.2021115E-3,2.671249E-2,3.143438E-2,-2.4061878E-3,-1.796544E-2,2.7673424E-3,-1.3298751E-2,-3.0683562E-2,-5.6450665E-3,2.2448124E-3,1.7850367E-2,-2.4725841E-2,-4.2233046E-2,-3.642527E-3,1.2515522E-2,3.6463637E-2],"split_indices":[12,12,11,14,3,11,3,1,13,0,5,3,12,0,0,0,0,14,1,0,13,0,9,14,10,14,0,0,14,3,1,14,10,0,0,5,5,14,0,11,3,0,0,0,0,0,0,0,0,0,0,0,0,0,0,0,0,0,0,0,0,0,0,0,0,0,0,0,0],"split_type":[0,0,0,0,0,0,0,0,0,0,0,0,0,0,0,0,0,0,0,0,0,0,0,0,0,0,0,0,0,0,0,0,0,0,0,0,0,0,0,0,0,0,0,0,0,0,0,0,0,0,0,0,0,0,0,0,0,0,0,0,0,0,0,0,0,0,0,0,0],"sum_hessian":[6.27E2,4.58E2,1.69E2,4.41E2,1.7E1,1.57E2,1.2E1,6E0,4.35E2,4E0,1.3E1,1.08E2,4.9E1,1.1E1,1E0,5E0,1E0,4.12E2,2.3E1,6E0,7E0,7E0,1.01E2,3.1E1,1.8E1,9E0,2E0,5E0,4.07E2,6E0,1.7E1,3E0,3E0,5E0,2E0,2.2E1,7.9E1,2.7E1,4E0,1.1E1,7E0,3E0,6E0,1E0,4E0,2.1E1,3.86E2,2E0,4E0,2E0,1.5E1,1E0,2E0,1E0,2E0,1E1,1.2E1,1.2E1,6.7E1,1E1,1.7E1,3E0,1E0,9E0,2E0,2E0,5E0,2E0,4E0],"tree_param":{"num_deleted":"0","num_feature":"15","num_nodes":"69","size_leaf_vector":"1"}},{"base_weights":[1.2305196E-4,1.4950709E-3,-1.5428909E-2,-4.4051418E-4,2.194366E-2,-8.229726E-2,-2.92037E-3,1.8282467E-3,-3.156072E-2,5.883203E-2,-4.609655E-3,-1.0001183E-3,-1.0806282E-1,1.0119774E-1,-1.5862126E-2,3.200883E-4,3.578248E-2,-4.721568E-2,5.458337E-2,3.6736783E-2,5.3747375E-2,-7.303645E-2,8.726639E-3,-1.8387757E-2,-4.4491023E-2,3.411043E-2,7.677448E-3,-4.870385E-2,-4.756339E-3,1.1863203E-3,-1.0175875E-1,1.8125705E-2,3.1887703E-2,-3.020482E-3,-1.27296E-1,2.4062023E-2,2.3125213E-2,7.49062E-2,2.1675574E-3,-3.3485487E-2,1.2193636E-2,1.6939975E-2,4.462088E-5,-1.0126333E-2,1.8518419E-3,-8.889624E-2,3.3808794E-2,1.2493916E-2,-2.398954E-2,1.5426078E-4,3.1759586E-2,-4.2255282E-2,-1.2533314E-2,5.9512276E-3,-1.6460303E-3,7.677213E-3,-1.5813751E-2,7.005757E-4,-5.285989E-2,1.22743705E-2,1.441896E-3,3.5078473E-2,5.3708768E-3,-4.598718E-3,1.0985672E-2,6.830216E-3,-9.610839E-4,-6.6935006E-3,-5.1071536E-2,-3.5914078E-3,1.5917791E-2,-1.7414834E-2,6.15929E-3,-1.1681933E-2,-5.608241E-3],"categories":[],"categories_nodes":[],"categories_segments":[],"categories_sizes":[],"default_left":[0,0,0,0,0,0,0,0,0,0,0,0,0,0,0,0,0,0,0,0,0,0,0,0,0,0,0,0,0,0,0,0,0,0,0,0,0,0,0,0,0,0,0,0,0,0,0,0,0,0,0,0,0,0,0,0,0,0,0,0,0,0,0,0,0,0,0,0,0,0,0,0,0,0,0],"id":17,"left_children":[1,3,5,7,9,11,13,15,17,19,21,-1,23,25,27,29,31,33,35,37,-1,39,41,43,-1,-1,-1,45,47,49,51,53,-1,55,57,59,-1,61,63,-1,-1,-1,65,-1,-1,67,69,71,73,-1,-1,-1,-1,-1,-1,-1,-1,-1,-1,-1,-1,-1,-1,-1,-1,-1,-1,-1,-1,-1,-1,-1,-1,-1,-1],"loss_changes":[1.3423071E-2,2.2886895E-2,4.2417355E-2,3.7407376E-2,4.9246624E-2,1.591606E-2,6.0893938E-2,2.5285477E-2,5.1126163E-2,4.9249537E-2,2.8014157E-2,0E0,1.8924497E-2,1.8169992E-3,1.4357675E-2,4.2033672E-2,2.4217887E-2,1.0932963E-1,2.2657067E-3,2.490789E-2,0E0,2.6467059E-2,1.0773934E-2,1.3406029E-3,0E0,0E0,0E0,3.616928E-2,1.0584829E-2,3.3083517E-2,3.4947284E-3,8.3636586E-4,0E0,3.1205656E-2,7.0145294E-2,1.1013816E-3,0E0,1.946519E-2,7.1919356E-3,0E0,0E0,0E0,1.7705415E-3,0E0,0E0,3.411465E-2,4.1603553E-3,1.0830142E-2,4.595667E-4,0E0,0E0,0E0,0E0,0E0,0E0,0E0,0E0,0E0,0E0,0E0,0E0,0E0,0E0,0E0,0E0,0E0,0E0,0E0,0E0,0E0,0E0,0E0,0E0,0E0,0E0],"parents":[2147483647,0,0,1,1,2,2,3,3,4,4,5,5,6,6,7,7,8,8,9,9,10,10,12,12,13,13,14,14,15,15,16,16,17,17,18,18,19,19,21,21,22,22,23,23,27,27,28,28,29,29,30,30,31,31,33,33,34,34,35,35,37,37,38,38,42,42,45,45,46,46,47,47,48,48],"right_children":[2,4,6,8,10,12,14,16,18,20,22,-1,24,26,28,30,32,34,36,38,-1,40,42,44,-1,-1,-1,46,48,50,52,54,-1,56,58,60,-1,62,64,-1,-1,-1,66,-1,-1,68,70,72,74,-1,-1,-1,-1,-1,-1,-1,-1,-1,-1,-1,-1,-1,-1,-1,-1,-1,-1,-1,-1,-1,-1,-1,-1,-1,-1],"split_conditions":[3.5E1,2.8E1,4.6E1,1.6E1,9E0,7E0,4.9E1,6E0,-2.3655224E0,8E0,-2.5226343E0,-1.0001183E-3,4E0,-1.184437E0,5.6E1,3.4E1,9.75E0,-2.4675512E0,3.2E1,6E0,5.3747375E-2,1.4333333E1,5E0,4E0,-4.4491023E-2,3.411043E-2,7.677448E-3,-1.1534206E0,9E0,2.6E1,1.075E1,-6.7334455E-1,3.1887703E-2,5E0,4E0,2E0,2.3125213E-2,4E0,1E0,-3.3485487E-2,1.2193636E-2,1.6939975E-2,-2.4460056E0,-1.0126333E-2,1.8518419E-3,3E0,3E0,6E0,3E0,1.5426078E-4,3.1759586E-2,-4.2255282E-2,-1.2533314E-2,5.9512276E-3,-1.6460303E-3,7.677213E-3,-1.5813751E-2,7.005757E-4,-5.285989E-2,1.22743705E-2,1.441896E-3,3.5078473E-2,5.3708768E-3,-4.598718E-3,1.0985672E-2,6.830216E-3,-9.610839E-4,-6.6935006E-3,-5.1071536E-2,-3.5914078E-3,1.5917791E-2,-1.7414834E-2,6.15929E-3,-1.1681933E-2,-5.608241E-3],"split_indices":[12,12,3,13,9,5,3,5,14,9,14,0,10,11,3,3,1,14,3,5,0,1,5,0,0,0,0,11,7,12,1,11,0,5,9,0,0,0,4,0,0,0,14,0,0,0,0,5,4,0,0,0,0,0,0,0,0,0,0,0,0,0,0,0,0,0,0,0,0,0,0,0,0,0,0],"split_type":[0,0,0,0,0,0,0,0,0,0,0,0,0,0,0,0,0,0,0,0,0,0,0,0,0,0,0,0,0,0,0,0,0,0,0,0,0,0,0,0,0,0,0,0,0,0,0,0,0,0,0,0,0,0,0,0,0,0,0,0,0,0,0,0,0,0,0,0,0,0,0,0,0,0,0],"sum_hessian":[6.27E2,5.77E2,5E1,5.28E2,4.9E1,7E0,4.3E1,4.93E2,3.5E1,2E1,2.9E1,2E0,5E0,4E0,3.9E1,4.73E2,2E1,3E1,5E0,1.8E1,2E0,4E0,2.5E1,2E0,3E0,3E0,1E0,9E0,3E1,4.7E2,3E0,1.7E1,3E0,2E1,1E1,3E0,2E0,8E0,1E1,3E0,1E0,3E0,2.2E1,1E0,1E0,6E0,3E0,1.6E1,1.4E1,4.68E2,2E0,1E0,2E0,1.6E1,1E0,1.3E1,7E0,3E0,7E0,1E0,2E0,4E0,4E0,7E0,3E0,2E0,2E1,4E0,2E0,1E0,2E0,1E0,1.5E1,2E0,1.2E1],"tree_param":{"num_deleted":"0","num_feature":"15","num_nodes":"75","size_leaf_vector":"1"}},{"base_weights":[9.569664E-5,2.0016986E-3,-8.9980345E-3,8.710714E-2,8.866456E-4,-7.413533E-2,3.0055363E-3,-8.5973274E-4,7.474277E-2,-3.6034472E-2,-1.889545E-1,7.008145E-3,-6.884201E-2,-1.3401273E-2,3.715359E-3,-9.159967E-3,1.17839135E-1,-7.679884E-2,3.1117823E-2,-6.416069E-2,-1.713168E-2,4.284908E-3,3.6997955E-2,-3.159791E-2,-2.823098E-3,-4.809196E-3,-1.7105395E-1,1.3521692E-1,1.1970311E-3,-1.7812515E-2,1.323253E-2,-4.214656E-2,1.7819212E-1,-3.5890047E-2,-1.8604426E-2,-2.6021295E-3,2.9957639E-2,-6.0114423E-3,1.5199959E-2,2.3274448E-2,-3.6964798E-3,-1.1617635E-2,-7.818569E-2,4.7418525E-4,9.386154E-2,-4.925092E-2,7.658792E-4,-1.9818975E-2,8.5302297E-4,6.6165276E-2,1.8694913E-2,8.654983E-4,-1.0167711E-2,2.8370933E-3,-7.625784E-3,1.2014711E-3,-1.1473715E-2,4.8610717E-3,-1.0748148E-3],"categories":[],"categories_nodes":[],"categories_segments":[],"categories_sizes":[],"default_left":[0,0,0,0,0,0,0,0,0,0,0,0,0,0,0,0,0,0,0,0,0,0,0,0,0,0,0,0,0,0,0,0,0,0,0,0,0,0,0,0,0,0,0,0,0,0,0,0,0,0,0,0,0,0,0,0,0,0,0],"id":18,"left_children":[1,3,5,-1,7,9,11,13,15,17,19,21,23,25,27,29,31,33,35,-1,-1,37,-1,-1,-1,39,41,43,45,-1,-1,47,49,-1,51,53,-1,55,57,-1,-1,-1,-1,-1,-1,-1,-1,-1,-1,-1,-1,-1,-1,-1,-1,-1,-1,-1,-1],"loss_changes":[1.0902928E-2,1.6693898E-1,8.544775E-2,0E0,6.700526E-2,6.756119E-2,2.7227174E-2,2.919817E-2,4.4470243E-2,4.0713705E-2,9.266436E-4,2.766342E-2,9.850474E-3,1.8339805E-1,1.23362325E-1,1.5993323E-2,8.475511E-2,2.0208918E-2,1.4167499E-2,0E0,0E0,9.981271E-3,0E0,0E0,0E0,8.1419684E-2,7.287143E-2,1.6569345E-1,8.2708105E-2,0E0,0E0,3.4158775E-3,1.5706196E-2,0E0,1.7404245E-3,1.6161615E-3,0E0,1.5005172E-2,8.686241E-4,0E0,0E0,0E0,0E0,0E0,0E0,0E0,0E0,0E0,0E0,0E0,0E0,0E0,0E0,0E0,0E0,0E0,0E0,0E0,0E0],"parents":[2147483647,0,0,1,1,2,2,4,4,5,5,6,6,7,7,8,8,9,9,10,10,11,11,12,12,13,13,14,14,15,15,16,16,17,17,18,18,21,21,25,25,26,26,27,27,28,28,31,31,32,32,34,34,35,35,37,37,38,38],"right_children":[2,4,6,-1,8,10,12,14,16,18,20,22,24,26,28,30,32,34,36,-1,-1,38,-1,-1,-1,40,42,44,46,-1,-1,48,50,-1,52,54,-1,56,58,-1,-1,-1,-1,-1,-1,-1,-1,-1,-1,-1,-1,-1,-1,-1,-1,-1,-1,-1,-1],"split_conditions":[-1.5902357E0,8E0,-1.2455667E0,8.710714E-2,-1.6952479E0,6.25E0,7.2E0,4E0,-1.0498221E0,6E0,7.2E0,6.25E0,8.333333E0,-1.7690562E0,1.3E1,3E0,2E0,2E0,3E0,-6.416069E-2,-1.713168E-2,5E0,3.6997955E-2,-3.159791E-2,-2.823098E-3,3.4E0,3E0,2E0,1.4E1,-1.7812515E-2,1.323253E-2,3E0,4E0,-3.5890047E-2,2E0,2E0,2.9957639E-2,3.125E0,5.2E0,2.3274448E-2,-3.6964798E-3,-1.1617635E-2,-7.818569E-2,4.7418525E-4,9.386154E-2,-4.925092E-2,7.658792E-4,-1.9818975E-2,8.5302297E-4,6.6165276E-2,1.8694913E-2,8.654983E-4,-1.0167711E-2,2.8370933E-3,-7.625784E-3,1.2014711E-3,-1.1473715E-2,4.8610717E-3,-1.0748148E-3],"split_indices":[14,3,14,0,14,1,1,9,11,3,1,1,1,14,3,0,10,0,0,0,0,3,0,0,0,1,0,0,3,0,0,0,9,0,1,0,0,1,1,0,0,0,0,0,0,0,0,0,0,0,0,0,0,0,0,0,0,0,0],"split_type":[0,0,0,0,0,0,0,0,0,0,0,0,0,0,0,0,0,0,0,0,0,0,0,0,0,0,0,0,0,0,0,0,0,0,0,0,0,0,0,0,0,0,0,0,0,0,0,0,0,0,0,0,0,0,0,0,0,0,0],"sum_hessian":[6.27E2,5.19E2,1.08E2,1E0,5.18E2,1.6E1,9.2E1,5.07E2,1.1E1,1.3E1,3E0,8.8E1,4E0,1.35E2,3.72E2,4E0,7E0,8E0,5E0,2E0,1E0,8.7E1,1E0,2E0,2E0,1.29E2,6E0,6E0,3.66E2,2E0,2E0,2E0,5E0,4E0,4E0,4E0,1E0,4.5E1,4.2E1,1E1,1.19E2,3E0,3E0,4E0,2E0,2E0,3.64E2,1E0,1E0,3E0,2E0,2E0,2E0,3E0,1E0,3.5E1,1E1,4E1,2E0],"tree_param":{"num_deleted":"0","num_feature":"15","num_nodes":"59","size_leaf_vector":"1"}},{"base_weights":[9.696565E-5,1.2655708E-3,-1.3149127E-2,2.7467852E-4,2.516429E-2,-6.444113E-2,-3.5244643E-3,-1.1042308E-3,1.6751066E-2,5.7198096E-2,-1.4981512E-2,-3.3667624E-2,-2.98088E-2,7.8583315E-2,-1.3699825E-2,1.7334672E-4,-4.0879663E-2,4.4300128E-2,-6.9044465E-3,3.515684E-2,4.825398E-2,1.650624E-2,-7.4211635E-2,-1.7904801E-2,4.8801303E-5,2.6263267E-2,6.4109536E-3,-3.932584E-2,-4.991438E-3,1.1778149E-2,-3.0243369E-3,-5.5053577E-2,1.1667551E-2,7.841712E-2,1.9897353E-2,-1.6680596E-2,4.6146452E-2,7.793532E-2,4.025682E-3,3.4665067E-3,1.1125088E-2,-4.1099926E-3,-2.6944662E-2,-9.532691E-4,1.4591843E-3,-7.1135975E-2,2.6173359E-2,7.3628263E-3,-1.8660175E-2,5.555521E-3,-1.4802641E-2,-5.0331827E-2,-6.521698E-4,-3.3984322E-3,-3.343986E-2,2.7390413E-2,-1.7658949E-3,1.4916677E-2,1.7932971E-3,-1.102267E-2,1.4692371E-3,1.7414553E-2,1.5660436E-3,2.723057E-2,3.990358E-3,-8.306797E-3,5.7636714E-3,3.5318257E-3,-2.6291967E-3,-5.2708704E-3,-4.1010402E-2,-6.8906884E-5,1.5807375E-2,-1.4917492E-2,4.2115874E-3,-1.0968385E-2,-4.4310014E-3],"categories":[],"categories_nodes":[],"categories_segments":[],"categories_sizes":[],"default_left":[0,0,0,0,0,0,0,0,0,0,0,0,0,0,0,0,0,0,0,0,0,0,0,0,0,0,0,0,0,0,0,0,0,0,0,0,0,0,0,0,0,0,0,0,0,0,0,0,0,0,0,0,0,0,0,0,0,0,0,0,0,0,0,0,0,0,0,0,0,0,0,0,0,0,0,0,0],"id":19,"left_children":[1,3,5,7,9,11,13,15,17,19,21,-1,23,25,27,29,31,33,35,37,-1,39,41,-1,43,-1,-1,45,47,49,51,53,-1,55,57,59,61,63,65,67,-1,-1,-1,-1,-1,69,71,73,75,-1,-1,-1,-1,-1,-1,-1,-1,-1,-1,-1,-1,-1,-1,-1,-1,-1,-1,-1,-1,-1,-1,-1,-1,-1,-1,-1,-1],"loss_changes":[9.7377375E-3,1.3680737E-2,2.4949957E-2,1.26505075E-2,3.0435441E-2,9.893741E-3,3.7837535E-2,2.612661E-2,2.8328419E-2,2.4044197E-2,2.1740213E-2,0E0,5.3546843E-3,6.926134E-4,8.730158E-3,1.8552756E-2,2.0231925E-2,1.5090693E-2,1.3216956E-2,1.5667181E-2,0E0,2.0180384E-3,2.5463998E-3,0E0,7.759718E-5,0E0,0E0,2.2697251E-2,5.372274E-3,4.5406103E-2,5.4557726E-2,3.3270653E-2,0E0,9.226922E-3,5.099774E-3,9.270655E-3,1.6454067E-3,2.9399935E-3,4.3851067E-3,7.1271317E-4,0E0,0E0,0E0,0E0,0E0,2.218292E-2,2.8127152E-3,7.176882E-3,5.045659E-4,0E0,0E0,0E0,0E0,0E0,0E0,0E0,0E0,0E0,0E0,0E0,0E0,0E0,0E0,0E0,0E0,0E0,0E0,0E0,0E0,0E0,0E0,0E0,0E0,0E0,0E0,0E0,0E0],"parents":[2147483647,0,0,1,1,2,2,3,3,4,4,5,5,6,6,7,7,8,8,9,9,10,10,12,12,13,13,14,14,15,15,16,16,17,17,18,18,19,19,21,21,22,22,24,24,27,27,28,28,29,29,30,30,31,31,33,33,34,34,35,35,36,36,37,37,38,38,39,39,45,45,46,46,47,47,48,48],"right_children":[2,4,6,8,10,12,14,16,18,20,22,-1,24,26,28,30,32,34,36,38,-1,40,42,-1,44,-1,-1,46,48,50,52,54,-1,56,58,60,62,64,66,68,-1,-1,-1,-1,-1,70,72,74,76,-1,-1,-1,-1,-1,-1,-1,-1,-1,-1,-1,-1,-1,-1,-1,-1,-1,-1,-1,-1,-1,-1,-1,-1,-1,-1,-1,-1],"split_conditions":[3.5E1,3E1,4.6E1,4E0,9E0,-1.6090248E0,4.9E1,1E0,2.3E1,1.7666666E1,-1.3235136E0,-3.3667624E-2,4E0,-1.184437E0,5.6E1,-1.2335733E0,1.2E1,-9.219188E-1,-6.613136E-1,6E0,4.825398E-2,-1.4541708E0,3E0,-1.7904801E-2,5E0,2.6263267E-2,6.4109536E-3,-1.1534206E0,9E0,1.6E1,2E0,4.25E0,1.1667551E-2,5E0,2.1E1,2.5E1,9E0,4E0,3E0,4.4E1,1.1125088E-2,-4.1099926E-3,-2.6944662E-2,-9.532691E-4,1.4591843E-3,3E0,5E0,6E0,1E0,5.555521E-3,-1.4802641E-2,-5.0331827E-2,-6.521698E-4,-3.3984322E-3,-3.343986E-2,2.7390413E-2,-1.7658949E-3,1.4916677E-2,1.7932971E-3,-1.102267E-2,1.4692371E-3,1.7414553E-2,1.5660436E-3,2.723057E-2,3.990358E-3,-8.306797E-3,5.7636714E-3,3.5318257E-3,-2.6291967E-3,-5.2708704E-3,-4.1010402E-2,-6.8906884E-5,1.5807375E-2,-1.4917492E-2,4.2115874E-3,-1.0968385E-2,-4.4310014E-3],"split_indices":[12,12,3,2,9,6,3,4,12,1,11,0,0,11,3,11,13,11,11,5,0,11,0,0,0,0,0,11,7,13,13,1,0,5,3,12,0,0,0,3,0,0,0,0,0,0,0,5,4,0,0,0,0,0,0,0,0,0,0,0,0,0,0,0,0,0,0,0,0,0,0,0,0,0,0,0,0],"split_type":[0,0,0,0,0,0,0,0,0,0,0,0,0,0,0,0,0,0,0,0,0,0,0,0,0,0,0,0,0,0,0,0,0,0,0,0,0,0,0,0,0,0,0,0,0,0,0,0,0,0,0,0,0,0,0,0,0,0,0,0,0,0,0,0,0,0,0,0,0,0,0,0,0,0,0,0,0],"sum_hessian":[6.27E2,5.77E2,5E1,5.55E2,2.2E1,7E0,4.3E1,5.13E2,4.2E1,1.2E1,1E1,2E0,5E0,4E0,3.9E1,4.98E2,1.5E1,1.9E1,2.3E1,1.1E1,1E0,7E0,3E0,2E0,3E0,3E0,1E0,9E0,3E1,1.07E2,3.91E2,1.3E1,2E0,7E0,1.2E1,2E1,3E0,4E0,7E0,5E0,2E0,1E0,2E0,2E0,1E0,6E0,3E0,1.6E1,1.4E1,9.7E1,1E1,1E0,3.9E2,8E0,5E0,6E0,1E0,3E0,9E0,1E1,1E1,2E0,1E0,3E0,1E0,2E0,5E0,3E0,2E0,4E0,2E0,2E0,1E0,1E0,1.5E1,1E0,1.3E1],"tree_param":{"num_deleted":"0","num_feature":"15","num_nodes":"77","size_leaf_vector":"1"}},{"base_weights":[-1.2969168E-5,1.7004715E-3,-8.187063E-3,7.413889E-2,7.5141806E-4,-5.744429E-2,9.0497907E-4,-5.785949E-4,5.699268E-2,-2.629603E-2,-4.5630634E-2,4.010364E-3,-5.455187E-2,1.1326448E-3,-2.118639E-2,-9.289309E-3,9.129484E-2,-4.1427426E-2,2.5561819E-2,1.6660815E-3,3.1546086E-2,-2.5147893E-2,-2.1280446E-3,-3.1949134E-4,9.722672E-2,-8.963016E-2,2.0727322E-2,-1.4119577E-2,9.474922E-3,-3.5389777E-2,1.3942134E-1,-5.698296E-2,2.34548E-3,-6.761824E-3,1.06432345E-2,1.1455211E-2,-8.0768013E-4,4.1917976E-2,-2.3665866E-2,-1.46825155E-2,-9.889025E-2,-2.5895627E-2,2.2853857E-2,-1.6748304E-2,8.229018E-4,5.768719E-2,1.9474216E-2,-2.7119914E-2,-5.8915536E-3,-5.6351215E-4,-1.7270537E-2,3.402097E-3,-7.2941784E-4],"categories":[],"categories_nodes":[],"categories_segments":[],"categories_sizes":[],"default_left":[0,0,0,0,0,0,0,0,0,0,0,0,0,0,0,0,0,0,0,0,0,0,0,0,0,0,0,0,0,0,0,0,0,0,0,0,0,0,0,0,0,0,0,0,0,0,0,0,0,0,0,0,0],"id":20,"left_children":[1,3,5,-1,7,9,11,13,15,17,-1,19,21,23,25,27,29,31,-1,33,-1,-1,-1,35,37,39,41,-1,-1,43,45,47,-1,49,51,-1,-1,-1,-1,-1,-1,-1,-1,-1,-1,-1,-1,-1,-1,-1,-1,-1,-1],"loss_changes":[8.8095805E-3,1.20935515E-1,4.88675E-2,0E0,3.885501E-2,4.6123568E-2,1.6234757E-2,1.7938554E-2,2.8131448E-2,2.7150419E-2,0E0,2.0927452E-2,6.3519664E-3,6.5615654E-2,1.1373836E-1,9.206429E-3,5.37092E-2,1.0404071E-2,0E0,6.729924E-3,0E0,0E0,0E0,4.249395E-2,6.341593E-2,1.3034798E-1,1.5497422E-1,0E0,0E0,2.4911975E-3,1.1152521E-2,1.0703988E-2,0E0,1.1305E-2,4.194826E-4,0E0,0E0,0E0,0E0,0E0,0E0,0E0,0E0,0E0,0E0,0E0,0E0,0E0,0E0,0E0,0E0,0E0,0E0],"parents":[2147483647,0,0,1,1,2,2,4,4,5,5,6,6,7,7,8,8,9,9,11,11,12,12,13,13,14,14,15,15,16,16,17,17,19,19,23,23,24,24,25,25,26,26,29,29,30,30,31,31,33,33,34,34],"right_children":[2,4,6,-1,8,10,12,14,16,18,-1,20,22,24,26,28,30,32,-1,34,-1,-1,-1,36,38,40,42,-1,-1,44,46,48,-1,50,52,-1,-1,-1,-1,-1,-1,-1,-1,-1,-1,-1,-1,-1,-1,-1,-1,-1,-1],"split_conditions":[-1.5902357E0,8E0,-1.2455667E0,7.413889E-2,-1.6952479E0,6.25E0,7.2E0,-1.7942626E0,-1.0498221E0,3E0,-4.5630634E-2,6.25E0,8.333333E0,-1.8153694E0,-9.346684E-1,3E0,2E0,5.2E0,2.5561819E-2,5E0,3.1546086E-2,-2.5147893E-2,-2.1280446E-3,1.2E1,7.5E0,1.5E1,4.4E0,-1.4119577E-2,9.474922E-3,3E0,3E0,2E0,2.34548E-3,3E0,5.2E0,1.1455211E-2,-8.0768013E-4,4.1917976E-2,-2.3665866E-2,-1.46825155E-2,-9.889025E-2,-2.5895627E-2,2.2853857E-2,-1.6748304E-2,8.229018E-4,5.768719E-2,1.9474216E-2,-2.7119914E-2,-5.8915536E-3,-5.6351215E-4,-1.7270537E-2,3.402097E-3,-7.2941784E-4],"split_indices":[14,3,14,0,14,1,1,14,11,0,0,1,1,14,11,0,10,1,0,3,0,0,0,3,1,3,1,0,0,0,9,0,0,12,1,0,0,0,0,0,0,0,0,0,0,0,0,0,0,0,0,0,0],"split_type":[0,0,0,0,0,0,0,0,0,0,0,0,0,0,0,0,0,0,0,0,0,0,0,0,0,0,0,0,0,0,0,0,0,0,0,0,0,0,0,0,0,0,0,0,0,0,0,0,0,0,0,0,0],"sum_hessian":[6.27E2,5.19E2,1.08E2,1E0,5.18E2,1.6E1,9.2E1,5.07E2,1.1E1,1.3E1,3E0,8.8E1,4E0,4.69E2,3.8E1,4E0,7E0,1.2E1,1E0,8.7E1,1E0,2E0,2E0,4.63E2,6E0,1.4E1,2.4E1,2E0,2E0,2E0,5E0,9E0,3E0,4.5E1,4.2E1,2.6E1,4.37E2,5E0,1E0,1.3E1,1E0,8E0,1.6E1,1E0,1E0,2E0,3E0,4E0,5E0,4.2E1,3E0,4E1,2E0],"tree_param":{"num_deleted":"0","num_feature":"15","num_nodes":"53","size_leaf_vector":"1"}},{"base_weights":[-3.870944E-5,-1.0492761E-2,9.830454E-4,-5.91363E-3,-3.935174E-2,-4.2697527E-2,1.4824043E-3,-1.1707327E-2,4.6041906E-2,3.2566782E-2,5.372457E-4,-5.8077656E-2,-1.1426476E-3,1.0430008E-2,-2.192232E-3,-5.4239333E-3,-8.172961E-2,-6.3659083E-3,1.2574987E-2,5.513931E-2,-9.6557324E-4,-1.2992564E-2,1.5554498E-3,-1.4690066E-2,-3.683149E-2,2.129676E-3,-9.053462E-3,4.7223136E-2,1.1820672E-2,1.0525087E-3,-4.3590292E-2,-2.8750492E-2,-1.5164012E-3,-2.4443276E-3,4.2840326E-3],"categories":[],"categories_nodes":[],"categories_segments":[],"categories_sizes":[],"default_left":[0,0,0,0,0,0,0,0,0,0,0,0,0,0,0,0,0,0,0,0,0,0,0,0,0,0,0,0,0,0,0,0,0,0,0],"id":21,"left_children":[1,3,5,7,-1,-1,9,11,-1,-1,13,15,17,19,21,-1,23,25,-1,27,29,31,33,-1,-1,-1,-1,-1,-1,-1,-1,-1,-1,-1,-1],"loss_changes":[6.718283E-3,3.0170344E-2,4.121611E-2,5.258585E-2,0E0,0E0,5.7828914E-2,2.6387574E-2,0E0,0E0,1.5360044E-2,7.98263E-3,1.0387777E-2,6.272032E-2,1.8072598E-2,0E0,2.0561442E-3,1.3360001E-2,0E0,3.4033895E-2,6.4438745E-2,7.513891E-2,4.11084E-2,0E0,0E0,0E0,0E0,0E0,0E0,0E0,0E0,0E0,0E0,0E0,0E0],"parents":[2147483647,0,0,1,1,2,2,3,3,6,6,7,7,10,10,11,11,12,12,13,13,14,14,16,16,17,17,19,19,20,20,21,21,22,22],"right_children":[2,4,6,8,-1,-1,10,12,-1,-1,14,16,18,20,22,-1,24,26,-1,28,30,32,34,-1,-1,-1,-1,-1,-1,-1,-1,-1,-1,-1,-1],"split_conditions":[-1.5296495E0,1.1E1,2E0,1E1,-3.935174E-2,-4.2697527E-2,4E0,-2.037376E0,4.6041906E-2,3.2566782E-2,-1.184437E0,4.25E0,3E0,1.6E1,-9.9425226E-1,-5.4239333E-3,1E0,2E0,1.2574987E-2,5E0,-1.892962E0,5.3333335E0,2E0,-1.4690066E-2,-3.683149E-2,2.129676E-3,-9.053462E-3,4.7223136E-2,1.1820672E-2,1.0525087E-3,-4.3590292E-2,-2.8750492E-2,-1.5164012E-3,-2.4443276E-3,4.2840326E-3],"split_indices":[11,13,13,13,0,0,3,14,0,0,11,1,0,12,11,0,4,13,0,1,14,1,5,0,0,0,0,0,0,0,0,0,0,0,0],"split_type":[0,0,0,0,0,0,0,0,0,0,0,0,0,0,0,0,0,0,0,0,0,0,0,0,0,0,0,0,0,0,0,0,0,0,0],"sum_hessian":[6.27E2,5.5E1,5.72E2,5.4E1,1E0,1E0,5.71E2,5.3E1,1E0,4E0,5.67E2,9E0,4.4E1,1.22E2,4.45E2,4E0,5E0,4E1,4E0,2.4E1,9.8E1,1.14E2,3.31E2,4E0,1E0,2.6E1,1.4E1,2E0,2.2E1,9.6E1,2E0,9E0,1.05E2,1.88E2,1.43E2],"tree_param":{"num_deleted":"0","num_feature":"15","num_nodes":"35","size_leaf_vector":"1"}},{"base_weights":[-1.3323563E-4,1.8397713E-3,-5.4595703E-3,1.0520641E-1,6.202975E-6,-8.883296E-3,3.657183E-2,4.299243E-2,8.110564E-2,-2.6819531E-3,6.894914E-2,1.97912E-3,-3.2385696E-2,5.0547644E-2,4.1009947E-3,5.0409287E-2,-2.2630692E-4,-5.238257E-4,-3.970798E-2,5.3088486E-2,2.2102099E-2,-1.1998763E-2,5.2518733E-3,-3.6749516E-2,-2.8046696E-2,5.6191362E-2,8.096874E-4,-1.4425826E-2,6.378246E-3,1.7702486E-2,6.6422583E-3,1.0202992E-1,-2.030685E-3,4.080941E-2,-6.88143E-2,3.223912E-2,1.1736572E-2,1.6551893E-2,-9.429304E-3,-4.3602735E-2,-5.2289898E-3,2.1911683E-3,1.8639563E-2,-5.8886437E-3,-6.029785E-4,5.7318255E-2,1.3803471E-2,-1.2265385E-2,5.4993765E-5,-2.8332502E-2,4.9757443E-2,-5.981787E-2,-1.2008978E-2,9.4333297E-4,1.12287495E-2,6.0698274E-3,-2.7503967E-3,3.5103527E-3,3.0474402E-2,-1.856665E-2,-3.973929E-4,-2.0159198E-2,-7.6351906E-3,3.3825852E-3,-1.0037354E-2],"categories":[],"categories_nodes":[],"categories_segments":[],"categories_sizes":[],"default_left":[0,0,0,0,0,0,0,0,0,0,0,0,0,0,0,0,0,0,0,0,0,0,0,0,0,0,0,0,0,0,0,0,0,0,0,0,0,0,0,0,0,0,0,0,0,0,0,0,0,0,0,0,0,0,0,0,0,0,0,0,0,0,0,0,0],"id":22,"left_children":[1,3,5,7,9,11,13,15,-1,17,19,21,23,25,27,29,-1,31,33,-1,35,-1,37,-1,39,41,-1,43,-1,-1,-1,45,47,49,51,53,55,57,59,61,63,-1,-1,-1,-1,-1,-1,-1,-1,-1,-1,-1,-1,-1,-1,-1,-1,-1,-1,-1,-1,-1,-1,-1,-1],"loss_changes":[6.609631E-3,8.6993515E-2,2.4788553E-2,7.057188E-2,8.39538E-2,4.0400367E-2,5.6921896E-3,2.309273E-3,0E0,3.481861E-2,8.2109876E-2,1.5183797E-2,1.6114283E-2,2.2787414E-3,1.8962899E-3,1.5198719E-4,0E0,6.402977E-2,5.9053835E-2,0E0,9.876057E-4,0E0,1.7077627E-2,0E0,1.7164707E-2,1.8695276E-3,0E0,1.543467E-4,0E0,0E0,0E0,2.1133188E-2,3.5104677E-2,1.3405475E-1,5.9673533E-2,7.8832265E-4,1.6063657E-3,2.2733705E-2,1.905052E-2,1.0710232E-2,1.0161079E-2,0E0,0E0,0E0,0E0,0E0,0E0,0E0,0E0,0E0,0E0,0E0,0E0,0E0,0E0,0E0,0E0,0E0,0E0,0E0,0E0,0E0,0E0,0E0,0E0],"parents":[2147483647,0,0,1,1,2,2,3,3,4,4,5,5,6,6,7,7,9,9,10,10,11,11,12,12,13,13,14,14,15,15,17,17,18,18,20,20,22,22,24,24,25,25,27,27,31,31,32,32,33,33,34,34,35,35,36,36,37,37,38,38,39,39,40,40],"right_children":[2,4,6,8,10,12,14,16,-1,18,20,22,24,26,28,30,-1,32,34,-1,36,-1,38,-1,40,42,-1,44,-1,-1,-1,46,48,50,52,54,56,58,60,62,64,-1,-1,-1,-1,-1,-1,-1,-1,-1,-1,-1,-1,-1,-1,-1,-1,-1,-1,-1,-1,-1,-1,-1,-1],"split_conditions":[2.3E1,-2.4743378E0,-6.348783E-1,9.666667E0,2.1E1,-1.1316521E0,3.3E1,2.8E1,8.110564E-2,1.4E1,2.8E1,2.9E1,-1.1103475E0,9E0,1E0,2.7E1,-2.2630692E-4,-2.3837297E0,7.5E0,5.3088486E-2,5E0,-1.1998763E-2,4.4E1,-3.6749516E-2,3.2E1,-2.4782622E0,8.096874E-4,4E0,6.378246E-3,1.7702486E-2,6.6422583E-3,2E0,-2.2148163E0,-2.407078E0,7.8E0,4E0,1.1E1,8E0,4.6E1,-2.432947E0,4E0,2.1911683E-3,1.8639563E-2,-5.8886437E-3,-6.029785E-4,5.7318255E-2,1.3803471E-2,-1.2265385E-2,5.4993765E-5,-2.8332502E-2,4.9757443E-2,-5.981787E-2,-1.2008978E-2,9.4333297E-4,1.12287495E-2,6.0698274E-3,-2.7503967E-3,3.5103527E-3,3.0474402E-2,-1.856665E-2,-3.973929E-4,-2.0159198E-2,-7.6351906E-3,3.3825852E-3,-1.0037354E-2],"split_indices":[12,14,11,1,12,11,3,3,0,13,3,3,11,0,4,3,0,14,1,0,5,0,3,0,3,14,0,0,0,0,0,0,14,14,1,10,13,5,3,14,10,0,0,0,0,0,0,0,0,0,0,0,0,0,0,0,0,0,0,0,0,0,0,0,0],"split_type":[0,0,0,0,0,0,0,0,0,0,0,0,0,0,0,0,0,0,0,0,0,0,0,0,0,0,0,0,0,0,0,0,0,0,0,0,0,0,0,0,0,0,0,0,0,0,0,0,0,0,0,0,0,0,0,0,0,0,0,0,0,0,0,0,0],"sum_hessian":[6.27E2,4.58E2,1.69E2,7E0,4.51E2,1.57E2,1.2E1,6E0,1E0,4.35E2,1.6E1,1.08E2,4.9E1,8E0,4E0,5E0,1E0,4.12E2,2.3E1,4E0,1.2E1,7E0,1.01E2,1E0,4.8E1,7E0,1E0,2E0,2E0,3E0,2E0,5E0,4.07E2,6E0,1.7E1,5E0,7E0,5.7E1,4.4E1,2.8E1,2E1,1E0,6E0,1E0,1E0,1E0,4E0,2.1E1,3.86E2,3E0,3E0,2E0,1.5E1,1E0,4E0,5E0,2E0,5.5E1,2E0,5E0,3.9E1,1.1E1,1.7E1,1.3E1,7E0],"tree_param":{"num_deleted":"0","num_feature":"15","num_nodes":"65","size_leaf_vector":"1"}},{"base_weights":[1.2275553E-4,8.9479174E-4,-1.1248546E-2,5.9414017E-3,-1.6179756E-3,-4.328668E-2,8.7372225E-4,-2.7879523E-5,6.497251E-2,-3.532717E-2,1.6638015E-3,-1.0176752E-2,-3.8456276E-2,1.0220728E-2,-7.128115E-3,7.6502316E-2,-3.5872615E-3,2.1210674E-2,6.385088E-2,-7.4459225E-2,1.0486728E-2,2.2694706E-3,-3.236571E-2,2.5586619E-3,-4.0743193E-3,-1.8530073E-2,3.1302157E-3,-2.2413785E-2,3.2633305E-2,9.63813E-4,-6.434857E-2,-6.2380746E-2,4.7306925E-2,-9.5555134E-2,-2.701024E-2,-1.2291898E-2,8.759023E-2,2.5427382E-2,-1.5600537E-3,3.151638E-2,-9.48437E-3,-6.2663865E-4,4.8729237E-2,2.1615673E-2,-2.9650187E-2,-3.1509493E-2,9.835786E-3,1.7227324E-2,3.8147585E-3,-8.042297E-4,-6.2442277E-2,5.1502152E-3,-2.0625625E-2,3.5330236E-2,-4.412137E-4,2.0814609E-2,-4.8639346E-3,-2.3140853E-2,-1.8986393E-5,1.0802973E-2,4.056514E-3,-1.013772E-3,-3.3713435E-3],"categories":[],"categories_nodes":[],"categories_segments":[],"categories_sizes":[],"default_left":[0,0,0,0,0,0,0,0,0,0,0,0,0,0,0,0,0,0,0,0,0,0,0,0,0,0,0,0,0,0,0,0,0,0,0,0,0,0,0,0,0,0,0,0,0,0,0,0,0,0,0,0,0,0,0,0,0,0,0,0,0,0,0],"id":23,"left_children":[1,3,5,7,9,11,13,15,17,19,21,23,-1,-1,25,27,29,31,-1,33,35,37,-1,-1,-1,-1,39,-1,-1,41,43,45,47,-1,49,51,53,55,57,59,61,-1,-1,-1,-1,-1,-1,-1,-1,-1,-1,-1,-1,-1,-1,-1,-1,-1,-1,-1,-1,-1,-1],"loss_changes":[5.5233124E-3,7.4786968E-3,1.5572815E-2,6.906699E-2,4.3645445E-2,2.9617162E-2,8.211566E-3,4.9034074E-2,1.1195981E-1,6.352855E-2,2.413111E-2,6.8894925E-4,0E0,0E0,1.4205912E-2,4.71712E-2,4.762505E-2,3.567238E-2,0E0,2.1142247E-1,3.0933954E-2,3.1877145E-2,0E0,0E0,0E0,0E0,8.176668E-3,0E0,0E0,7.9695456E-2,6.356722E-2,1.9679341E-2,3.4694932E-3,0E0,7.435786E-2,2.4466164E-2,1.0923646E-2,9.446986E-2,3.494912E-2,7.910142E-5,1.3330451E-4,0E0,0E0,0E0,0E0,0E0,0E0,0E0,0E0,0E0,0E0,0E0,0E0,0E0,0E0,0E0,0E0,0E0,0E0,0E0,0E0,0E0,0E0],"parents":[2147483647,0,0,1,1,2,2,3,3,4,4,5,5,6,6,7,7,8,8,9,9,10,10,11,11,14,14,15,15,16,16,17,17,19,19,20,20,21,21,26,26,29,29,30,30,31,31,32,32,34,34,35,35,36,36,37,37,38,38,39,39,40,40],"right_children":[2,4,6,8,10,12,14,16,18,20,22,24,-1,-1,26,28,30,32,-1,34,36,38,-1,-1,-1,-1,40,-1,-1,42,44,46,48,-1,50,52,54,56,58,60,62,-1,-1,-1,-1,-1,-1,-1,-1,-1,-1,-1,-1,-1,-1,-1,-1,-1,-1,-1,-1,-1,-1],"split_conditions":[1E0,1.2E1,1.2E1,3E0,5.2E0,4.25E0,1.5E1,-2.2066112E0,4.25E0,1E0,-1.6952479E0,2E0,-3.8456276E-2,1.0220728E-2,3E0,2E0,1.1E1,1E0,6.385088E-2,-1.980301E0,4.5E0,1E1,-3.236571E-2,2.5586619E-3,-4.0743193E-3,-1.8530073E-2,4.7E1,-2.2413785E-2,3.2633305E-2,6E0,-9.916968E-1,3.125E0,-1.7690562E0,-9.5555134E-2,-4.541303E-1,3.8333333E0,4E0,6E0,1.6E1,6E0,-2.6992455E0,-6.2663865E-4,4.8729237E-2,2.1615673E-2,-2.9650187E-2,-3.1509493E-2,9.835786E-3,1.7227324E-2,3.8147585E-3,-8.042297E-4,-6.2442277E-2,5.1502152E-3,-2.0625625E-2,3.5330236E-2,-4.412137E-4,2.0814609E-2,-4.8639346E-3,-2.3140853E-2,-1.8986393E-5,1.0802973E-2,4.056514E-3,-1.013772E-3,-3.3713435E-3],"split_indices":[4,12,3,0,1,1,3,14,1,5,14,1,0,0,5,5,12,5,0,14,1,13,0,0,0,0,3,0,0,9,11,1,14,0,11,1,0,9,3,9,14,0,0,0,0,0,0,0,0,0,0,0,0,0,0,0,0,0,0,0,0,0,0],"split_type":[0,0,0,0,0,0,0,0,0,0,0,0,0,0,0,0,0,0,0,0,0,0,0,0,0,0,0,0,0,0,0,0,0,0,0,0,0,0,0,0,0,0,0,0,0,0,0,0,0,0,0,0,0,0,0,0,0,0,0,0,0,0,0],"sum_hessian":[6.27E2,5.88E2,3.9E1,1.95E2,3.93E2,1E1,2.9E1,1.78E2,1.7E1,3.4E1,3.59E2,8E0,2E0,5E0,2.4E1,7E0,1.71E2,1.4E1,3E0,1.8E1,1.6E1,3.58E2,1E0,1E0,7E0,3E0,2.1E1,1E0,6E0,1.6E2,1.1E1,3E0,1.1E1,2E0,1.6E1,1.3E1,3E0,5E1,3.08E2,6E0,1.5E1,1.58E2,2E0,2E0,9E0,2E0,1E0,8E0,3E0,1.5E1,1E0,9E0,4E0,2E0,1E0,2.4E1,2.6E1,5E0,3.03E2,4E0,2E0,4E0,1.1E1],"tree_param":{"num_deleted":"0","num_feature":"15","num_nodes":"63","size_leaf_vector":"1"}},{"base_weights":[-7.849811E-5,4.4181505E-3,-1.8253671E-3,-4.2621233E-3,2.9782105E-2,-7.534347E-2,5.179939E-4,-4.1345906E-2,8.4559177E-4,1.6432812E-2,1.6250414E-1,-4.0110614E-2,-5.7348125E-2,2.791814E-2,-1.6270493E-3,-5.082412E-3,-1.0093799E-1,1.7249341E-1,-3.6395304E-3,5.9078578E-2,-6.0531555E-4,5.675615E-2,1.2368266E-2,-2.99653E-2,1.685409E-2,-8.145211E-3,5.302176E-2,-6.438117E-2,-6.910301E-4,-4.274537E-2,1.4598663E-2,-3.7431885E-2,-1.0653617E-2,8.679394E-3,6.894264E-2,8.337198E-4,-2.6285095E-2,4.8912637E-2,6.3082767E-3,-1.9933928E-2,4.1978166E-2,4.184865E-2,-2.6835391E-2,-3.322578E-2,2.8467638E-2,9.215521E-2,1.6183324E-2,-9.572052E-2,1.3847343E-2,-1.3356685E-2,1.3012615E-3,-2.0594718E-3,-2.6489308E-2,2.1582466E-2,-1.1438428E-3,-1.22435335E-2,3.5974022E-3,1.42263705E-2,-6.6455225E-3,-3.7902936E-2,-2.6551457E-3,7.1865753E-3,2.2813965E-2,5.0052605E-3,-1.16628455E-2,-3.6117874E-2,-1.1259181E-3,3.2646716E-2,-6.177321E-3,1.0507274E-2,-7.6633077E-3,-4.986942E-4,-3.564585E-2,2.7200712E-3,-1.1614902E-2,9.45069E-3,-1.582518E-4],"categories":[],"categories_nodes":[],"categories_segments":[],"categories_sizes":[],"default_left":[0,0,0,0,0,0,0,0,0,0,0,0,0,0,0,0,0,0,0,0,0,0,0,0,0,0,0,0,0,0,0,0,0,0,0,0,0,0,0,0,0,0,0,0,0,0,0,0,0,0,0,0,0,0,0,0,0,0,0,0,0,0,0,0,0,0,0,0,0,0,0,0,0,0,0,0,0],"id":24,"left_children":[1,3,5,7,9,11,13,15,17,19,21,23,-1,25,27,29,31,33,35,37,39,-1,-1,-1,41,43,45,47,49,51,-1,-1,-1,-1,-1,53,55,-1,57,59,61,-1,63,65,-1,67,69,71,-1,73,75,-1,-1,-1,-1,-1,-1,-1,-1,-1,-1,-1,-1,-1,-1,-1,-1,-1,-1,-1,-1,-1,-1,-1,-1,-1,-1],"loss_changes":[4.9410397E-3,3.887616E-2,7.808162E-2,2.503753E-2,7.705813E-2,4.9460307E-2,2.5906201E-2,3.4063265E-2,9.070158E-2,3.0553129E-2,5.14438E-3,4.2543363E-2,0E0,2.9402135E-2,2.3979787E-2,2.4346078E-2,4.925601E-3,1.8036291E-2,1.1671332E-2,6.480573E-2,2.6352257E-2,0E0,0E0,0E0,4.1250393E-2,3.933215E-2,2.589931E-2,2.5203573E-2,1.0211787E-2,1.0834912E-2,0E0,0E0,0E0,0E0,0E0,3.2323543E-2,1.1053948E-2,0E0,1.1581141E-2,2.4828166E-2,4.318401E-3,0E0,3.7926706E-3,3.0376785E-2,0E0,1.9153222E-2,9.542741E-3,1.0665726E-2,0E0,3.1627033E-2,1.9347353E-2,0E0,0E0,0E0,0E0,0E0,0E0,0E0,0E0,0E0,0E0,0E0,0E0,0E0,0E0,0E0,0E0,0E0,0E0,0E0,0E0,0E0,0E0,0E0,0E0,0E0,0E0],"parents":[2147483647,0,0,1,1,2,2,3,3,4,4,5,5,6,6,7,7,8,8,9,9,10,10,11,11,13,13,14,14,15,15,16,16,17,17,18,18,19,19,20,20,24,24,25,25,26,26,27,27,28,28,29,29,35,35,36,36,38,38,39,39,40,40,42,42,43,43,45,45,46,46,47,47,49,49,50,50],"right_children":[2,4,6,8,10,12,14,16,18,20,22,24,-1,26,28,30,32,34,36,38,40,-1,-1,-1,42,44,46,48,50,52,-1,-1,-1,-1,-1,54,56,-1,58,60,62,-1,64,66,-1,68,70,72,-1,74,76,-1,-1,-1,-1,-1,-1,-1,-1,-1,-1,-1,-1,-1,-1,-1,-1,-1,-1,-1,-1,-1,-1,-1,-1,-1,-1],"split_conditions":[-2.315089E0,-2.404259E0,-2.2998111E0,2.5E1,1.4E1,3E0,-2.2066112E0,2.1E1,2.6E1,6E0,2E1,3E0,-5.7348125E-2,-2.2534015E0,-2.1872742E0,3E0,1.1125E1,3E0,-9.5451194E-1,3E0,-1.0498221E0,5.675615E-2,1.2368266E-2,-2.99653E-2,7.5E0,-6.613136E-1,-9.916968E-1,5E0,-2.101729E0,3E0,1.4598663E-2,-3.7431885E-2,-1.0653617E-2,8.679394E-3,6.894264E-2,1.6E1,9E0,4.8912637E-2,2E0,2.6E1,-2.3357832E0,4.184865E-2,3E0,1.9E1,2.8467638E-2,1E0,3E0,6.3333335E0,1.3847343E-2,-2.1254854E0,-2.0794415E0,-2.0594718E-3,-2.6489308E-2,2.1582466E-2,-1.1438428E-3,-1.22435335E-2,3.5974022E-3,1.42263705E-2,-6.6455225E-3,-3.7902936E-2,-2.6551457E-3,7.1865753E-3,2.2813965E-2,5.0052605E-3,-1.16628455E-2,-3.6117874E-2,-1.1259181E-3,3.2646716E-2,-6.177321E-3,1.0507274E-2,-7.6633077E-3,-4.986942E-4,-3.564585E-2,2.7200712E-3,-1.1614902E-2,9.45069E-3,-1.582518E-4],"split_indices":[14,14,14,3,1,5,14,3,3,9,1,10,0,14,14,10,1,5,6,5,11,0,0,0,1,11,11,0,14,9,0,0,0,0,0,13,9,0,10,3,14,0,0,3,0,4,5,1,0,14,14,0,0,0,0,0,0,0,0,0,0,0,0,0,0,0,0,0,0,0,0,0,0,0,0,0,0],"split_type":[0,0,0,0,0,0,0,0,0,0,0,0,0,0,0,0,0,0,0,0,0,0,0,0,0,0,0,0,0,0,0,0,0,0,0,0,0,0,0,0,0,0,0,0,0,0,0,0,0,0,0,0,0,0,0,0,0,0,0,0,0,0,0,0,0,0,0,0,0,0,0,0,0,0,0,0,0],"sum_hessian":[6.27E2,1.75E2,4.52E2,1.31E2,4.4E1,1.3E1,4.39E2,1.5E1,1.16E2,4.1E1,3E0,1.1E1,2E0,3.1E1,4.08E2,1E1,5E0,2E0,1.14E2,1.1E1,3E1,2E0,1E0,5E0,6E0,1.3E1,1.8E1,5E0,4.03E2,6E0,4E0,3E0,2E0,1E0,1E0,9.6E1,1.8E1,3E0,8E0,2.1E1,9E0,1E0,5E0,1.1E1,2E0,8E0,1E1,4E0,1E0,5.4E1,3.49E2,4E0,2E0,5E0,9.1E1,1.3E1,5E0,3E0,5E0,1E0,2E1,7E0,2E0,1E0,4E0,2E0,9E0,7E0,1E0,7E0,3E0,1E0,3E0,2.9E1,2.5E1,1.9E1,3.3E2],"tree_param":{"num_deleted":"0","num_feature":"15","num_nodes":"77","size_leaf_vector":"1"}},{"base_weights":[8.6696295E-5,-1.7299291E-3,3.9263614E-3,3.021857E-3,-7.7868374E-3,4.530697E-2,8.4035686E-4,3.8128702E-3,-2.7904546E-2,-7.899156E-2,-3.765418E-3,-3.9973903E-2,9.7126774E-2,-2.3581475E-2,1.6810494E-3,2.273087E-3,7.5420104E-2,-1.3436651E-1,3.256698E-3,3.3422213E-3,-3.5312615E-2,-2.1283995E-2,-2.0013515E-2,5.3798765E-2,4.1351132E-2,2.1114059E-2,-2.4405555E-3,3.0630445E-2,7.437951E-4,3.901504E-2,-1.3049841E-3,-5.374039E-2,-6.719881E-2,5.361937E-3,-8.281351E-3,1.1979756E-3,1.0586669E-1,-7.175506E-2,-1.4444056E-2,-7.3742107E-3,-1.2145758E-3,1.906969E-2,7.446617E-4,8.510051E-2,3.7429773E-3,-4.8037484E-2,3.4872105E-4,4.4110127E-2,-2.2060776E-3,-7.943096E-3,1.3355889E-3,-2.7254734E-2,5.628117E-4,-2.4152321E-3,4.812193E-3,4.13213E-2,6.3187126E-3,2.3505917E-2,-1.6790405E-2,1.025143E-2,5.8601245E-2,-1.02961E-2,8.445602E-3,3.3665702E-3,-3.747516E-2,2.959434E-3,-1.7160873E-3],"categories":[],"categories_nodes":[],"categories_segments":[],"categories_sizes":[],"default_left":[0,0,0,0,0,0,0,0,0,0,0,0,0,0,0,0,0,0,0,0,0,0,0,0,0,0,0,0,0,0,0,0,0,0,0,0,0,0,0,0,0,0,0,0,0,0,0,0,0,0,0,0,0,0,0,0,0,0,0,0,0,0,0,0,0,0,0],"id":25,"left_children":[1,3,5,7,9,11,13,15,-1,17,19,21,23,-1,25,27,29,31,33,35,37,39,-1,41,-1,43,45,47,49,-1,-1,-1,51,-1,-1,53,55,-1,57,-1,-1,-1,-1,59,61,63,65,-1,-1,-1,-1,-1,-1,-1,-1,-1,-1,-1,-1,-1,-1,-1,-1,-1,-1,-1,-1],"loss_changes":[4.3872385E-3,1.23130735E-2,2.5757477E-2,1.8586624E-2,5.3535245E-2,6.5751866E-2,1.2755267E-2,2.6180612E-2,0E0,4.5982536E-2,4.0254496E-2,1.5784716E-3,8.459613E-3,0E0,1.51094245E-2,1.0168387E-2,2.235491E-2,6.0041845E-3,2.748781E-3,3.2189306E-2,1.3694346E-1,1.8458348E-4,0E0,2.8494298E-3,0E0,3.6361426E-2,1.9857211E-2,5.413884E-2,2.2728257E-2,0E0,0E0,0E0,6.704999E-3,0E0,0E0,2.0034175E-2,5.2073076E-3,0E0,1.2383768E-1,0E0,0E0,0E0,0E0,3.2624908E-2,2.6051573E-2,4.2404413E-2,8.603883E-3,0E0,0E0,0E0,0E0,0E0,0E0,0E0,0E0,0E0,0E0,0E0,0E0,0E0,0E0,0E0,0E0,0E0,0E0,0E0,0E0],"parents":[2147483647,0,0,1,1,2,2,3,3,4,4,5,5,6,6,7,7,9,9,10,10,11,11,12,12,14,14,15,15,16,16,17,17,18,18,19,19,20,20,21,21,23,23,25,25,26,26,27,27,28,28,32,