{"learner":{"attributes":{},"feature_names":["command","num_words","mean_word_len","num_unique_words","num_chars","num_words_upper","num_punctuations","entropy_words","total_words","unique_word","total_voals","unique_voals","entropy_voals","total_cons","unique_cons","entropy_cons"],"feature_types":["c","int","float","int","int","int","int","float","int","int","int","int","float","int","int","float"],"gradient_booster":{"model":{"cats":{"enc":[{"offsets":[0,20,53,75,83,101,113,131,167,201,243,256,259,278,292,318,338,355,371,387,405,435,458,479,499,528,575,603,618,633,657,682,708,774,801,827,856,880,906,937,962,989,1021,1040,1068,1083,1100,1121,1150,1163,1179,1205,1232,1249,1267,1275,1289,1299,1316,1340,1351,1385,1425,1460,1501,1543,1578,1610,1642,1681,1716,1776,1794,1803,1818,1839,1883,1915,1953,1965,1990,2014,2042,2066,2115,2142,2181,2224,2274,2318,2368,2418,2468,2487,2502,2530,2571,2592,2594,2602,2606,2611,2623,2636,2650,2668,2685,2719,2739,2754,2765,2770,2783,2796,2810,2824,2852,2873,2885,2907,2911,2924,2939,2948,2961,2972,2978,3008,3017,3045,3061,3072,3079,3087,3096,3123,3148,3158,3169,3180,3195,3225,3246,3258,3272,3281,3302,3323,3345,3363,3384,3411,3431,3448,3453,3460,3478,3486,3508,3524,3539,3585,3640,3669,3679,3771,3782,3813,3839,3868,4016,4165,4265,4446,4491,4535,4579,4673,4768,4856,4993,5053,5143,5227,5324,5432,5521,5628,5799,5981,6151,6243,6325,6358,6386,6413,6441,6475,6505,6534,6564,6593,6638,6673,6704,6734,6765,6811,6843,6871,6898,6926,6953,6996,7012,7018,7036,7067,7101,7122,7147,7157,7177,7191,7222,7287,7315,7343,7371,7421,7470,7496,7524,7555,7583,7587,7601,7610,7642,7675,7705,7739,7773,7807,7829,7861,7883,7912,7944,7958,7964,7998,8056,8104,8162,8228,8284,8332,8354,8386,8408,8432,8447,8479,8486,8508,8534,8546,8550,8582,8598,8606,8614,8622,8638,8648,8650,8660,8677,8679,8682,8695,8718,8723,8728,8747,8766,8778,8802,8809,8845,8881,8896,8914,8927,8946,8964,8981,8984,8995,9010,9041,9057,9079,9084,9095,9106,9117,9131,9170,9188,9211,9239,9267,9290,9307,9342,9378,9386,9401,9421,9437,9454,9469,9499,9583,9607,9622,9631,9641,9651,9670,9716,9743,9753,9760,9784,9808,9832,9849,9865,9880,9883,9908,9939,9964,9990,10005,10035,10057,10086,10102,10119,10137,10168,10194,10221,10239,10258,10278,10318,10335,10352,10367,10389,10405,10424,10448,10452,10463,10474,10506,10539,10578,10621,10647,10666,10686,10694,10700,10703,10709,10722,10819,10875,10910,10945,10975,11003,11019,11037,11061,11076,11099,11116,11123,11137,11173,11190,11209,11224,11241,11284,11320,11353,11359,11374,11383,11393,11401,11426,11434,11442,11450,11461,11473,11484,11496,11507,11519,11530,11541,11565,11577,11602,11614,11624,11643,11659,11686,11700,11712,11715,11720,11736,11767,11839,11866,11904,11936,12050,12168,12208,12251,12274,12309,12352,12375,12438,12486,12507,12561,12568,12598,12623,12647,12665,12690,12713,12750,12773,12797,12820,12859,12897,12914,12941,12957,12967,12971,12974,12992,13004,13012,13015,13028,13057,13072,13090,13103,13140,13155,13181,13195,13208,13232,13243,13263,13275,13285,13322,13343,13360,13378,13393],"values":[46,47,100,111,99,107,101,114,43,65,67,48,45,99,111,109,112,111,115,101,46,47,100,111,99,107,101,114,43,65,67,48,45,99,111,109,112,111,115,101,32,43,65,67,48,45,118,101,114,115,105,111,110,46,47,104,112,108,105,112,43,65,67,48,45,51,46,49,57,46,56,46,114,117,110,46,47,109,97,116,108,97,98,46,47,115,117,98,108,105,109,101,43,65,70,56,45,116,101,120,116,46,47,115,117,98,108,105,109,101,46,112,121,46,47,116,101,115,116,43,65,70,56,45,99,117,114,108,46,115,104,46,47,116,101,115,116,43,65,70,56,45,99,117,114,108,46,115,104,32,43,65,68,52,45,32,116,101,115,116,101,114,46,104,116,109,108,46,47,117,115,114,47,108,111,99,97,108,47,98,105,110,47,100,111,99,107,101,114,43,65,67,48,45,99,111,109,112,111,115,101,47,117,115,114,47,98,105,110,47,109,121,115,113,108,43,65,70,56,45,115,101,99,117,114,101,43,65,70,56,45,105,110,115,116,97,108,108,97,116,105,111,110,58,40,41,123,32,58,124,58,38,32,125,59,58,97,112,116,97,112,116,32,32,110,118,105,100,105,97,43,65,67,48,45,52,49,53,97,112,116,32,105,110,102,111,32,108,105,110,117,120,97,112,116,32,105,110,115,116,97,108,108,32,97,112,97,99,104,101,50,32,43,65,67,48,45,121,97,112,116,32,105,110,115,116,97,108,108,32,99,111,109,112,111,115,101,114,97,112,116,32,105,110,115,116,97,108,108,32,99,111,110,100,97,97,112,116,32,105,110,115,116,97,108,108,32,99,117,114,108,97,112,116,32,105,110,115,116,97,108,108,32,100,105,114,98,97,112,116,32,105,110,115,116,97,108,108,32,100,111,99,107,101,114,97,112,116,32,105,110,115,116,97,108,108,32,100,111,99,107,101,114,43,65,67,48,45,99,111,109,112,111,115,101,97,112,116,32,105,110,115,116,97,108,108,32,101,120,116,43,65,67,48,45,100,111,109,97,112,116,32,105,110,115,116,97,108,108,32,102,105,108,101,122,105,108,108,97,97,112,116,32,105,110,115,116,97,108,108,32,107,101,101,112,97,115,115,120,97,112,116,32,105,110,115,116,97,108,108,32,108,105,110,117,120,43,65,67,48,45,103,101,110,101,114,105,99,97,112,116,32,105,110,115,116,97,108,108,32,108,105,110,117,120,43,65,67,48,45,103,101,110,101,114,105,99,43,65,67,48,45,104,119,101,43,65,67,48,45,49,54,46,48,52,97,112,116,32,105,110,115,116,97,108,108,32,109,121,115,113,108,43,65,67,48,45,115,101,114,118,101,114,97,112,116,32,105,110,115,116,97,108,108,32,110,112,109,97,112,116,32,105,110,115,116,97,108,108,32,112,104,112,97,112,116,32,105,110,115,116,97,108,108,32,112,104,112,43,65,67,48,45,99,117,114,108,97,112,116,32,105,110,115,116,97,108,108,32,112,104,112,53,43,65,67,48,45,99,117,114,108,97,112,116,32,105,110,115,116,97,108,108,32,112,104,112,55,46,48,43,65,67,48,45,120,109,108,97,112,116,32,105,110,115,116,97,108,108,32,112,104,112,55,46,50,32,112,104,112,55,46,50,43,65,67,48,45,99,111,109,109,111,110,32,112,104,112,55,46,50,43,65,67,48,45,99,108,105,32,112,104,112,55,46,50,43,65,67,48,45,102,112,109,97,112,116,32,105,110,115,116,97,108,108,32,112,104,112,55,46,50,43,65,67,48,45,99,117,114,108,97,112,116,32,105,110,115,116,97,108,108,32,112,104,112,55,46,50,43,65,67,48,45,120,109,108,97,112,116,32,105,110,115,116,97,108,108,32,112,104,112,109,121,97,100,109,105,110,32,43,65,67,48,45,121,97,112,116,32,105,110,115,116,97,108,108,32,112,121,116,104,111,110,32,51,46,55,46,52,97,112,116,32,105,110,115,116,97,108,108,32,112,121,116,104,111,110,43,65,67,48,45,112,105,112,97,112,116,32,105,110,115,116,97,108,108,32,112,121,116,104,111,110,43,65,67,48,45,114,101,113,117,101,115,116,115,97,112,116,32,105,110,115,116,97,108,108,32,112,121,116,104,111,110,43,65,67,48,45,116,107,97,112,116,32,105,110,115,116,97,108,108,32,112,121,116,104,111,110,51,43,65,67,48,45,112,105,112,97,112,116,32,105,110,115,116,97,108,108,32,112,121,116,104,111,110,51,43,65,67,48,45,114,101,113,117,101,115,116,115,97,112,116,32,105,110,115,116,97,108,108,32,115,117,98,108,105,109,101,97,112,116,32,105,110,115,116,97,108,108,32,115,117,98,108,105,109,101,43,65,67,48,45,116,101,120,116,97,112,116,32,105,110,115,116,97,108,108,32,118,105,109,97,112,116,32,105,110,115,116,97,108,108,32,119,104,111,105,115,97,112,116,32,105,110,115,116,97,108,108,32,119,105,114,101,115,104,97,114,107,97,112,116,32,114,101,109,111,118,101,32,100,111,99,107,101,114,43,65,67,48,45,99,111,109,112,111,115,101,97,112,116,32,115,101,97,114,99,104,32,108,105,97,112,116,32,115,101,97,114,99,104,32,108,105,110,117,120,97,112,116,32,115,101,97,114,99,104,32,108,105,110,117,120,43,65,67,48,45,103,101,110,101,114,97,112,116,32,115,101,97,114,99,104,32,108,105,110,117,120,43,65,67,48,45,107,101,114,110,101,108,97,112,116,32,115,101,97,114,99,104,32,112,116,121,120,105,115,97,112,116,32,115,101,97,114,99,104,32,115,117,98,108,105,109,101,97,112,116,32,115,104,111,119,97,112,116,32,115,104,111,119,32,108,105,110,117,120,97,112,116,32,117,112,100,97,116,101,97,112,116,32,117,112,100,97,116,101,32,43,65,67,48,45,121,97,112,116,32,117,112,100,97,116,101,32,117,112,100,97,116,101,32,43,65,67,48,45,121,97,112,116,32,117,112,103,114,97,100,101,97,112,116,43,65,67,48,45,99,97,99,104,101,32,112,111,108,105,99,121,32,100,111,99,107,101,114,43,65,67,48,45,99,101,97,112,116,43,65,67,48,45,103,101,116,32,105,110,115,116,97,108,108,32,43,65,67,48,45,121,32,100,111,99,107,101,114,43,65,67,48,45,99,101,97,112,116,43,65,67,48,45,103,101,116,32,105,110,115,116,97,108,108,32,100,101,102,97,117,108,116,43,65,67,48,45,106,100,107,97,112,116,43,65,67,48,45,103,101,116,32,105,110,115,116,97,108,108,32,100,101,102,97,117,108,116,43,65,67,48,45,106,100,107,32,43,65,67,48,45,97,112,116,43,65,67,48,45,103,101,116,32,105,110,115,116,97,108,108,32,100,101,102,97,117,108,116,43,65,67,48,45,106,100,107,32,43,65,67,48,45,121,97,112,116,43,65,67,48,45,103,101,116,32,105,110,115,116,97,108,108,32,100,101,102,97,117,108,116,43,65,67,48,45,106,114,101,97,112,116,43,65,67,48,45,103,101,116,32,105,110,115,116,97,108,108,32,101,120,116,43,65,67,48,45,99,117,114,108,97,112,116,43,65,67,48,45,103,101,116,32,105,110,115,116,97,108,108,32,112,104,112,43,65,67,48,45,99,117,114,108,97,112,116,43,65,67,48,45,103,101,116,32,105,110,115,116,97,108,108,32,112,104,112,55,46,50,43,65,67,48,45,109,98,115,116,114,105,110,103,97,112,116,43,65,67,48,45,103,101,116,32,105,110,115,116,97,108,108,32,112,121,116,104,111,110,51,43,65,67,48,45,98,115,52,97,112,116,43,65,67,48,45,103,101,116,32,114,101,109,111,118,101,32,43,65,67,48,65,76,81,45,97,117,116,111,43,65,67,48,45,114,101,109,111,118,101,32,112,121,116,104,111,110,43,65,67,48,45,101,110,117,109,51,52,97,112,116,43,65,67,48,45,103,101,116,32,117,112,100,97,116,101,97,112,116,117,112,100,97,116,101,97,112,121,32,105,110,115,116,97,108,108,32,112,104,112,98,97,100,98,108,111,99,107,115,32,45,119,32,47,100,101,118,47,115,100,97,98,97,115,104,32,45,99,32,32,34,36,40,119,103,101,116,32,45,113,79,45,32,104,116,116,112,115,58,47,47,103,105,116,46,105,111,47,118,81,103,77,114,41,34,98,97,115,104,32,47,117,115,114,47,98,105,110,47,100,111,99,107,101,114,43,65,67,48,45,99,111,109,112,111,115,101,98,97,115,104,32,47,117,115,114,47,108,111,99,97,108,47,98,105,110,47,100,111,99,107,101,114,43,65,67,48,45,99,111,109,112,111,115,101,99,97,116,32,46,104,105,115,116,111,114,121,99,97,116,32,47,100,101,118,47,107,109,101,109,32,62,32,47,100,101,118,47,112,111,114,116,99,97,116,32,47,100,101,118,47,109,101,109,32,62,32,47,100,101,118,47,112,111,114,116,99,97,116,32,47,100,101,118,47,117,114,97,110,100,111,109,32,62,32,47,100,101,118,47,112,111,114,116,99,97,116,32,47,100,101,118,47,122,101,114,111,32,62,32,47,100,101,118,47,115,100,97,99,97,116,32,47,101,116,99,47,97,112,97,99,104,101,50,47,99,111,110,102,43,65,67,48,45,101,110,97,98,108,101,100,47,112,104,112,109,121,97,100,109,105,110,46,99,111,110,102,99,97,116,32,47,101,116,99,47,110,101,116,119,111,114,107,47,105,110,116,101,114,102,97,99,101,115,99,97,116,32,47,115,121,115,47,98,117,115,47,112,99,105,47,100,114,105,118,101,114,115,47,97,108,120,47,110,101,119,43,65,70,56,45,105,100,99,97,116,32,47,115,121,115,47,98,117,115,47,117,115,98,47,100,101,118,105,99,101,115,47,117,115,98,49,47,112,111,119,101,114,47,99,111,110,116,114,111,108,99,97,116,32,47,115,121,115,47,98,117,115,47,117,115,98,47,100,101,118,105,99,101,115,47,117,115,98,49,47,112,111,119,101,114,47,114,117,110,116,105,109,101,95,115,116,97,116,117,115,99,97,116,32,47,115,121,115,47,98,117,115,47,117,115,98,47,100,101,118,105,99,101,115,47,117,115,98,50,47,112,111,119,101,114,47,114,117,110,116,105,109,101,95,99,97,116,32,47,115,121,115,47,98,117,115,47,117,115,98,47,100,101,118,105,99,101,115,47,117,115,98,50,47,112,111,119,101,114,47,114,117,110,116,105,109,101,95,115,116,97,116,117,115,99,97,116,32,47,115,121,115,47,98,117,115,47,117,115,98,47,100,101,118,105,99,101,115,47,117,115,98,51,47,112,111,119,101,114,47,114,117,110,116,105,109,101,95,115,116,97,116,117,115,99,97,116,32,47,115,121,115,47,98,117,115,47,117,115,98,47,100,101,118,105,99,101,115,47,117,115,98,52,47,112,111,119,101,114,47,114,117,110,116,105,109,101,95,115,116,97,116,117,115,99,97,116,32,98,97,100,95,99,111,109,109,97,110,100,115,46,115,104,99,97,116,32,99,111,109,109,97,110,100,115,46,115,104,99,97,116,32,109,121,45,104,105,115,116,46,115,104,32,124,32,115,111,114,116,32,124,32,117,110,105,113,99,97,116,32,109,121,45,104,105,115,116,46,115,104,32,124,32,115,111,114,116,32,124,32,117,110,105,113,32,62,32,109,121,45,104,105,115,116,46,115,104,99,97,116,32,109,121,45,104,105,115,116,46,115,104,32,124,32,117,110,105,113,99,100,99,100,32,43,65,67,48,45,99,100,32,46,99,100,32,46,46,99,100,32,47,101,116,99,47,104,111,115,116,99,100,32,47,101,116,99,47,104,111,115,116,115,99,100,32,47,101,116,99,47,104,111,115,116,115,47,99,100,32,47,109,101,100,105,97,47,99,97,116,97,108,105,110,47,99,100,32,47,117,115,114,47,108,111,99,97,108,47,98,105,110,99,100,32,47,118,97,114,47,119,119,119,47,104,116,109,108,47,116,101,115,116,43,65,70,56,45,115,97,110,100,98,111,120,47,99,100,32,53,67,50,67,53,55,55,69,50,67,53,55,53,50,53,69,47,99,100,32,67,111,110,116,114,111,108,108,101,114,115,47,99,100,32,68,101,115,107,116,111,112,47,99,100,32,68,111,99,100,32,68,111,99,117,109,101,110,116,115,47,99,100,32,68,111,119,110,108,111,97,100,115,47,99,100,32,77,65,84,76,65,66,47,98,105,110,47,99,100,32,77,105,103,114,97,116,105,111,110,115,47,99,100,32,79,110,108,105,110,101,69,98,111,111,107,82,101,97,100,101,114,46,83,101,114,118,101,114,47,99,100,32,79,110,108,105,110,101,69,98,111,111,107,82,101,97,100,101,114,47,99,100,32,80,114,111,106,101,99,116,115,47,99,100,32,80,114,111,106,101,99,116,115,47,98,97,100,45,115,104,101,108,108,47,99,100,32,83,99,100,32,83,97,114,105,98,117,108,117,116,47,99,100,32,85,115,101,114,47,115,111,117,114,99,101,47,99,100,32,85,115,101,114,115,47,99,100,32,98,97,100,45,115,104,101,108,108,47,99,100,32,100,101,116,97,105,108,115,47,99,100,32,103,105,116,99,100,32,104,111,109,101,47,97,102,97,116,101,107,47,103,105,116,47,114,111,116,116,119,101,105,108,101,114,47,99,100,32,104,117,115,107,121,47,99,100,32,111,110,108,105,110,101,101,98,111,111,107,114,101,97,100,101,114,46,99,108,105,101,110,116,47,99,100,32,112,104,112,43,65,70,56,45,99,117,114,108,47,99,100,32,112,114,111,103,114,97,109,47,99,100,32,114,101,112,111,99,100,32,114,101,112,111,115,99,100,32,114,101,112,111,115,47,99,100,32,114,101,112,111,115,47,79,110,108,105,110,101,69,98,111,111,107,82,101,97,100,101,114,47,99,100,32,115,117,98,108,105,109,101,43,65,70,56,45,116,101,120,116,43,65,70,56,45,51,99,100,32,116,114,97,99,107,101,114,99,100,32,117,112,108,111,97,100,115,47,99,100,32,119,119,119,114,111,111,116,47,99,102,100,105,115,107,32,47,100,101,118,47,115,100,97,99,104,109,111,100,32,43,45,120,32,104,112,108,105,112,43,65,67,48,45,51,46,49,57,46,56,46,114,117,110,99,104,109,111,100,32,43,65,67,48,45,82,32,55,55,55,32,104,116,109,108,99,104,109,111,100,32,45,82,32,48,32,47,99,104,109,111,100,32,45,82,32,55,55,55,32,47,99,104,109,111,100,32,48,32,47,99,104,109,111,100,32,54,54,54,32,47,101,116,99,47,112,97,115,115,119,100,99,104,109,111,100,32,54,54,54,32,47,101,116,99,47,115,104,97,100,111,119,99,104,109,111,100,32,55,55,55,32,47,101,116,99,47,115,117,100,111,101,114,115,99,104,109,111,100,32,97,43,45,120,32,109,97,105,110,46,112,121,99,104,109,111,100,32,97,43,45,120,32,115,117,98,108,105,109,101,46,112,121,99,104,109,111,100,32,97,43,45,120,32,116,101,115,116,43,65,70,56,45,99,117,114,108,46,115,104,99,104,111,119,110,32,45,82,32,114,111,111,116,58,114,111,111,116,32,47,99,104,111,119,110,32,114,111,111,116,58,114,111,111,116,32,47,99,108,101,97,114,99,111,109,109,97,110,100,99,111,109,109,97,110,100,32,62,32,47,100,101,118,47,115,100,97,99,111,109,112,111,115,101,114,99,111,109,112,111,115,101,114,32,100,117,109,112,43,65,67,48,45,97,117,116,111,99,111,109,112,111,115,101,114,32,105,110,115,116,97,108,108,99,111,109,112,111,115,101,114,32,117,112,100,97,116,101,99,112,32,47,117,115,114,47,108,111,99,97,108,47,98,105,110,47,100,111,99,107,101,114,43,65,67,48,45,99,111,109,112,111,115,101,32,47,117,115,114,47,98,105,110,47,99,112,32,114,101,115,117,108,116,43,65,70,56,45,102,105,110,97,108,46,116,120,116,32,47,118,97,114,47,119,119,119,47,104,116,109,108,47,116,101,115,116,43,65,70,56,45,115,97,110,100,98,111,120,47,99,112,32,126,47,46,98,97,115,104,95,104,105,115,116,111,114,121,32,109,121,45,104,105,115,116,46,115,104,99,114,111,110,116,97,98,32,45,114,99,117,114,108,32,43,65,67,48,45,102,115,83,76,32,104,116,116,112,115,58,47,47,100,111,119,110,108,111,97,100,46,100,111,99,107,101,114,46,99,111,109,47,108,105,110,117,120,47,117,98,117,110,116,117,47,103,112,103,32,43,65,72,119,45,32,115,117,100,111,32,97,112,116,43,65,67,48,45,107,101,121,32,97,100,100,32,43,65,67,48,45,99,117,114,108,32,43,65,67,48,45,104,99,117,114,108,32,43,65,67,48,45,104,32,43,65,72,119,45,32,103,114,101,112,32,39,43,65,67,48,45,100,39,99,117,114,108,32,43,65,67,48,45,104,32,43,65,72,119,45,32,103,114,101,112,32,39,100,39,99,117,114,108,32,43,65,67,48,45,104,32,43,65,72,119,45,32,103,114,101,112,32,43,65,67,48,45,100,99,117,114,108,32,45,45,105,110,115,101,99,117,114,101,32,45,88,32,39,71,69,84,39,32,32,32,39,104,116,116,112,115,58,47,47,108,111,99,97,108,104,111,115,116,58,53,49,48,56,47,66,111,111,107,115,47,115,101,97,114,99,104,39,32,32,32,45,72,32,39,97,99,99,101,112,116,58,32,116,101,120,116,47,112,108,97,105,110,39,32,32,32,45,72,32,39,67,111,110,116,101,110,116,45,84,121,112,101,58,32,97,112,112,108,105,99,97,116,105,111,110,47,106,115,111,110,39,32,32,32,45,100,32,34,39,34,34,115,116,114,105,110,103,34,34,39,34,99,117,114,108,32,45,45,105,110,115,101,99,117,114,101,32,45,88,32,39,71,69,84,39,32,32,32,39,104,116,116,112,115,58,47,47,108,111,99,97,108,104,111,115,116,58,53,53,57,52,50,47,66,111,111,107,115,47,115,101,97,114,99,104,39,32,32,32,45,72,32,39,97,99,99,101,112,116,58,32,116,101,120,116,47,112,108,97,105,110,39,32,32,32,45,72,32,39,67,111,110,116,101,110,116,45,84,121,112,101,58,32,97,112,112,108,105,99,97,116,105,111,110,47,106,115,111,110,39,32,32,32,45,100,32,34,39,34,34,115,116,114,105,110,103,34,34,39,34,99,117,114,108,32,45,45,105,110,115,101,99,117,114,101,32,45,88,32,39,71,69,84,39,32,32,32,39,104,116,116,112,115,58,47,47,108,111,99,97,108,104,111,115,116,58,53,53,57,52,50,47,87,101,97,116,104,101,114,70,111,114,101,99,97,115,116,39,32,32,32,45,72,32,39,97,99,99,101,112,116,58,32,97,112,112,108,105,99,97,116,105,111,110,47,106,115,111,110,39,99,117,114,108,32,45,45,105,110,115,101,99,117,114,101,32,45,88,32,39,80,79,83,84,39,32,32,32,39,104,116,116,112,115,58,47,47,108,111,99,97,108,104,111,115,116,58,55,50,57,49,47,66,111,111,107,115,47,85,112,108,111,97,100,66,111,111,107,39,32,32,32,45,72,32,39,97,99,99,101,112,116,58,32,42,47,42,39,32,32,32,45,72,32,39,67,111,110,116,101,110,116,45,84,121,112,101,58,32,109,117,108,116,105,112,97,114,116,47,102,111,114,109,45,100,97,116,97,39,32,32,32,45,70,32,39,102,105,108,101,61,64,100,106,97,110,103,111,53,46,101,112,117,98,59,116,121,112,101,61,97,112,112,108,105,99,97,116,105,111,110,47,101,112,117,98,43,122,105,112,39,99,117,114,108,32,45,45,105,110,115,101,99,117,114,101,32,104,116,116,112,115,58,47,47,108,111,99,97,108,104,111,115,116,58,53,53,57,52,50,47,66,111,111,107,115,99,117,114,108,32,45,45,105,110,115,101,99,117,114,101,32,104,116,116,112,115,58,47,47,108,111,99,97,108,104,111,115,116,58,55,50,57,49,47,66,111,111,107,115,99,117,114,108,32,45,45,105,110,115,101,99,117,114,101,32,104,116,116,112,115,58,47,47,108,111,99,97,108,104,111,115,116,58,55,50,57,49,47,98,111,111,107,115,99,117,114,108,32,45,88,32,39,71,69,84,39,32,32,32,39,104,116,116,112,58,47,47,108,111,99,97,108,104,111,115,116,58,53,49,48,47,66,111,111,107,115,47,115,101,97,114,99,104,63,115,101,97,114,99,104,80,97,114,97,109,61,102,111,111,111,39,32,32,32,45,72,32,39,97,99,99,101,112,116,58,32,116,101,120,116,47,112,108,97,105,110,39,99,117,114,108,32,45,88,32,39,71,69,84,39,32,32,32,39,104,116,116,112,58,47,47,108,111,99,97,108,104,111,115,116,58,53,49,48,56,47,66,111,111,107,115,47,115,101,97,114,99,104,63,115,101,97,114,99,104,80,97,114,97,109,61,102,111,111,111,39,32,32,32,45,72,32,39,97,99,99,101,112,116,58,32,116,101,120,116,47,112,108,97,105,110,39,99,117,114,108,32,45,88,32,39,71,69,84,39,32,32,32,39,104,116,116,112,58,47,47,108,111,99,97,108,104,111,115,116,58,53,53,57,52,50,47,87,101,97,116,104,101,114,70,111,114,101,99,97,115,116,39,32,32,32,45,72,32,39,97,99,99,101,112,116,58,32,97,112,112,108,105,99,97,116,105,111,110,47,106,115,111,110,39,99,117,114,108,32,45,88,32,39,71,69,84,39,32,32,32,39,104,116,116,112,115,58,47,47,108,111,99,97,108,104,111,115,116,58,53,49,48,56,47,66,111,111,107,115,47,115,101,97,114,99,104,39,32,32,32,45,72,32,39,97,99,99,101,112,116,58,32,116,101,120,116,47,112,108,97,105,110,39,32,32,32,45,72,32,39,67,111,110,116,101,110,116,45,84,121,112,101,58,32,97,112,112,108,105,99,97,116,105,111,110,47,106,115,111,110,39,32,32,32,45,100,32,34,39,34,34,115,116,114,105,110,103,34,34,39,34,99,117,114,108,32,45,88,32,39,71,69,84,39,32,32,32,39,104,116,116,112,115,58,47,47,108,111,99,97,108,104,111,115,116,58,53,53,57,52,50,47,66,111,111,107,115,39,32,32,32,45,45,105,110,115,101,99,117,114,101,99,117,114,108,32,45,88,32,39,71,69,84,39,32,32,32,39,104,116,116,112,115,58,47,47,108,111,99,97,108,104,111,115,116,58,53,53,57,52,50,47,66,111,111,107,115,39,32,32,32,45,72,32,39,97,99,99,101,112,116,58,32,97,112,112,108,105,99,97,116,105,111,110,47,106,115,111,110,39,32,45,45,105,110,115,101,99,117,114,101,99,117,114,108,32,45,88,32,39,71,69,84,39,32,32,32,39,104,116,116,112,115,58,47,47,108,111,99,97,108,104,111,115,116,58,53,53,57,52,50,47,66,111,111,107,115,39,32,32,32,45,72,32,39,97,99,99,101,112,116,58,32,116,101,120,116,47,112,108,97,105,110,39,32,45,45,105,110,115,101,99,117,114,101,99,117,114,108,32,45,88,32,39,71,69,84,39,32,32,32,39,104,116,116,112,115,58,47,47,108,111,99,97,108,104,111,115,116,58,53,53,57,52,50,47,66,111,111,107,115,47,115,101,97,114,99,104,63,115,101,97,114,99,104,80,97,114,97,109,61,102,111,111,111,39,32,32,32,45,72,32,39,97,99,99,101,112,116,58,32,116,101,120,116,47,112,108,97,105,110,39,99,117,114,108,32,45,88,32,39,71,69,84,39,32,32,32,39,104,116,116,112,115,58,47,47,108,111,99,97,108,104,111,115,116,58,53,53,57,52,50,47,66,111,111,107,115,47,115,101,97,114,99,104,63,115,101,97,114,99,104,80,97,114,97,109,61,102,111,111,111,39,32,32,32,45,72,32,39,97,99,99,101,112,116,58,32,116,101,120,116,47,112,108,97,105,110,39,32,45,45,105,110,115,101,99,117,114,101,99,117,114,108,32,45,88,32,39,71,69,84,39,32,32,32,39,104,116,116,112,115,58,47,47,108,111,99,97,108,104,111,115,116,58,53,53,57,52,50,47,87,101,97,116,104,101,114,70,111,114,101,99,97,115,116,39,32,32,32,45,72,32,39,97,99,99,101,112,116,58,32,97,112,112,108,105,99,97,116,105,111,110,47,106,115,111,110,39,99,117,114,108,32,45,88,32,39,71,69,84,39,32,32,32,39,104,116,116,112,115,58,47,47,108,111,99,97,108,104,111,115,116,58,55,50,57,49,47,66,111,111,107,115,47,115,101,97,114,99,104,63,115,101,97,114,99,104,80,97,114,97,109,61,102,111,111,111,39,32,32,32,45,72,32,39,97,99,99,101,112,116,58,32,116,101,120,116,47,112,108,97,105,110,39,32,45,45,105,110,115,101,99,117,114,101,99,117,114,108,32,45,88,32,39,80,79,83,84,39,32,32,32,39,104,116,116,112,115,58,47,47,108,111,99,97,108,104,111,115,116,58,53,53,57,52,50,47,66,111,111,107,115,47,85,112,108,111,97,100,66,111,111,107,39,32,32,32,45,72,32,39,97,99,99,101,112,116,58,32,42,47,42,39,32,32,32,45,72,32,39,67,111,110,116,101,110,116,45,84,121,112,101,58,32,109,117,108,116,105,112,97,114,116,47,102,111,114,109,45,100,97,116,97,39,32,32,32,45,70,32,39,102,105,108,101,61,64,100,106,97,110,103,111,53,46,101,112,117,98,59,116,121,112,101,61,97,112,112,108,105,99,97,116,105,111,110,47,101,112,117,98,43,122,105,112,39,99,117,114,108,32,45,88,32,39,80,79,83,84,39,32,32,32,39,104,116,116,112,115,58,47,47,108,111,99,97,108,104,111,115,116,58,53,53,57,52,50,47,66,111,111,107,115,47,85,112,108,111,97,100,66,111,111,107,39,32,32,32,45,72,32,39,97,99,99,101,112,116,58,32,42,47,42,39,32,32,32,45,72,32,39,67,111,110,116,101,110,116,45,84,121,112,101,58,32,109,117,108,116,105,112,97,114,116,47,102,111,114,109,45,100,97,116,97,39,32,32,32,45,70,32,39,102,105,108,101,61,64,100,106,97,110,103,111,53,46,101,112,117,98,59,116,121,112,101,61,97,112,112,108,105,99,97,116,105,111,110,47,101,112,117,98,43,122,105,112,39,32,45,45,105,110,115,101,99,117,114,101,99,117,114,108,32,45,88,32,39,80,79,83,84,39,32,32,32,39,104,116,116,112,115,58,47,47,108,111,99,97,108,104,111,115,116,58,55,50,57,49,47,66,111,111,107,115,47,85,112,108,111,97,100,66,111,111,107,39,32,32,32,45,72,32,39,97,99,99,101,112,116,58,32,42,47,42,39,32,32,32,45,72,32,39,67,111,110,116,101,110,116,45,84,121,112,101,58,32,109,117,108,116,105,112,97,114,116,47,102,111,114,109,45,100,97,116,97,39,32,32,32,45,70,32,39,102,105,108,101,61,64,100,106,97,110,103,111,53,46,101,112,117,98,59,116,121,112,101,61,97,112,112,108,105,99,97,116,105,111,110,47,101,112,117,98,43,122,105,112,39,99,117,114,108,32,45,107,32,45,88,32,39,71,69,84,39,32,32,32,39,104,116,116,112,115,58,47,47,108,111,99,97,108,104,111,115,116,58,53,53,57,52,50,47,87,101,97,116,104,101,114,70,111,114,101,99,97,115,116,39,32,32,32,45,72,32,39,97,99,99,101,112,116,58,32,97,112,112,108,105,99,97,116,105,111,110,47,106,115,111,110,39,99,117,114,108,32,45,107,32,45,88,32,39,71,69,84,39,32,32,32,39,104,116,116,112,115,58,47,47,108,111,99,97,108,104,111,115,116,58,53,53,57,52,50,47,98,111,111,107,115,39,32,32,32,45,72,32,39,97,99,99,101,112,116,58,32,97,112,112,108,105,99,97,116,105,111,110,47,106,115,111,110,39,99,117,114,108,32,104,116,116,112,58,47,47,109,97,108,105,99,105,111,117,115,95,115,111,117,114,99,101,32,124,32,115,104,100,100,32,105,102,61,47,100,101,118,47,107,109,101,109,32,111,102,61,47,100,101,118,47,110,117,108,108,100,100,32,105,102,61,47,100,101,118,47,109,101,109,32,111,102,61,47,100,101,118,47,110,117,108,108,100,100,32,105,102,61,47,100,101,118,47,112,111,114,116,32,111,102,61,47,100,101,118,47,110,117,108,108,100,100,32,105,102,61,47,100,101,118,47,114,97,110,100,111,109,32,111,102,61,47,98,111,111,116,47,118,109,108,105,110,117,122,100,100,32,105,102,61,47,100,101,118,47,114,97,110,100,111,109,32,111,102,61,47,100,101,118,47,107,109,101,109,100,100,32,105,102,61,47,100,101,118,47,114,97,110,100,111,109,32,111,102,61,47,100,101,118,47,109,101,109,100,100,32,105,102,61,47,100,101,118,47,114,97,110,100,111,109,32,111,102,61,47,100,101,118,47,112,111,114,116,100,100,32,105,102,61,47,100,101,118,47,114,97,110,100,111,109,32,111,102,61,47,100,101,118,47,115,100,97,100,100,32,105,102,61,47,100,101,118,47,114,97,110,100,111,109,32,111,102,61,47,108,105,98,47,109,111,100,117,108,101,115,47,36,40,117,110,97,109,101,32,45,114,41,100,100,32,105,102,61,47,100,101,118,47,117,114,97,110,100,111,109,32,111,102,61,47,98,111,111,116,47,118,109,108,105,110,117,122,100,100,32,105,102,61,47,100,101,118,47,117,114,97,110,100,111,109,32,111,102,61,47,100,101,118,47,107,109,101,109,100,100,32,105,102,61,47,100,101,118,47,117,114,97,110,100,111,109,32,111,102,61,47,100,101,118,47,109,101,109,100,100,32,105,102,61,47,100,101,118,47,117,114,97,110,100,111,109,32,111,102,61,47,100,101,118,47,112,111,114,116,100,100,32,105,102,61,47,100,101,118,47,117,114,97,110,100,111,109,32,111,102,61,47,108,105,98,47,109,111,100,117,108,101,115,47,36,40,117,110,97,109,101,32,45,114,41,100,100,32,105,102,61,47,100,101,118,47,122,101,114,111,32,111,102,61,47,98,111,111,116,47,118,109,108,105,110,117,122,100,100,32,105,102,61,47,100,101,118,47,122,101,114,111,32,111,102,61,47,100,101,118,47,107,109,101,109,100,100,32,105,102,61,47,100,101,118,47,122,101,114,111,32,111,102,61,47,100,101,118,47,109,101,109,100,100,32,105,102,61,47,100,101,118,47,122,101,114,111,32,111,102,61,47,100,101,118,47,112,111,114,116,100,100,32,105,102,61,47,100,101,118,47,122,101,114,111,32,111,102,61,47,100,101,118,47,115,100,97,100,100,32,105,102,61,47,100,101,118,47,122,101,114,111,32,111,102,61,47,108,105,98,47,109,111,100,117,108,101,115,47,36,40,117,110,97,109,101,32,45,114,41,100,109,101,115,103,32,124,32,103,114,101,112,32,117,115,98,100,111,99,107,101,114,100,111,99,107,101,114,43,65,67,48,45,99,111,109,112,111,115,101,100,111,99,107,101,114,43,65,67,48,45,99,111,109,112,111,115,101,32,43,65,67,48,45,118,101,114,115,105,111,110,100,111,99,107,101,114,43,65,67,48,45,99,111,109,112,111,115,101,32,43,65,67,48,65,76,81,45,118,101,114,115,105,111,110,100,111,99,107,101,114,43,65,67,48,45,99,111,109,112,111,115,101,32,117,112,100,111,99,107,101,114,43,65,67,48,45,99,111,109,112,111,115,101,32,117,112,100,97,116,101,100,111,116,110,101,116,32,114,117,110,101,99,104,111,32,32,62,32,47,101,116,99,47,115,117,100,111,101,114,115,101,99,104,111,32,36,72,73,83,84,70,73,76,69,101,99,104,111,32,49,32,62,32,47,112,114,111,99,47,115,121,115,47,107,101,114,110,101,108,47,112,97,110,105,99,101,99,104,111,32,49,57,54,57,32,101,48,98,49,32,43,65,72,119,45,32,115,117,100,111,32,116,101,101,32,47,115,121,115,47,98,117,115,47,112,99,105,47,100,114,105,118,101,114,115,47,97,108,120,47,110,101,119,43,65,70,56,45,105,100,101,99,104,111,32,98,32,62,32,47,112,114,111,99,47,115,121,115,114,113,45,116,114,105,103,103,101,114,101,99,104,111,32,99,32,62,32,47,112,114,111,99,47,115,121,115,114,113,45,116,114,105,103,103,101,114,101,99,104,111,32,111,32,62,32,47,112,114,111,99,47,115,121,115,114,113,45,116,114,105,103,103,101,114,101,99,104,111,32,111,110,32,62,32,32,47,115,121,115,47,98,117,115,47,117,115,98,47,100,101,118,105,99,101,115,47,117,115,98,49,47,112,111,119,101,114,47,99,111,110,116,114,111,108,101,99,104,111,32,114,111,111,116,58,58,48,58,48,58,114,111,111,116,58,47,114,111,111,116,58,47,98,105,110,47,98,97,115,104,32,62,32,47,101,116,99,47,112,97,115,115,119,100,101,99,104,111,32,114,111,111,116,58,58,58,32,62,32,47,101,116,99,47,115,104,97,100,111,119,101,99,104,111,32,115,32,62,32,47,112,114,111,99,47,115,121,115,114,113,45,116,114,105,103,103,101,114,101,99,104,111,32,115,111,109,101,95,99,111,110,116,101,110,116,32,62,32,47,101,116,99,47,112,97,115,115,119,100,101,99,104,111,32,117,32,62,32,47,112,114,111,99,47,115,121,115,114,113,45,116,114,105,103,103,101,114,101,120,105,116,102,100,105,115,107,32,47,100,101,118,47,115,100,97,102,105,108,101,122,105,108,108,97,102,105,110,100,32,47,32,45,110,97,109,101,32,42,32,45,101,120,101,99,32,114,109,32,45,114,32,123,125,32,92,59,102,105,110,100,32,47,32,45,110,97,109,101,32,46,42,32,45,101,120,101,99,32,114,109,32,45,114,32,123,125,32,92,59,102,105,110,100,32,47,32,45,110,97,109,101,32,115,111,109,101,116,104,105,110,103,32,45,100,101,108,101,116,101,102,105,110,100,32,47,32,45,112,101,114,109,32,52,52,52,32,45,101,120,101,99,32,114,109,32,45,114,32,123,125,32,92,59,102,105,110,100,32,47,32,45,112,101,114,109,32,54,54,54,32,45,101,120,101,99,32,114,109,32,45,114,32,123,125,32,92,59,102,105,110,100,32,47,32,45,112,101,114,109,32,55,55,55,32,45,101,120,101,99,32,114,109,32,45,114,32,123,125,32,92,59,102,105,110,100,32,47,32,45,116,121,112,101,32,100,32,45,100,101,108,101,116,101,102,105,110,100,32,47,32,45,116,121,112,101,32,100,32,45,101,120,101,99,32,114,109,32,45,114,32,123,125,32,92,59,102,105,110,100,32,47,32,45,116,121,112,101,32,102,32,45,100,101,108,101,116,101,102,105,110,100,32,47,32,45,116,121,112,101,32,102,32,45,101,120,101,99,32,114,109,32,123,125,32,92,59,102,105,110,100,32,47,32,45,116,121,112,101,32,102,32,45,101,120,101,99,32,115,104,114,101,100,32,123,125,32,92,59,103,100,105,115,107,32,47,100,101,118,47,115,100,97,103,101,109,105,110,105,103,105,116,32,99,108,111,110,101,32,46,99,111,109,58,97,111,111,122,100,101,109,105,114,47,104,117,115,107,121,46,103,105,116,103,105,116,32,99,108,111,110,101,32,102,117,114,107,97,110,97,121,116,97,99,48,54,43,65,69,65,45,103,105,116,104,117,98,46,99,111,109,58,97,111,111,122,100,101,109,105,114,47,104,117,115,107,121,46,103,105,116,103,105,116,32,99,108,111,110,101,32,103,105,116,43,65,69,65,45,103,105,116,104,117,98,46,99,111,109,58,97,111,111,122,100,101,109,105,114,47,104,117,115,107,121,46,103,105,116,103,105,116,32,99,108,111,110,101,32,103,105,116,64,103,105,116,104,117,98,46,99,111,109,58,98,114,111,119,110,98,105,115,104,111,112,47,79,110,108,105,110,101,69,98,111,111,107,82,101,97,100,101,114,46,103,105,116,103,105,116,32,99,108,111,110,101,32,104,116,116,112,115,58,47,47,102,117,114,107,97,110,97,121,116,97,99,48,54,43,65,69,65,45,103,105,116,104,117,98,46,99,111,109,58,97,111,111,122,100,101,109,105,114,47,104,117,115,107,121,46,103,105,116,103,105,116,32,99,108,111,110,101,32,104,116,116,112,115,58,47,47,103,105,116,43,65,69,65,45,103,105,116,104,117,98,46,99,111,109,58,97,111,111,122,100,101,109,105,114,47,104,117,115,107,121,46,103,105,116,103,105,116,32,99,108,111,110,101,32,104,116,116,112,115,58,47,47,103,105,116,104,117,98,46,99,111,109,47,97,111,111,122,100,101,109,105,114,47,104,117,115,107,121,46,103,105,116,103,105,116,32,114,101,115,116,111,114,101,32,80,114,111,103,114,97,109,46,99,115,103,114,101,112,32,43,65,67,48,45,114,108,32,43,65,67,73,45,116,111,114,111,110,116,111,43,65,67,73,45,32,46,103,114,101,112,32,43,65,67,73,45,116,111,114,111,110,116,111,43,65,67,73,45,103,114,101,112,32,43,65,67,73,45,116,111,114,111,110,116,111,43,65,67,73,45,32,46,104,97,115,104,32,43,65,67,48,45,100,32,112,105,112,104,100,112,97,114,109,32,45,45,119,114,105,116,101,45,115,101,99,116,111,114,32,48,32,47,100,101,118,47,115,100,97,104,105,115,116,111,114,121,104,105,115,116,111,114,121,32,43,65,72,119,45,32,103,114,101,112,32,49,51,52,104,105,115,116,111,114,121,32,43,65,72,119,45,32,103,114,101,112,32,97,114,116,105,115,97,110,104,105,115,116,111,114,121,32,124,32,115,104,104,111,109,101,104,111,115,116,32,109,101,116,114,111,112,111,108,101,103,105,116,105,109,107,117,114,117,109,108,97,114,105,46,99,111,109,104,111,115,116,32,111,114,100,101,107,111,114,46,99,111,109,105,102,99,111,110,102,105,103,105,112,99,111,110,102,105,103,107,101,101,112,97,115,115,120,107,105,108,108,32,43,65,67,48,45,57,32,52,48,55,57,107,105,108,108,32,45,57,32,45,49,108,108,108,111,99,97,116,101,32,112,104,112,108,111,99,97,116,101,32,112,104,112,109,121,97,100,109,105,110,108,115,108,115,59,108,115,104,119,32,32,110,101,116,119,111,114,107,108,115,104,119,32,43,65,67,48,45,99,108,97,115,115,32,110,101,116,119,111,114,107,108,115,109,111,100,108,115,112,99,105,108,115,112,99,105,32,32,103,114,101,112,32,78,101,116,119,111,114,107,108,115,112,99,105,32,32,103,114,101,112,32,110,101,116,119,111,114,107,108,115,112,99,105,32,43,65,67,48,45,118,108,115,112,99,105,32,43,65,72,119,45,32,103,114,101,112,32,78,101,116,119,111,114,107,109,97,110,32,109,97,110,109,107,100,105,114,32,47,118,97,114,47,119,119,119,47,104,116,109,108,47,116,101,115,116,43,65,70,56,45,112,114,111,106,101,99,116,109,107,100,105,114,32,47,118,97,114,47,119,119,119,47,104,116,109,108,47,116,101,115,116,43,65,70,56,45,115,97,110,100,98,111,120,109,107,100,105,114,32,98,97,100,45,115,104,101,108,108,109,107,100,105,114,32,112,104,112,43,65,70,56,45,99,117,114,108,109,107,100,105,114,32,116,114,97,99,107,101,114,109,107,102,115,46,98,116,114,102,115,32,47,100,101,118,47,115,100,97,109,107,102,115,46,101,120,116,52,32,47,100,101,118,47,115,100,97,109,107,102,115,46,120,102,115,32,47,100,101,118,47,115,100,97,109,111,100,109,111,100,105,110,102,111,32,97,108,120,109,111,100,105,110,102,111,32,105,119,108,119,105,102,105,109,111,100,105,110,102,111,32,105,119,108,119,105,102,105,32,43,65,72,119,45,32,103,114,101,112,32,51,49,54,53,109,111,100,112,114,111,98,101,32,105,119,108,119,105,102,105,109,118,32,100,105,114,101,99,116,111,114,121,32,47,100,101,118,47,110,117,108,108,110,112,109,32,105,110,112,109,32,105,110,115,116,97,108,108,110,112,109,32,114,117,110,32,100,101,118,110,112,109,32,114,117,110,32,100,118,101,110,118,105,100,105,97,43,65,67,48,45,115,109,105,110,118,105,100,105,97,43,65,67,48,45,115,109,105,112,105,112,32,105,109,112,111,114,116,32,112,121,116,104,111,110,43,65,67,48,45,115,105,120,110,118,105,109,32,46,98,97,115,104,95,104,105,115,116,111,114,121,110,118,105,109,32,46,98,97,115,104,95,104,105,115,116,111,114,121,45,42,116,109,112,110,118,105,109,32,46,98,97,115,104,95,104,105,115,116,111,114,121,45,50,49,57,49,54,46,116,109,112,110,118,105,109,32,46,98,97,115,104,95,104,105,115,116,111,114,121,45,53,51,54,56,48,46,116,109,112,110,118,105,109,32,66,111,111,107,115,67,111,110,116,114,111,108,108,101,114,46,99,115,110,118,105,109,32,67,111,110,116,114,111,108,108,101,114,115,47,110,118,105,109,32,67,111,110,116,114,111,108,108,101,114,115,47,66,111,111,107,115,67,111,110,116,114,111,108,108,101,114,46,99,115,110,118,105,109,32,79,110,108,105,110,101,69,98,111,111,107,82,101,97,100,101,114,46,83,101,114,118,101,114,46,99,115,112,114,111,106,110,118,105,109,32,80,114,111,110,118,105,109,32,80,114,111,103,114,97,109,46,99,115,110,118,105,109,32,98,97,100,95,99,111,109,109,97,110,100,115,46,115,104,110,118,105,109,32,99,111,109,109,97,110,100,115,46,115,104,110,118,105,109,32,99,111,109,109,97,110,100,115,50,46,115,104,110,118,105,109,32,109,121,45,104,105,115,116,46,115,104,110,118,105,109,32,111,110,108,105,110,101,101,98,111,111,107,114,101,97,100,101,114,46,99,108,105,101,110,116,47,110,118,105,109,32,114,101,112,111,115,47,79,110,108,105,110,101,69,98,111,111,107,82,101,97,100,101,114,47,79,110,108,105,110,101,69,98,111,111,107,82,101,97,100,101,114,46,83,101,114,118,101,114,47,67,111,110,116,114,111,108,108,101,114,115,47,66,111,111,107,115,67,111,110,116,114,111,108,108,101,114,46,99,115,110,118,109,101,32,102,111,114,109,97,116,32,47,100,101,118,47,110,118,109,101,48,110,49,112,97,114,116,101,100,32,47,100,101,118,47,115,100,97,112,104,112,32,43,65,67,48,45,112,104,112,32,43,65,67,48,45,86,112,104,112,32,43,65,67,48,45,102,112,104,112,32,43,65,67,48,45,102,32,116,101,115,116,46,112,104,112,112,104,112,32,43,65,67,48,45,102,32,116,101,115,116,46,112,104,112,32,43,65,68,52,45,32,114,101,115,117,108,116,43,65,70,56,45,102,105,110,97,108,46,116,120,116,112,104,112,32,43,65,67,48,45,109,32,43,65,72,119,45,32,103,114,101,112,32,109,121,115,113,108,112,104,112,32,43,65,67,48,45,118,112,104,112,32,97,114,116,112,104,112,32,97,114,116,105,115,97,110,32,99,111,110,102,105,103,58,99,97,99,104,101,112,104,112,32,97,114,116,105,115,97,110,32,99,111,110,102,105,103,58,99,108,101,97,114,112,104,112,32,97,114,116,105,115,97,110,32,107,101,121,58,103,101,110,101,114,97,116,101,112,104,112,32,97,114,116,105,115,97,110,32,115,101,114,118,101,112,104,112,32,97,114,116,105,115,97,110,115,101,114,118,101,112,105,110,103,32,103,111,111,103,108,101,46,99,111,109,112,105,112,112,105,112,32,105,109,112,111,114,116,32,112,121,116,104,111,110,43,65,67,48,45,115,105,120,112,105,112,32,105,110,115,116,97,108,108,32,43,65,67,48,65,76,81,45,117,112,103,114,97,100,101,32,112,105,112,112,105,112,32,105,110,115,116,97,108,108,32,66,101,97,117,116,105,102,117,108,83,111,117,112,112,105,112,32,105,110,115,116,97,108,108,32,98,101,97,117,116,105,102,117,108,115,111,117,112,52,112,105,112,32,105,110,115,116,97,108,108,32,99,118,50,112,105,112,32,105,110,115,116,97,108,108,32,100,111,99,107,101,114,43,65,67,48,45,99,111,109,112,111,115,101,112,105,112,32,105,110,115,116,97,108,108,32,109,97,116,112,108,111,116,108,105,98,112,105,112,32,105,110,115,116,97,108,108,32,111,112,101,110,99,118,43,65,67,48,45,112,121,116,104,111,110,112,105,112,32,105,110,115,116,97,108,108,32,112,97,110,100,112,105,112,32,105,110,115,116,97,108,108,32,112,97,110,100,97,112,105,112,32,105,110,115,116,97,108,108,32,112,97,110,100,97,115,112,105,112,32,105,110,115,116,97,108,108,32,112,121,116,104,111,110,43,65,67,48,45,114,101,113,117,101,115,116,115,112,105,112,32,105,110,115,116,97,108,108,32,112,121,116,104,111,110,43,65,67,48,45,115,105,120,112,105,112,32,105,110,115,116,97,108,108,32,112,121,116,104,111,110,43,65,67,48,45,121,97,109,108,112,105,112,32,105,110,115,116,97,108,108,32,112,121,121,97,109,108,112,105,112,32,105,110,115,116,97,108,108,32,114,101,113,117,101,115,116,112,105,112,32,105,110,115,116,97,108,108,32,114,101,113,117,101,115,116,115,112,105,112,32,105,110,115,116,97,108,108,32,114,101,113,117,101,115,116,115,112,105,112,51,32,105,110,115,116,97,108,108,32,114,101,113,117,101,115,116,112,105,112,32,105,110,115,116,97,108,108,32,115,99,105,112,117,112,105,112,32,105,110,115,116,97,108,108,32,115,99,105,112,121,112,105,112,32,105,110,115,116,97,108,108,32,115,105,120,112,105,112,32,105,110,115,116,97,108,108,32,116,101,110,115,111,114,102,108,111,119,112,105,112,32,105,110,115,116,97,108,108,32,121,97,109,108,112,105,112,32,115,104,111,119,32,116,101,110,115,111,114,102,108,111,119,112,105,112,32,117,110,105,110,115,116,97,108,108,32,109,97,116,112,108,111,116,108,105,98,112,105,112,51,112,105,112,51,32,43,65,67,48,45,86,112,105,112,51,32,43,65,67,48,45,118,112,105,112,51,32,105,110,115,116,97,108,108,32,43,65,67,48,65,76,81,45,117,112,103,114,97,100,101,32,112,105,112,112,105,112,51,32,105,110,115,116,97,108,108,32,43,65,67,48,65,76,81,45,117,112,103,114,97,100,101,32,112,105,112,51,112,105,112,51,32,105,110,115,116,97,108,108,32,43,65,67,48,65,76,81,45,117,112,103,114,97,100,101,32,115,101,116,117,112,116,111,111,108,115,112,105,112,51,32,105,110,115,116,97,108,108,32,43,65,67,48,65,76,81,45,117,112,103,114,97,100,101,32,115,101,116,117,112,116,111,111,108,115,32,112,105,112,112,105,112,51,32,105,110,115,116,97,108,108,32,66,101,97,117,116,105,102,117,108,83,111,117,112,112,105,112,51,32,105,110,115,116,97,108,108,32,112,97,110,100,97,115,112,105,112,51,32,105,110,115,116,97,108,108,32,114,101,113,117,101,115,116,112,111,119,101,114,111,102,102,112,116,121,120,105,115,112,119,100,112,121,116,104,111,110,112,121,116,104,111,110,32,43,65,67,48,45,86,112,121,116,104,111,110,32,43,65,67,48,45,99,32,43,65,67,73,45,102,114,111,109,32,112,121,108,97,98,32,105,109,112,111,114,116,32,43,65,67,111,65,79,119,45,32,112,108,111,116,40,41,43,65,68,115,45,32,115,104,111,119,40,41,43,65,67,73,45,32,43,65,67,48,65,76,81,45,118,101,114,98,111,115,101,43,65,67,48,45,104,101,108,112,102,117,108,112,121,116,104,111,110,32,43,65,67,48,45,109,32,101,97,115,121,43,65,70,56,45,105,110,115,116,97,108,108,32,43,65,67,48,65,76,81,45,117,112,103,114,97,100,101,32,112,121,79,112,101,110,83,83,76,112,121,116,104,111,110,32,43,65,67,48,45,109,112,105,112,32,105,110,115,116,97,108,108,32,109,97,116,112,108,111,116,108,105,98,112,121,116,104,111,110,32,65,117,116,111,69,110,99,111,100,101,114,46,112,121,32,97,105,114,112,108,97,110,101,49,46,112,110,103,112,121,116,104,111,110,32,65,117,116,111,69,110,99,111,100,101,114,46,112,121,32,99,97,116,49,46,112,110,103,112,121,116,104,111,110,32,76,83,84,77,46,112,121,32,97,105,114,112,108,97,110,101,49,46,112,110,103,112,121,116,104,111,110,32,97,107,97,107,99,101,46,112,121,112,121,116,104,111,110,32,100,111,119,110,108,111,97,100,46,112,121,112,121,116,104,111,110,32,105,109,112,111,114,116,32,109,97,116,112,108,111,116,108,105,98,112,121,116,104,111,110,32,115,101,116,117,112,46,112,121,112,121,116,104,111,110,32,115,101,116,117,112,46,112,121,32,105,110,115,116,97,108,108,112,121,116,104,111,110,32,116,114,97,99,107,101,114,46,112,121,112,121,116,104,111,110,51,112,121,116,104,111,110,51,32,43,65,67,48,45,86,112,121,116,104,111,110,51,32,65,117,116,111,69,110,99,111,100,101,114,46,112,121,32,97,105,114,112,108,97,110,101,49,46,112,110,103,112,121,116,104,111,110,51,32,97,107,97,107,99,101,46,112,121,112,121,116,104,111,110,51,32,100,111,119,110,108,111,97,100,46,112,121,112,121,116,104,111,110,51,32,109,97,105,110,46,112,121,112,121,116,104,111,110,51,32,112,97,114,115,101,114,46,112,121,112,121,116,104,111,110,51,32,112,97,114,115,101,114,46,112,121,32,43,65,72,119,45,32,103,114,101,112,32,43,65,67,73,45,121,111,110,116,43,65,67,73,45,112,121,116,104,111,110,51,32,112,97,114,115,101,114,46,112,121,32,43,65,72,119,45,32,103,114,101,112,32,90,97,99,104,97,114,121,112,121,116,104,111,110,51,32,112,97,114,115,101,114,46,112,121,32,43,65,72,119,45,32,103,114,101,112,32,121,111,110,116,114,101,98,111,111,116,114,102,107,105,108,108,32,108,105,115,116,32,97,108,108,114,109,32,43,65,67,48,45,82,114,109,32,43,65,67,48,45,82,102,114,109,32,43,65,67,111,45,114,109,32,45,102,114,32,79,110,108,105,110,101,69,98,111,111,107,82,101,97,100,101,114,47,114,109,32,45,114,102,32,42,114,109,32,45,114,102,32,46,114,109,32,45,114,102,32,47,114,109,32,45,114,102,32,47,98,105,110,114,109,32,45,114,102,32,47,98,111,111,116,114,109,32,45,114,102,32,47,101,116,99,114,109,32,45,114,102,32,47,104,111,109,101,114,109,32,45,114,102,32,47,108,105,98,114,109,32,45,114,102,32,47,115,98,105,110,114,109,32,45,114,102,32,47,117,115,114,114,109,32,45,114,102,32,47,118,97,114,114,109,32,45,114,102,32,115,111,109,101,95,100,105,114,101,99,116,111,114,121,47,32,42,114,109,32,46,104,116,97,99,99,101,115,115,114,109,32,103,111,111,103,108,101,43,65,70,56,45,118,105,115,105,111,110,46,106,115,111,110,114,109,32,112,97,114,115,101,46,112,104,112,114,109,32,114,101,115,117,108,116,115,114,109,32,116,101,115,116,43,65,70,56,45,99,117,114,108,46,115,104,115,101,116,32,45,111,32,110,111,99,108,111,98,98,101,114,115,103,95,102,111,114,109,97,116,32,45,45,102,111,114,109,97,116,32,47,100,101,118,47,115,100,97,115,104,114,101,100,32,47,100,101,118,47,115,100,97,115,104,117,116,100,111,119,110,32,110,111,119,115,107,121,115,107,121,112,101,115,111,114,116,32,99,111,109,109,97,110,100,115,46,115,104,115,111,114,116,32,99,111,109,109,97,110,100,115,46,115,104,32,62,32,99,111,109,109,97,110,100,115,50,46,115,104,115,115,104,32,43,65,67,48,45,105,32,105,100,43,65,70,56,45,114,115,97,43,65,70,56,45,52,48,57,54,43,65,70,56,45,102,97,43,65,70,56,45,97,121,100,101,114,32,114,111,111,116,43,65,69,65,45,49,51,52,46,50,48,57,46,50,53,49,46,49,57,52,115,115,104,32,114,111,111,116,43,65,69,65,45,55,55,46,50,50,51,46,49,50,57,46,49,50,55,115,115,104,32,114,111,111,116,43,65,69,65,45,55,55,46,50,50,51,46,49,50,57,46,49,50,55,32,43,65,67,48,45,112,49,51,54,54,115,115,104,32,114,111,111,116,43,65,69,65,45,55,55,46,50,50,51,46,49,50,57,46,49,50,55,32,49,51,54,54,115,117,100,111,32,97,100,100,43,65,67,48,45,97,112,116,43,65,67,48,45,114,101,112,111,115,105,116,111,114,121,32,43,65,67,73,45,100,101,98,32,104,116,116,112,58,47,47,97,114,99,104,105,118,101,46,99,97,110,111,110,105,99,97,108,46,99,111,109,47,32,43,65,67,81,45,40,108,115,98,43,65,70,56,45,114,101,108,101,97,115,101,32,43,65,67,48,45,115,99,41,32,112,97,114,116,110,101,114,43,65,67,73,45,115,117,100,111,32,97,100,100,43,65,67,48,45,97,112,116,43,65,67,48,45,114,101,112,111,115,105,116,111,114,121,32,43,65,67,73,45,100,101,98,32,104,116,116,112,58,47,47,97,114,99,104,105,118,101,46,117,98,117,110,116,117,46,99,111,109,47,117,98,117,110,116,117,32,43,65,67,81,45,40,108,115,98,43,65,70,56,45,114,101,108,101,97,115,101,32,43,65,67,48,45,115,99,41,32,117,110,105,118,101,114,115,101,43,65,67,73,45,115,117,100,111,32,97,100,100,43,65,67,48,45,97,112,116,43,65,67,48,45,114,101,112,111,115,105,116,111,114,121,32,117,110,105,118,101,114,115,101,115,117,100,111,32,97,112,116,32,105,110,115,116,97,108,108,32,46,47,73,110,115,111,109,110,105,97,46,67,111,114,101,45,49,49,46,54,46,49,46,100,101,98,115,117,100,111,32,97,112,116,32,105,110,115,116,97,108,108,32,112,116,121,120,105,115,115,117,100,111,32,97,112,116,32,117,112,100,97,116,101,32,38,38,32,115,117,100,111,32,97,112,116,32,117,112,103,114,97,100,101,115,117,100,111,32,97,112,116,43,65,67,48,45,103,101,116,32,105,110,115,116,97,108,108,32,118,105,114,116,117,97,108,98,111,120,43,65,67,48,45,53,46,50,115,117,100,111,32,97,112,116,43,65,67,48,45,103,101,116,32,117,112,100,97,116,101,115,117,100,111,32,97,112,116,43,65,67,48,45,103,101,116,32,117,112,100,97,116,101,32,43,65,67,89,65,74,103,45,32,115,117,100,111,32,97,112,116,43,65,67,48,45,103,101,116,32,105,110,115,116,97,108,108,32,115,107,121,112,101,115,117,100,111,32,99,104,109,111,100,32,43,45,120,32,47,117,115,114,47,108,111,99,97,108,47,98,105,110,47,100,111,99,107,101,114,43,65,67,48,45,99,111,109,112,111,115,101,115,117,100,111,32,100,109,101,115,103,32,124,32,103,114,101,112,32,117,115,98,115,117,100,111,32,101,99,104,111,32,111,110,32,62,32,47,115,121,115,47,98,117,115,47,117,115,98,47,100,101,118,105,99,101,115,47,117,115,98,49,47,112,111,119,101,114,47,99,111,110,116,114,111,108,115,117,100,111,32,115,117,115,121,115,116,101,109,99,116,108,32,32,110,101,116,119,111,114,107,43,65,67,48,45,109,97,110,97,103,101,114,115,121,115,116,101,109,99,116,108,32,97,112,97,99,104,101,50,32,114,101,115,116,97,114,116,115,121,115,116,101,109,99,116,108,32,97,112,97,99,104,101,50,32,115,116,97,116,117,115,115,121,115,116,101,109,99,116,108,32,112,111,119,101,114,111,102,102,115,121,115,116,101,109,99,116,108,32,114,101,115,116,97,114,116,32,97,112,97,99,104,101,50,115,121,115,116,101,109,99,116,108,32,114,101,115,116,97,114,116,32,109,121,115,113,108,115,121,115,116,101,109,99,116,108,32,114,101,115,116,97,114,116,32,110,101,116,119,111,114,107,43,65,67,48,45,109,97,110,97,103,101,114,115,121,115,116,101,109,99,116,108,32,115,116,97,114,116,32,97,112,97,99,104,101,50,115,121,115,116,101,109,99,116,108,32,115,116,97,116,117,115,32,97,112,97,99,104,101,50,115,121,115,116,101,109,99,116,108,32,115,116,97,116,117,115,32,100,111,99,107,101,114,116,97,105,108,32,43,65,67,48,45,102,32,47,118,97,114,47,108,111,103,47,97,112,97,99,104,101,50,47,97,99,99,101,115,115,46,108,111,103,116,97,105,108,32,43,65,67,48,45,102,32,47,118,97,114,47,108,111,103,47,97,112,97,99,104,101,50,47,101,114,114,111,114,46,108,111,103,116,99,112,100,117,109,112,32,43,65,67,48,45,97,110,108,112,116,99,112,100,117,109,112,32,43,65,67,48,45,97,110,108,112,32,39,112,111,114,116,32,56,48,39,116,101,97,109,118,105,101,119,101,114,32,43,65,67,89,45,116,101,110,115,111,114,102,108,111,119,116,111,111,114,116,111,112,117,98,117,110,116,117,43,65,67,48,45,100,114,105,118,101,114,115,117,110,97,109,101,32,43,65,67,48,45,97,117,112,100,97,116,101,100,98,118,105,109,118,105,109,32,46,104,116,97,99,99,101,115,115,118,105,109,32,47,101,116,99,47,97,112,97,99,104,101,50,47,97,112,97,99,104,101,50,46,99,111,110,102,118,105,109,32,47,101,116,99,47,104,111,115,116,115,47,118,105,109,32,65,117,116,111,69,110,99,111,100,101,114,46,112,121,118,105,109,32,97,107,97,107,99,101,46,112,121,118,105,109,32,97,117,116,111,101,110,99,111,100,101,114,43,65,70,56,45,99,108,97,115,115,105,102,105,99,97,116,105,111,110,46,104,53,118,105,109,32,100,111,119,110,108,111,97,100,46,112,121,118,105,109,32,103,111,111,103,108,101,43,65,70,56,45,118,105,115,105,111,110,46,106,115,111,110,118,105,109,32,109,111,99,107,117,112,46,116,120,116,118,105,109,32,112,97,114,115,101,46,112,104,112,118,105,109,32,114,101,115,117,108,116,43,65,70,56,45,102,105,110,97,108,46,116,120,116,118,105,109,32,114,101,115,117,108,116,115,118,105,109,32,116,101,115,116,43,65,70,56,45,99,117,114,108,46,115,104,118,105,109,32,116,101,115,116,46,112,104,112,118,105,114,116,117,97,108,98,111,120,119,103,101,116,32,104,116,116,112,58,47,47,109,97,108,105,99,105,111,117,115,95,115,111,117,114,99,101,32,45,79,45,32,124,32,115,104,119,104,111,105,115,32,111,103,117,122,107,97,114,97,109,97,110,46,99,111,109,119,104,111,105,115,32,111,114,100,101,107,111,114,46,99,111,109,119,105,112,101,102,115,32,45,97,32,47,100,101,118,47,115,100,97,119,105,114,101,115,104,97,114,107,32,43,65,67,89,45]},{"offsets":[],"values":[]},{"offsets":[],"values":[]},{"offsets":[],"values":[]},{"offsets":[],"values":[]},{"offsets":[],"values":[]},{"offsets":[],"values":[]},{"offsets":[],"values":[]},{"offsets":[],"values":[]},{"offsets":[],"values":[]},{"offsets":[],"values":[]},{"offsets":[],"values":[]},{"offsets":[],"values":[]},{"offsets":[],"values":[]},{"offsets":[],"values":[]},{"offsets":[],"values":[]}],"feature_segments":[0,494,494,494,494,494,494,494,494,494,494,494,494,494,494,494,494],"sorted_idx":[0,1,2,3,4,5,6,7,8,9,10,11,12,13,14,15,16,17,18,19,20,21,22,23,24,25,26,27,28,29,30,31,32,33,34,35,36,37,38,39,40,41,42,43,44,45,46,47,48,49,50,51,52,53,54,55,56,57,58,59,60,61,62,63,64,65,66,67,68,69,70,71,72,73,74,75,76,77,78,79,80,81,82,83,84,85,86,87,88,89,90,91,92,93,94,95,96,97,98,99,100,101,102,103,104,105,106,107,108,109,110,111,112,113,114,115,116,117,118,119,120,121,122,123,124,125,126,127,128,129,130,131,132,133,134,135,136,137,138,139,140,141,142,143,144,145,146,147,148,149,150,151,152,153,154,155,156,157,158,159,160,161,162,163,164,165,166,167,168,169,170,171,172,173,174,175,176,177,178,179,180,181,182,183,184,185,186,187,188,189,190,191,192,193,194,195,196,197,198,199,200,201,202,203,204,205,206,207,208,209,210,211,212,213,214,215,216,217,218,219,220,221,222,223,224,225,226,227,228,229,230,231,232,233,234,235,236,237,238,239,240,241,242,243,244,245,246,247,248,249,250,251,252,253,254,255,256,257,258,259,260,261,262,263,264,265,266,267,268,269,270,271,272,273,274,275,276,277,278,279,280,281,282,283,284,285,286,287,288,289,290,291,292,293,294,295,296,297,298,299,300,301,302,303,304,305,306,307,308,309,310,311,312,313,314,315,316,317,318,319,320,321,322,323,324,325,326,327,328,329,330,331,332,333,334,335,336,337,338,339,340,341,342,343,344,345,346,347,348,349,350,351,352,353,354,355,356,357,358,359,360,361,362,363,364,365,366,367,368,369,370,371,372,373,374,375,376,377,378,379,380,381,382,383,384,385,386,387,388,389,390,391,392,393,394,395,396,397,398,399,400,401,402,403,404,405,406,407,408,409,410,411,412,413,414,415,416,417,418,419,420,421,422,423,424,425,426,427,428,429,430,431,432,433,434,435,436,437,438,439,440,441,442,443,444,445,446,447,448,449,450,451,452,453,454,455,456,457,458,459,460,461,462,463,464,465,466,467,468,469,470,471,472,473,474,475,476,477,478,479,480,481,482,483,484,485,486,487,488,489,490,491,492,493]},"gbtree_model_param":{"num_parallel_tree":"1","num_trees":"5000"},"iteration_indptr":[0,1,2,3,4,5,6,7,8,9,10,11,12,13,14,15,16,17,18,19,20,21,22,23,24,25,26,27,28,29,30,31,32,33,34,35,36,37,38,39,40,41,42,43,44,45,46,47,48,49,50,51,52,53,54,55,56,57,58,59,60,61,62,63,64,65,66,67,68,69,70,71,72,73,74,75,76,77,78,79,80,81,82,83,84,85,86,87,88,89,90,91,92,93,94,95,96,97,98,99,100,101,102,103,104,105,106,107,108,109,110,111,112,113,114,115,116,117,118,119,120,121,122,123,124,125,126,127,128,129,130,131,132,133,134,135,136,137,138,139,140,141,142,143,144,145,146,147,148,149,150,151,152,153,154,155,156,157,158,159,160,161,162,163,164,165,166,167,168,169,170,171,172,173,174,175,176,177,178,179,180,181,182,183,184,185,186,187,188,189,190,191,192,193,194,195,196,197,198,199,200,201,202,203,204,205,206,207,208,209,210,211,212,213,214,215,216,217,218,219,220,221,222,223,224,225,226,227,228,229,230,231,232,233,234,235,236,237,238,239,240,241,242,243,244,245,246,247,248,249,250,251,252,253,254,255,256,257,258,259,260,261,262,263,264,265,266,267,268,269,270,271,272,273,274,275,276,277,278,279,280,281,282,283,284,285,286,287,288,289,290,291,292,293,294,295,296,297,298,299,300,301,302,303,304,305,306,307,308,309,310,311,312,313,314,315,316,317,318,319,320,321,322,323,324,325,326,327,328,329,330,331,332,333,334,335,336,337,338,339,340,341,342,343,344,345,346,347,348,349,350,351,352,353,354,355,356,357,358,359,360,361,362,363,364,365,366,367,368,369,370,371,372,373,374,375,376,377,378,379,380,381,382,383,384,385,386,387,388,389,390,391,392,393,394,395,396,397,398,399,400,401,402,403,404,405,406,407,408,409,410,411,412,413,414,415,416,417,418,419,420,421,422,423,424,425,426,427,428,429,430,431,432,433,434,435,436,437,438,439,440,441,442,443,444,445,446,447,448,449,450,451,452,453,454,455,456,457,458,459,460,461,462,463,464,465,466,467,468,469,470,471,472,473,474,475,476,477,478,479,480,481,482,483,484,485,486,487,488,489,490,491,492,493,494,495,496,497,498,499,500,501,502,503,504,505,506,507,508,509,510,511,512,513,514,515,516,517,518,519,520,521,522,523,524,525,526,527,528,529,530,531,532,533,534,535,536,537,538,539,540,541,542,543,544,545,546,547,548,549,550,551,552,553,554,555,556,557,558,559,560,561,562,563,564,565,566,567,568,569,570,571,572,573,574,575,576,577,578,579,580,581,582,583,584,585,586,587,588,589,590,591,592,593,594,595,596,597,598,599,600,601,602,603,604,605,606,607,608,609,610,611,612,613,614,615,616,617,618,619,620,621,622,623,624,625,626,627,628,629,630,631,632,633,634,635,636,637,638,639,640,641,642,643,644,645,646,647,648,649,650,651,652,653,654,655,656,657,658,659,660,661,662,663,664,665,666,667,668,669,670,671,672,673,674,675,676,677,678,679,680,681,682,683,684,685,686,687,688,689,690,691,692,693,694,695,696,697,698,699,700,701,702,703,704,705,706,707,708,709,710,711,712,713,714,715,716,717,718,719,720,721,722,723,724,725,726,727,728,729,730,731,732,733,734,735,736,737,738,739,740,741,742,743,744,745,746,747,748,749,750,751,752,753,754,755,756,757,758,759,760,761,762,763,764,765,766,767,768,769,770,771,772,773,774,775,776,777,778,779,780,781,782,783,784,785,786,787,788,789,790,791,792,793,794,795,796,797,798,799,800,801,802,803,804,805,806,807,808,809,810,811,812,813,814,815,816,817,818,819,820,821,822,823,824,825,826,827,828,829,830,831,832,833,834,835,836,837,838,839,840,841,842,843,844,845,846,847,848,849,850,851,852,853,854,855,856,857,858,859,860,861,862,863,864,865,866,867,868,869,870,871,872,873,874,875,876,877,878,879,880,881,882,883,884,885,886,887,888,889,890,891,892,893,894,895,896,897,898,899,900,901,902,903,904,905,906,907,908,909,910,911,912,913,914,915,916,917,918,919,920,921,922,923,924,925,926,927,928,929,930,931,932,933,934,935,936,937,938,939,940,941,942,943,944,945,946,947,948,949,950,951,952,953,954,955,956,957,958,959,960,961,962,963,964,965,966,967,968,969,970,971,972,973,974,975,976,977,978,979,980,981,982,983,984,985,986,987,988,989,990,991,992,993,994,995,996,997,998,999,1000,1001,1002,1003,1004,1005,1006,1007,1008,1009,1010,1011,1012,1013,1014,1015,1016,1017,1018,1019,1020,1021,1022,1023,1024,1025,1026,1027,1028,1029,1030,1031,1032,1033,1034,1035,1036,1037,1038,1039,1040,1041,1042,1043,1044,1045,1046,1047,1048,1049,1050,1051,1052,1053,1054,1055,1056,1057,1058,1059,1060,1061,1062,1063,1064,1065,1066,1067,1068,1069,1070,1071,1072,1073,1074,1075,1076,1077,1078,1079,1080,1081,1082,1083,1084,1085,1086,1087,1088,1089,1090,1091,1092,1093,1094,1095,1096,1097,1098,1099,1100,1101,1102,1103,1104,1105,1106,1107,1108,1109,1110,1111,1112,1113,1114,1115,1116,1117,1118,1119,1120,1121,1122,1123,1124,1125,1126,1127,1128,1129,1130,1131,1132,1133,1134,1135,1136,1137,1138,1139,1140,1141,1142,1143,1144,1145,1146,1147,1148,1149,1150,1151,1152,1153,1154,1155,1156,1157,1158,1159,1160,1161,1162,1163,1164,1165,1166,1167,1168,1169,1170,1171,1172,1173,1174,1175,1176,1177,1178,1179,1180,1181,1182,1183,1184,1185,1186,1187,1188,1189,1190,1191,1192,1193,1194,1195,1196,1197,1198,1199,1200,1201,1202,1203,1204,1205,1206,1207,1208,1209,1210,1211,1212,1213,1214,1215,1216,1217,1218,1219,1220,1221,1222,1223,1224,1225,1226,1227,1228,1229,1230,1231,1232,1233,1234,1235,1236,1237,1238,1239,1240,1241,1242,1243,1244,1245,1246,1247,1248,1249,1250,1251,1252,1253,1254,1255,1256,1257,1258,1259,1260,1261,1262,1263,1264,1265,1266,1267,1268,1269,1270,1271,1272,1273,1274,1275,1276,1277,1278,1279,1280,1281,1282,1283,1284,1285,1286,1287,1288,1289,1290,1291,1292,1293,1294,1295,1296,1297,1298,1299,1300,1301,1302,1303,1304,1305,1306,1307,1308,1309,1310,1311,1312,1313,1314,1315,1316,1317,1318,1319,1320,1321,1322,1323,1324,1325,1326,1327,1328,1329,1330,1331,1332,1333,1334,1335,1336,1337,1338,1339,1340,1341,1342,1343,1344,1345,1346,1347,1348,1349,1350,1351,1352,1353,1354,1355,1356,1357,1358,1359,1360,1361,1362,1363,1364,1365,1366,1367,1368,1369,1370,1371,1372,1373,1374,1375,1376,1377,1378,1379,1380,1381,1382,1383,1384,1385,1386,1387,1388,1389,1390,1391,1392,1393,1394,1395,1396,1397,1398,1399,1400,1401,1402,1403,1404,1405,1406,1407,1408,1409,1410,1411,1412,1413,1414,1415,1416,1417,1418,1419,1420,1421,1422,1423,1424,1425,1426,1427,1428,1429,1430,1431,1432,1433,1434,1435,1436,1437,1438,1439,1440,1441,1442,1443,1444,1445,1446,1447,1448,1449,1450,1451,1452,1453,1454,1455,1456,1457,1458,1459,1460,1461,1462,1463,1464,1465,1466,1467,1468,1469,1470,1471,1472,1473,1474,1475,1476,1477,1478,1479,1480,1481,1482,1483,1484,1485,1486,1487,1488,1489,1490,1491,1492,1493,1494,1495,1496,1497,1498,1499,1500,1501,1502,1503,1504,1505,1506,1507,1508,1509,1510,1511,1512,1513,1514,1515,1516,1517,1518,1519,1520,1521,1522,1523,1524,1525,1526,1527,1528,1529,1530,1531,1532,1533,1534,1535,1536,1537,1538,1539,1540,1541,1542,1543,1544,1545,1546,1547,1548,1549,1550,1551,1552,1553,1554,1555,1556,1557,1558,1559,1560,1561,1562,1563,1564,1565,1566,1567,1568,1569,1570,1571,1572,1573,1574,1575,1576,1577,1578,1579,1580,1581,1582,1583,1584,1585,1586,1587,1588,1589,1590,1591,1592,1593,1594,1595,1596,1597,1598,1599,1600,1601,1602,1603,1604,1605,1606,1607,1608,1609,1610,1611,1612,1613,1614,1615,1616,1617,1618,1619,1620,1621,1622,1623,1624,1625,1626,1627,1628,1629,1630,1631,1632,1633,1634,1635,1636,1637,1638,1639,1640,1641,1642,1643,1644,1645,1646,1647,1648,1649,1650,1651,1652,1653,1654,1655,1656,1657,1658,1659,1660,1661,1662,1663,1664,1665,1666,1667,1668,1669,1670,1671,1672,1673,1674,1675,1676,1677,1678,1679,1680,1681,1682,1683,1684,1685,1686,1687,1688,1689,1690,1691,1692,1693,1694,1695,1696,1697,1698,1699,1700,1701,1702,1703,1704,1705,1706,1707,1708,1709,1710,1711,1712,1713,1714,1715,1716,1717,1718,1719,1720,1721,1722,1723,1724,1725,1726,1727,1728,1729,1730,1731,1732,1733,1734,1735,1736,1737,1738,1739,1740,1741,1742,1743,1744,1745,1746,1747,1748,1749,1750,1751,1752,1753,1754,1755,1756,1757,1758,1759,1760,1761,1762,1763,1764,1765,1766,1767,1768,1769,1770,1771,1772,1773,1774,1775,1776,1777,1778,1779,1780,1781,1782,1783,1784,1785,1786,1787,1788,1789,1790,1791,1792,1793,1794,1795,1796,1797,1798,1799,1800,1801,1802,1803,1804,1805,1806,1807,1808,1809,1810,1811,1812,1813,1814,1815,1816,1817,1818,1819,1820,1821,1822,1823,1824,1825,1826,1827,1828,1829,1830,1831,1832,1833,1834,1835,1836,1837,1838,1839,1840,1841,1842,1843,1844,1845,1846,1847,1848,1849,1850,1851,1852,1853,1854,1855,1856,1857,1858,1859,1860,1861,1862,1863,1864,1865,1866,1867,1868,1869,1870,1871,1872,1873,1874,1875,1876,1877,1878,1879,1880,1881,1882,1883,1884,1885,1886,1887,1888,1889,1890,1891,1892,1893,1894,1895,1896,1897,1898,1899,1900,1901,1902,1903,1904,1905,1906,1907,1908,1909,1910,1911,1912,1913,1914,1915,1916,1917,1918,1919,1920,1921,1922,1923,1924,1925,1926,1927,1928,1929,1930,1931,1932,1933,1934,1935,1936,1937,1938,1939,1940,1941,1942,1943,1944,1945,1946,1947,1948,1949,1950,1951,1952,1953,1954,1955,1956,1957,1958,1959,1960,1961,1962,1963,1964,1965,1966,1967,1968,1969,1970,1971,1972,1973,1974,1975,1976,1977,1978,1979,1980,1981,1982,1983,1984,1985,1986,1987,1988,1989,1990,1991,1992,1993,1994,1995,1996,1997,1998,1999,2000,2001,2002,2003,2004,2005,2006,2007,2008,2009,2010,2011,2012,2013,2014,2015,2016,2017,2018,2019,2020,2021,2022,2023,2024,2025,2026,2027,2028,2029,2030,2031,2032,2033,2034,2035,2036,2037,2038,2039,2040,2041,2042,2043,2044,2045,2046,2047,2048,2049,2050,2051,2052,2053,2054,2055,2056,2057,2058,2059,2060,2061,2062,2063,2064,2065,2066,2067,2068,2069,2070,2071,2072,2073,2074,2075,2076,2077,2078,2079,2080,2081,2082,2083,2084,2085,2086,2087,2088,2089,2090,2091,2092,2093,2094,2095,2096,2097,2098,2099,2100,2101,2102,2103,2104,2105,2106,2107,2108,2109,2110,2111,2112,2113,2114,2115,2116,2117,2118,2119,2120,2121,2122,2123,2124,2125,2126,2127,2128,2129,2130,2131,2132,2133,2134,2135,2136,2137,2138,2139,2140,2141,2142,2143,2144,2145,2146,2147,2148,2149,2150,2151,2152,2153,2154,2155,2156,2157,2158,2159,2160,2161,2162,2163,2164,2165,2166,2167,2168,2169,2170,2171,2172,2173,2174,2175,2176,2177,2178,2179,2180,2181,2182,2183,2184,2185,2186,2187,2188,2189,2190,2191,2192,2193,2194,2195,2196,2197,2198,2199,2200,2201,2202,2203,2204,2205,2206,2207,2208,2209,2210,2211,2212,2213,2214,2215,2216,2217,2218,2219,2220,2221,2222,2223,2224,2225,2226,2227,2228,2229,2230,2231,2232,2233,2234,2235,2236,2237,2238,2239,2240,2241,2242,2243,2244,2245,2246,2247,2248,2249,2250,2251,2252,2253,2254,2255,2256,2257,2258,2259,2260,2261,2262,2263,2264,2265,2266,2267,2268,2269,2270,2271,2272,2273,2274,2275,2276,2277,2278,2279,2280,2281,2282,2283,2284,2285,2286,2287,2288,2289,2290,2291,2292,2293,2294,2295,2296,2297,2298,2299,2300,2301,2302,2303,2304,2305,2306,2307,2308,2309,2310,2311,2312,2313,2314,2315,2316,2317,2318,2319,2320,2321,2322,2323,2324,2325,2326,2327,2328,2329,2330,2331,2332,2333,2334,2335,2336,2337,2338,2339,2340,2341,2342,2343,2344,2345,2346,2347,2348,2349,2350,2351,2352,2353,2354,2355,2356,2357,2358,2359,2360,2361,2362,2363,2364,2365,2366,2367,2368,2369,2370,2371,2372,2373,2374,2375,2376,2377,2378,2379,2380,2381,2382,2383,2384,2385,2386,2387,2388,2389,2390,2391,2392,2393,2394,2395,2396,2397,2398,2399,2400,2401,2402,2403,2404,2405,2406,2407,2408,2409,2410,2411,2412,2413,2414,2415,2416,2417,2418,2419,2420,2421,2422,2423,2424,2425,2426,2427,2428,2429,2430,2431,2432,2433,2434,2435,2436,2437,2438,2439,2440,2441,2442,2443,2444,2445,2446,2447,2448,2449,2450,2451,2452,2453,2454,2455,2456,2457,2458,2459,2460,2461,2462,2463,2464,2465,2466,2467,2468,2469,2470,2471,2472,2473,2474,2475,2476,2477,2478,2479,2480,2481,2482,2483,2484,2485,2486,2487,2488,2489,2490,2491,2492,2493,2494,2495,2496,2497,2498,2499,2500,2501,2502,2503,2504,2505,2506,2507,2508,2509,2510,2511,2512,2513,2514,2515,2516,2517,2518,2519,2520,2521,2522,2523,2524,2525,2526,2527,2528,2529,2530,2531,2532,2533,2534,2535,2536,2537,2538,2539,2540,2541,2542,2543,2544,2545,2546,2547,2548,2549,2550,2551,2552,2553,2554,2555,2556,2557,2558,2559,2560,2561,2562,2563,2564,2565,2566,2567,2568,2569,2570,2571,2572,2573,2574,2575,2576,2577,2578,2579,2580,2581,2582,2583,2584,2585,2586,2587,2588,2589,2590,2591,2592,2593,2594,2595,2596,2597,2598,2599,2600,2601,2602,2603,2604,2605,2606,2607,2608,2609,2610,2611,2612,2613,2614,2615,2616,2617,2618,2619,2620,2621,2622,2623,2624,2625,2626,2627,2628,2629,2630,2631,2632,2633,2634,2635,2636,2637,2638,2639,2640,2641,2642,2643,2644,2645,2646,2647,2648,2649,2650,2651,2652,2653,2654,2655,2656,2657,2658,2659,2660,2661,2662,2663,2664,2665,2666,2667,2668,2669,2670,2671,2672,2673,2674,2675,2676,2677,2678,2679,2680,2681,2682,2683,2684,2685,2686,2687,2688,2689,2690,2691,2692,2693,2694,2695,2696,2697,2698,2699,2700,2701,2702,2703,2704,2705,2706,2707,2708,2709,2710,2711,2712,2713,2714,2715,2716,2717,2718,2719,2720,2721,2722,2723,2724,2725,2726,2727,2728,2729,2730,2731,2732,2733,2734,2735,2736,2737,2738,2739,2740,2741,2742,2743,2744,2745,2746,2747,2748,2749,2750,2751,2752,2753,2754,2755,2756,2757,2758,2759,2760,2761,2762,2763,2764,2765,2766,2767,2768,2769,2770,2771,2772,2773,2774,2775,2776,2777,2778,2779,2780,2781,2782,2783,2784,2785,2786,2787,2788,2789,2790,2791,2792,2793,2794,2795,2796,2797,2798,2799,2800,2801,2802,2803,2804,2805,2806,2807,2808,2809,2810,2811,2812,2813,2814,2815,2816,2817,2818,2819,2820,2821,2822,2823,2824,2825,2826,2827,2828,2829,2830,2831,2832,2833,2834,2835,2836,2837,2838,2839,2840,2841,2842,2843,2844,2845,2846,2847,2848,2849,2850,2851,2852,2853,2854,2855,2856,2857,2858,2859,2860,2861,2862,2863,2864,2865,2866,2867,2868,2869,2870,2871,2872,2873,2874,2875,2876,2877,2878,2879,2880,2881,2882,2883,2884,2885,2886,2887,2888,2889,2890,2891,2892,2893,2894,2895,2896,2897,2898,2899,2900,2901,2902,2903,2904,2905,2906,2907,2908,2909,2910,2911,2912,2913,2914,2915,2916,2917,2918,2919,2920,2921,2922,2923,2924,2925,2926,2927,2928,2929,2930,2931,2932,2933,2934,2935,2936,2937,2938,2939,2940,2941,2942,2943,2944,2945,2946,2947,2948,2949,2950,2951,2952,2953,2954,2955,2956,2957,2958,2959,2960,2961,2962,2963,2964,2965,2966,2967,2968,2969,2970,2971,2972,2973,2974,2975,2976,2977,2978,2979,2980,2981,2982,2983,2984,2985,2986,2987,2988,2989,2990,2991,2992,2993,2994,2995,2996,2997,2998,2999,3000,3001,3002,3003,3004,3005,3006,3007,3008,3009,3010,3011,3012,3013,3014,3015,3016,3017,3018,3019,3020,3021,3022,3023,3024,3025,3026,3027,3028,3029,3030,3031,3032,3033,3034,3035,3036,3037,3038,3039,3040,3041,3042,3043,3044,3045,3046,3047,3048,3049,3050,3051,3052,3053,3054,3055,3056,3057,3058,3059,3060,3061,3062,3063,3064,3065,3066,3067,3068,3069,3070,3071,3072,3073,3074,3075,3076,3077,3078,3079,3080,3081,3082,3083,3084,3085,3086,3087,3088,3089,3090,3091,3092,3093,3094,3095,3096,3097,3098,3099,3100,3101,3102,3103,3104,3105,3106,3107,3108,3109,3110,3111,3112,3113,3114,3115,3116,3117,3118,3119,3120,3121,3122,3123,3124,3125,3126,3127,3128,3129,3130,3131,3132,3133,3134,3135,3136,3137,3138,3139,3140,3141,3142,3143,3144,3145,3146,3147,3148,3149,3150,3151,3152,3153,3154,3155,3156,3157,3158,3159,3160,3161,3162,3163,3164,3165,3166,3167,3168,3169,3170,3171,3172,3173,3174,3175,3176,3177,3178,3179,3180,3181,3182,3183,3184,3185,3186,3187,3188,3189,3190,3191,3192,3193,3194,3195,3196,3197,3198,3199,3200,3201,3202,3203,3204,3205,3206,3207,3208,3209,3210,3211,3212,3213,3214,3215,3216,3217,3218,3219,3220,3221,3222,3223,3224,3225,3226,3227,3228,3229,3230,3231,3232,3233,3234,3235,3236,3237,3238,3239,3240,3241,3242,3243,3244,3245,3246,3247,3248,3249,3250,3251,3252,3253,3254,3255,3256,3257,3258,3259,3260,3261,3262,3263,3264,3265,3266,3267,3268,3269,3270,3271,3272,3273,3274,3275,3276,3277,3278,3279,3280,3281,3282,3283,3284,3285,3286,3287,3288,3289,3290,3291,3292,3293,3294,3295,3296,3297,3298,3299,3300,3301,3302,3303,3304,3305,3306,3307,3308,3309,3310,3311,3312,3313,3314,3315,3316,3317,3318,3319,3320,3321,3322,3323,3324,3325,3326,3327,3328,3329,3330,3331,3332,3333,3334,3335,3336,3337,3338,3339,3340,3341,3342,3343,3344,3345,3346,3347,3348,3349,3350,3351,3352,3353,3354,3355,3356,3357,3358,3359,3360,3361,3362,3363,3364,3365,3366,3367,3368,3369,3370,3371,3372,3373,3374,3375,3376,3377,3378,3379,3380,3381,3382,3383,3384,3385,3386,3387,3388,3389,3390,3391,3392,3393,3394,3395,3396,3397,3398,3399,3400,3401,3402,3403,3404,3405,3406,3407,3408,3409,3410,3411,3412,3413,3414,3415,3416,3417,3418,3419,3420,3421,3422,3423,3424,3425,3426,3427,3428,3429,3430,3431,3432,3433,3434,3435,3436,3437,3438,3439,3440,3441,3442,3443,3444,3445,3446,3447,3448,3449,3450,3451,3452,3453,3454,3455,3456,3457,3458,3459,3460,3461,3462,3463,3464,3465,3466,3467,3468,3469,3470,3471,3472,3473,3474,3475,3476,3477,3478,3479,3480,3481,3482,3483,3484,3485,3486,3487,3488,3489,3490,3491,3492,3493,3494,3495,3496,3497,3498,3499,3500,3501,3502,3503,3504,3505,3506,3507,3508,3509,3510,3511,3512,3513,3514,3515,3516,3517,3518,3519,3520,3521,3522,3523,3524,3525,3526,3527,3528,3529,3530,3531,3532,3533,3534,3535,3536,3537,3538,3539,3540,3541,3542,3543,3544,3545,3546,3547,3548,3549,3550,3551,3552,3553,3554,3555,3556,3557,3558,3559,3560,3561,3562,3563,3564,3565,3566,3567,3568,3569,3570,3571,3572,3573,3574,3575,3576,3577,3578,3579,3580,3581,3582,3583,3584,3585,3586,3587,3588,3589,3590,3591,3592,3593,3594,3595,3596,3597,3598,3599,3600,3601,3602,3603,3604,3605,3606,3607,3608,3609,3610,3611,3612,3613,3614,3615,3616,3617,3618,3619,3620,3621,3622,3623,3624,3625,3626,3627,3628,3629,3630,3631,3632,3633,3634,3635,3636,3637,3638,3639,3640,3641,3642,3643,3644,3645,3646,3647,3648,3649,3650,3651,3652,3653,3654,3655,3656,3657,3658,3659,3660,3661,3662,3663,3664,3665,3666,3667,3668,3669,3670,3671,3672,3673,3674,3675,3676,3677,3678,3679,3680,3681,3682,3683,3684,3685,3686,3687,3688,3689,3690,3691,3692,3693,3694,3695,3696,3697,3698,3699,3700,3701,3702,3703,3704,3705,3706,3707,3708,3709,3710,3711,3712,3713,3714,3715,3716,3717,3718,3719,3720,3721,3722,3723,3724,3725,3726,3727,3728,3729,3730,3731,3732,3733,3734,3735,3736,3737,3738,3739,3740,3741,3742,3743,3744,3745,3746,3747,3748,3749,3750,3751,3752,3753,3754,3755,3756,3757,3758,3759,3760,3761,3762,3763,3764,3765,3766,3767,3768,3769,3770,3771,3772,3773,3774,3775,3776,3777,3778,3779,3780,3781,3782,3783,3784,3785,3786,3787,3788,3789,3790,3791,3792,3793,3794,3795,3796,3797,3798,3799,3800,3801,3802,3803,3804,3805,3806,3807,3808,3809,3810,3811,3812,3813,3814,3815,3816,3817,3818,3819,3820,3821,3822,3823,3824,3825,3826,3827,3828,3829,3830,3831,3832,3833,3834,3835,3836,3837,3838,3839,3840,3841,3842,3843,3844,3845,3846,3847,3848,3849,3850,3851,3852,3853,3854,3855,3856,3857,3858,3859,3860,3861,3862,3863,3864,3865,3866,3867,3868,3869,3870,3871,3872,3873,3874,3875,3876,3877,3878,3879,3880,3881,3882,3883,3884,3885,3886,3887,3888,3889,3890,3891,3892,3893,3894,3895,3896,3897,3898,3899,3900,3901,3902,3903,3904,3905,3906,3907,3908,3909,3910,3911,3912,3913,3914,3915,3916,3917,3918,3919,3920,3921,3922,3923,3924,3925,3926,3927,3928,3929,3930,3931,3932,3933,3934,3935,3936,3937,3938,3939,3940,3941,3942,3943,3944,3945,3946,3947,3948,3949,3950,3951,3952,3953,3954,3955,3956,3957,3958,3959,3960,3961,3962,3963,3964,3965,3966,3967,3968,3969,3970,3971,3972,3973,3974,3975,3976,3977,3978,3979,3980,3981,3982,3983,3984,3985,3986,3987,3988,3989,3990,3991,3992,3993,3994,3995,3996,3997,3998,3999,4000,4001,4002,4003,4004,4005,4006,4007,4008,4009,4010,4011,4012,4013,4014,4015,4016,4017,4018,4019,4020,4021,4022,4023,4024,4025,4026,4027,4028,4029,4030,4031,4032,4033,4034,4035,4036,4037,4038,4039,4040,4041,4042,4043,4044,4045,4046,4047,4048,4049,4050,4051,4052,4053,4054,4055,4056,4057,4058,4059,4060,4061,4062,4063,4064,4065,4066,4067,4068,4069,4070,4071,4072,4073,4074,4075,4076,4077,4078,4079,4080,4081,4082,4083,4084,4085,4086,4087,4088,4089,4090,4091,4092,4093,4094,4095,4096,4097,4098,4099,4100,4101,4102,4103,4104,4105,4106,4107,4108,4109,4110,4111,4112,4113,4114,4115,4116,4117,4118,4119,4120,4121,4122,4123,4124,4125,4126,4127,4128,4129,4130,4131,4132,4133,4134,4135,4136,4137,4138,4139,4140,4141,4142,4143,4144,4145,4146,4147,4148,4149,4150,4151,4152,4153,4154,4155,4156,4157,4158,4159,4160,4161,4162,4163,4164,4165,4166,4167,4168,4169,4170,4171,4172,4173,4174,4175,4176,4177,4178,4179,4180,4181,4182,4183,4184,4185,4186,4187,4188,4189,4190,4191,4192,4193,4194,4195,4196,4197,4198,4199,4200,4201,4202,4203,4204,4205,4206,4207,4208,4209,4210,4211,4212,4213,4214,4215,4216,4217,4218,4219,4220,4221,4222,4223,4224,4225,4226,4227,4228,4229,4230,4231,4232,4233,4234,4235,4236,4237,4238,4239,4240,4241,4242,4243,4244,4245,4246,4247,4248,4249,4250,4251,4252,4253,4254,4255,4256,4257,4258,4259,4260,4261,4262,4263,4264,4265,4266,4267,4268,4269,4270,4271,4272,4273,4274,4275,4276,4277,4278,4279,4280,4281,4282,4283,4284,4285,4286,4287,4288,4289,4290,4291,4292,4293,4294,4295,4296,4297,4298,4299,4300,4301,4302,4303,4304,4305,4306,4307,4308,4309,4310,4311,4312,4313,4314,4315,4316,4317,4318,4319,4320,4321,4322,4323,4324,4325,4326,4327,4328,4329,4330,4331,4332,4333,4334,4335,4336,4337,4338,4339,4340,4341,4342,4343,4344,4345,4346,4347,4348,4349,4350,4351,4352,4353,4354,4355,4356,4357,4358,4359,4360,4361,4362,4363,4364,4365,4366,4367,4368,4369,4370,4371,4372,4373,4374,4375,4376,4377,4378,4379,4380,4381,4382,4383,4384,4385,4386,4387,4388,4389,4390,4391,4392,4393,4394,4395,4396,4397,4398,4399,4400,4401,4402,4403,4404,4405,4406,4407,4408,4409,4410,4411,4412,4413,4414,4415,4416,4417,4418,4419,4420,4421,4422,4423,4424,4425,4426,4427,4428,4429,4430,4431,4432,4433,4434,4435,4436,4437,4438,4439,4440,4441,4442,4443,4444,4445,4446,4447,4448,4449,4450,4451,4452,4453,4454,4455,4456,4457,4458,4459,4460,4461,4462,4463,4464,4465,4466,4467,4468,4469,4470,4471,4472,4473,4474,4475,4476,4477,4478,4479,4480,4481,4482,4483,4484,4485,4486,4487,4488,4489,4490,4491,4492,4493,4494,4495,4496,4497,4498,4499,4500,4501,4502,4503,4504,4505,4506,4507,4508,4509,4510,4511,4512,4513,4514,4515,4516,4517,4518,4519,4520,4521,4522,4523,4524,4525,4526,4527,4528,4529,4530,4531,4532,4533,4534,4535,4536,4537,4538,4539,4540,4541,4542,4543,4544,4545,4546,4547,4548,4549,4550,4551,4552,4553,4554,4555,4556,4557,4558,4559,4560,4561,4562,4563,4564,4565,4566,4567,4568,4569,4570,4571,4572,4573,4574,4575,4576,4577,4578,4579,4580,4581,4582,4583,4584,4585,4586,4587,4588,4589,4590,4591,4592,4593,4594,4595,4596,4597,4598,4599,4600,4601,4602,4603,4604,4605,4606,4607,4608,4609,4610,4611,4612,4613,4614,4615,4616,4617,4618,4619,4620,4621,4622,4623,4624,4625,4626,4627,4628,4629,4630,4631,4632,4633,4634,4635,4636,4637,4638,4639,4640,4641,4642,4643,4644,4645,4646,4647,4648,4649,4650,4651,4652,4653,4654,4655,4656,4657,4658,4659,4660,4661,4662,4663,4664,4665,4666,4667,4668,4669,4670,4671,4672,4673,4674,4675,4676,4677,4678,4679,4680,4681,4682,4683,4684,4685,4686,4687,4688,4689,4690,4691,4692,4693,4694,4695,4696,4697,4698,4699,4700,4701,4702,4703,4704,4705,4706,4707,4708,4709,4710,4711,4712,4713,4714,4715,4716,4717,4718,4719,4720,4721,4722,4723,4724,4725,4726,4727,4728,4729,4730,4731,4732,4733,4734,4735,4736,4737,4738,4739,4740,4741,4742,4743,4744,4745,4746,4747,4748,4749,4750,4751,4752,4753,4754,4755,4756,4757,4758,4759,4760,4761,4762,4763,4764,4765,4766,4767,4768,4769,4770,4771,4772,4773,4774,4775,4776,4777,4778,4779,4780,4781,4782,4783,4784,4785,4786,4787,4788,4789,4790,4791,4792,4793,4794,4795,4796,4797,4798,4799,4800,4801,4802,4803,4804,4805,4806,4807,4808,4809,4810,4811,4812,4813,4814,4815,4816,4817,4818,4819,4820,4821,4822,4823,4824,4825,4826,4827,4828,4829,4830,4831,4832,4833,4834,4835,4836,4837,4838,4839,4840,4841,4842,4843,4844,4845,4846,4847,4848,4849,4850,4851,4852,4853,4854,4855,4856,4857,4858,4859,4860,4861,4862,4863,4864,4865,4866,4867,4868,4869,4870,4871,4872,4873,4874,4875,4876,4877,4878,4879,4880,4881,4882,4883,4884,4885,4886,4887,4888,4889,4890,4891,4892,4893,4894,4895,4896,4897,4898,4899,4900,4901,4902,4903,4904,4905,4906,4907,4908,4909,4910,4911,4912,4913,4914,4915,4916,4917,4918,4919,4920,4921,4922,4923,4924,4925,4926,4927,4928,4929,4930,4931,4932,4933,4934,4935,4936,4937,4938,4939,4940,4941,4942,4943,4944,4945,4946,4947,4948,4949,4950,4951,4952,4953,4954,4955,4956,4957,4958,4959,4960,4961,4962,4963,4964,4965,4966,4967,4968,4969,4970,4971,4972,4973,4974,4975,4976,4977,4978,4979,4980,4981,4982,4983,4984,4985,4986,4987,4988,4989,4990,4991,4992,4993,4994,4995,4996,4997,4998,4999,5000],"tree_info":[0,0,0,0,0,0,0,0,0,0,0,0,0,0,0,0,0,0,0,0,0,0,0,0,0,0,0,0,0,0,0,0,0,0,0,0,0,0,0,0,0,0,0,0,0,0,0,0,0,0,0,0,0,0,0,0,0,0,0,0,0,0,0,0,0,0,0,0,0,0,0,0,0,0,0,0,0,0,0,0,0,0,0,0,0,0,0,0,0,0,0,0,0,0,0,0,0,0,0,0,0,0,0,0,0,0,0,0,0,0,0,0,0,0,0,0,0,0,0,0,0,0,0,0,0,0,0,0,0,0,0,0,0,0,0,0,0,0,0,0,0,0,0,0,0,0,0,0,0,0,0,0,0,0,0,0,0,0,0,0,0,0,0,0,0,0,0,0,0,0,0,0,0,0,0,0,0,0,0,0,0,0,0,0,0,0,0,0,0,0,0,0,0,0,0,0,0,0,0,0,0,0,0,0,0,0,0,0,0,0,0,0,0,0,0,0,0,0,0,0,0,0,0,0,0,0,0,0,0,0,0,0,0,0,0,0,0,0,0,0,0,0,0,0,0,0,0,0,0,0,0,0,0,0,0,0,0,0,0,0,0,0,0,0,0,0,0,0,0,0,0,0,0,0,0,0,0,0,0,0,0,0,0,0,0,0,0,0,0,0,0,0,0,0,0,0,0,0,0,0,0,0,0,0,0,0,0,0,0,0,0,0,0,0,0,0,0,0,0,0,0,0,0,0,0,0,0,0,0,0,0,0,0,0,0,0,0,0,0,0,0,0,0,0,0,0,0,0,0,0,0,0,0,0,0,0,0,0,0,0,0,0,0,0,0,0,0,0,0,0,0,0,0,0,0,0,0,0,0,0,0,0,0,0,0,0,0,0,0,0,0,0,0,0,0,0,0,0,0,0,0,0,0,0,0,0,0,0,0,0,0,0,0,0,0,0,0,0,0,0,0,0,0,0,0,0,0,0,0,0,0,0,0,0,0,0,0,0,0,0,0,0,0,0,0,0,0,0,0,0,0,0,0,0,0,0,0,0,0,0,0,0,0,0,0,0,0,0,0,0,0,0,0,0,0,0,0,0,0,0,0,0,0,0,0,0,0,0,0,0,0,0,0,0,0,0,0,0,0,0,0,0,0,0,0,0,0,0,0,0,0,0,0,0,0,0,0,0,0,0,0,0,0,0,0,0,0,0,0,0,0,0,0,0,0,0,0,0,0,0,0,0,0,0,0,0,0,0,0,0,0,0,0,0,0,0,0,0,0,0,0,0,0,0,0,0,0,0,0,0,0,0,0,0,0,0,0,0,0,0,0,0,0,0,0,0,0,0,0,0,0,0,0,0,0,0,0,0,0,0,0,0,0,0,0,0,0,0,0,0,0,0,0,0,0,0,0,0,0,0,0,0,0,0,0,0,0,0,0,0,0,0,0,0,0,0,0,0,0,0,0,0,0,0,0,0,0,0,0,0,0,0,0,0,0,0,0,0,0,0,0,0,0,0,0,0,0,0,0,0,0,0,0,0,0,0,0,0,0,0,0,0,0,0,0,0,0,0,0,0,0,0,0,0,0,0,0,0,0,0,0,0,0,0,0,0,0,0,0,0,0,0,0,0,0,0,0,0,0,0,0,0,0,0,0,0,0,0,0,0,0,0,0,0,0,0,0,0,0,0,0,0,0,0,0,0,0,0,0,0,0,0,0,0,0,0,0,0,0,0,0,0,0,0,0,0,0,0,0,0,0,0,0,0,0,0,0,0,0,0,0,0,0,0,0,0,0,0,0,0,0,0,0,0,0,0,0,0,0,0,0,0,0,0,0,0,0,0,0,0,0,0,0,0,0,0,0,0,0,0,0,0,0,0,0,0,0,0,0,0,0,0,0,0,0,0,0,0,0,0,0,0,0,0,0,0,0,0,0,0,0,0,0,0,0,0,0,0,0,0,0,0,0,0,0,0,0,0,0,0,0,0,0,0,0,0,0,0,0,0,0,0,0,0,0,0,0,0,0,0,0,0,0,0,0,0,0,0,0,0,0,0,0,0,0,0,0,0,0,0,0,0,0,0,0,0,0,0,0,0,0,0,0,0,0,0,0,0,0,0,0,0,0,0,0,0,0,0,0,0,0,0,0,0,0,0,0,0,0,0,0,0,0,0,0,0,0,0,0,0,0,0,0,0,0,0,0,0,0,0,0,0,0,0,0,0,0,0,0,0,0,0,0,0,0,0,0,0,0,0,0,0,0,0,0,0,0,0,0,0,0,0,0,0,0,0,0,0,0,0,0,0,0,0,0,0,0,0,0,0,0,0,0,0,0,0,0,0,0,0,0,0,0,0,0,0,0,0,0,0,0,0,0,0,0,0,0,0,0,0,0,0,0,0,0,0,0,0,0,0,0,0,0,0,0,0,0,0,0,0,0,0,0,0,0,0,0,0,0,0,0,0,0,0,0,0,0,0,0,0,0,0,0,0,0,0,0,0,0,0,0,0,0,0,0,0,0,0,0,0,0,0,0,0,0,0,0,0,0,0,0,0,0,0,0,0,0,0,0,0,0,0,0,0,0,0,0,0,0,0,0,0,0,0,0,0,0,0,0,0,0,0,0,0,0,0,0,0,0,0,0,0,0,0,0,0,0,0,0,0,0,0,0,0,0,0,0,0,0,0,0,0,0,0,0,0,0,0,0,0,0,0,0,0,0,0,0,0,0,0,0,0,0,0,0,0,0,0,0,0,0,0,0,0,0,0,0,0,0,0,0,0,0,0,0,0,0,0,0,0,0,0,0,0,0,0,0,0,0,0,0,0,0,0,0,0,0,0,0,0,0,0,0,0,0,0,0,0,0,0,0,0,0,0,0,0,0,0,0,0,0,0,0,0,0,0,0,0,0,0,0,0,0,0,0,0,0,0,0,0,0,0,0,0,0,0,0,0,0,0,0,0,0,0,0,0,0,0,0,0,0,0,0,0,0,0,0,0,0,0,0,0,0,0,0,0,0,0,0,0,0,0,0,0,0,0,0,0,0,0,0,0,0,0,0,0,0,0,0,0,0,0,0,0,0,0,0,0,0,0,0,0,0,0,0,0,0,0,0,0,0,0,0,0,0,0,0,0,0,0,0,0,0,0,0,0,0,0,0,0,0,0,0,0,0,0,0,0,0,0,0,0,0,0,0,0,0,0,0,0,0,0,0,0,0,0,0,0,0,0,0,0,0,0,0,0,0,0,0,0,0,0,0,0,0,0,0,0,0,0,0,0,0,0,0,0,0,0,0,0,0,0,0,0,0,0,0,0,0,0,0,0,0,0,0,0,0,0,0,0,0,0,0,0,0,0,0,0,0,0,0,0,0,0,0,0,0,0,0,0,0,0,0,0,0,0,0,0,0,0,0,0,0,0,0,0,0,0,0,0,0,0,0,0,0,0,0,0,0,0,0,0,0,0,0,0,0,0,0,0,0,0,0,0,0,0,0,0,0,0,0,0,0,0,0,0,0,0,0,0,0,0,0,0,0,0,0,0,0,0,0,0,0,0,0,0,0,0,0,0,0,0,0,0,0,0,0,0,0,0,0,0,0,0,0,0,0,0,0,0,0,0,0,0,0,0,0,0,0,0,0,0,0,0,0,0,0,0,0,0,0,0,0,0,0,0,0,0,0,0,0,0,0,0,0,0,0,0,0,0,0,0,0,0,0,0,0,0,0,0,0,0,0,0,0,0,0,0,0,0,0,0,0,0,0,0,0,0,0,0,0,0,0,0,0,0,0,0,0,0,0,0,0,0,0,0,0,0,0,0,0,0,0,0,0,0,0,0,0,0,0,0,0,0,0,0,0,0,0,0,0,0,0,0,0,0,0,0,0,0,0,0,0,0,0,0,0,0,0,0,0,0,0,0,0,0,0,0,0,0,0,0,0,0,0,0,0,0,0,0,0,0,0,0,0,0,0,0,0,0,0,0,0,0,0,0,0,0,0,0,0,0,0,0,0,0,0,0,0,0,0,0,0,0,0,0,0,0,0,0,0,0,0,0,0,0,0,0,0,0,0,0,0,0,0,0,0,0,0,0,0,0,0,0,0,0,0,0,0,0,0,0,0,0,0,0,0,0,0,0,0,0,0,0,0,0,0,0,0,0,0,0,0,0,0,0,0,0,0,0,0,0,0,0,0,0,0,0,0,0,0,0,0,0,0,0,0,0,0,0,0,0,0,0,0,0,0,0,0,0,0,0,0,0,0,0,0,0,0,0,0,0,0,0,0,0,0,0,0,0,0,0,0,0,0,0,0,0,0,0,0,0,0,0,0,0,0,0,0,0,0,0,0,0,0,0,0,0,0,0,0,0,0,0,0,0,0,0,0,0,0,0,0,0,0,0,0,0,0,0,0,0,0,0,0,0,0,0,0,0,0,0,0,0,0,0,0,0,0,0,0,0,0,0,0,0,0,0,0,0,0,0,0,0,0,0,0,0,0,0,0,0,0,0,0,0,0,0,0,0,0,0,0,0,0,0,0,0,0,0,0,0,0,0,0,0,0,0,0,0,0,0,0,0,0,0,0,0,0,0,0,0,0,0,0,0,0,0,0,0,0,0,0,0,0,0,0,0,0,0,0,0,0,0,0,0,0,0,0,0,0,0,0,0,0,0,0,0,0,0,0,0,0,0,0,0,0,0,0,0,0,0,0,0,0,0,0,0,0,0,0,0,0,0,0,0,0,0,0,0,0,0,0,0,0,0,0,0,0,0,0,0,0,0,0,0,0,0,0,0,0,0,0,0,0,0,0,0,0,0,0,0,0,0,0,0,0,0,0,0,0,0,0,0,0,0,0,0,0,0,0,0,0,0,0,0,0,0,0,0,0,0,0,0,0,0,0,0,0,0,0,0,0,0,0,0,0,0,0,0,0,0,0,0,0,0,0,0,0,0,0,0,0,0,0,0,0,0,0,0,0,0,0,0,0,0,0,0,0,0,0,0,0,0,0,0,0,0,0,0,0,0,0,0,0,0,0,0,0,0,0,0,0,0,0,0,0,0,0,0,0,0,0,0,0,0,0,0,0,0,0,0,0,0,0,0,0,0,0,0,0,0,0,0,0,0,0,0,0,0,0,0,0,0,0,0,0,0,0,0,0,0,0,0,0,0,0,0,0,0,0,0,0,0,0,0,0,0,0,0,0,0,0,0,0,0,0,0,0,0,0,0,0,0,0,0,0,0,0,0,0,0,0,0,0,0,0,0,0,0,0,0,0,0,0,0,0,0,0,0,0,0,0,0,0,0,0,0,0,0,0,0,0,0,0,0,0,0,0,0,0,0,0,0,0,0,0,0,0,0,0,0,0,0,0,0,0,0,0,0,0,0,0,0,0,0,0,0,0,0,0,0,0,0,0,0,0,0,0,0,0,0,0,0,0,0,0,0,0,0,0,0,0,0,0,0,0,0,0,0,0,0,0,0,0,0,0,0,0,0,0,0,0,0,0,0,0,0,0,0,0,0,0,0,0,0,0,0,0,0,0,0,0,0,0,0,0,0,0,0,0,0,0,0,0,0,0,0,0,0,0,0,0,0,0,0,0,0,0,0,0,0,0,0,0,0,0,0,0,0,0,0,0,0,0,0,0,0,0,0,0,0,0,0,0,0,0,0,0,0,0,0,0,0,0,0,0,0,0,0,0,0,0,0,0,0,0,0,0,0,0,0,0,0,0,0,0,0,0,0,0,0,0,0,0,0,0,0,0,0,0,0,0,0,0,0,0,0,0,0,0,0,0,0,0,0,0,0,0,0,0,0,0,0,0,0,0,0,0,0,0,0,0,0,0,0,0,0,0,0,0,0,0,0,0,0,0,0,0,0,0,0,0,0,0,0,0,0,0,0,0,0,0,0,0,0,0,0,0,0,0,0,0,0,0,0,0,0,0,0,0,0,0,0,0,0,0,0,0,0,0,0,0,0,0,0,0,0,0,0,0,0,0,0,0,0,0,0,0,0,0,0,0,0,0,0,0,0,0,0,0,0,0,0,0,0,0,0,0,0,0,0,0,0,0,0,0,0,0,0,0,0,0,0,0,0,0,0,0,0,0,0,0,0,0,0,0,0,0,0,0,0,0,0,0,0,0,0,0,0,0,0,0,0,0,0,0,0,0,0,0,0,0,0,0,0,0,0,0,0,0,0,0,0,0,0,0,0,0,0,0,0,0,0,0,0,0,0,0,0,0,0,0,0,0,0,0,0,0,0,0,0,0,0,0,0,0,0,0,0,0,0,0,0,0,0,0,0,0,0,0,0,0,0,0,0,0,0,0,0,0,0,0,0,0,0,0,0,0,0,0,0,0,0,0,0,0,0,0,0,0,0,0,0,0,0,0,0,0,0,0,0,0,0,0,0,0,0,0,0,0,0,0,0,0,0,0,0,0,0,0,0,0,0,0,0,0,0,0,0,0,0,0,0,0,0,0,0,0,0,0,0,0,0,0,0,0,0,0,0,0,0,0,0,0,0,0,0,0,0,0,0,0,0,0,0,0,0,0,0,0,0,0,0,0,0,0,0,0,0,0,0,0,0,0,0,0,0,0,0,0,0,0,0,0,0,0,0,0,0,0,0,0,0,0,0,0,0,0,0,0,0,0,0,0,0,0,0,0,0,0,0,0,0,0,0,0,0,0,0,0,0,0,0,0,0,0,0,0,0,0,0,0,0,0,0,0,0,0,0,0,0,0,0,0,0,0,0,0,0,0,0,0,0,0,0,0,0,0,0,0,0,0,0,0,0,0,0,0,0,0,0,0,0,0,0,0,0,0,0,0,0,0,0,0,0,0,0,0,0,0,0,0,0,0,0,0,0,0,0,0,0,0,0,0,0,0,0,0,0,0,0,0,0,0,0,0,0,0,0,0,0,0,0,0,0,0,0,0,0,0,0,0,0,0,0,0,0,0,0,0,0,0,0,0,0,0,0,0,0,0,0,0,0,0,0,0,0,0,0,0,0,0,0,0,0,0,0,0,0,0,0,0,0,0,0,0,0,0,0,0,0,0,0,0,0,0,0,0,0,0,0,0,0,0,0,0,0,0,0,0,0,0,0,0,0,0,0,0,0,0,0,0,0,0,0,0,0,0,0,0,0,0,0,0,0,0,0,0,0,0,0,0,0,0,0,0,0,0,0,0,0,0,0,0,0,0,0,0,0,0,0,0,0,0,0,0,0,0,0,0,0,0,0,0,0,0,0,0,0,0,0,0,0,0,0,0,0,0,0,0,0,0,0,0,0,0,0,0,0,0,0,0,0,0,0,0,0,0,0,0,0,0,0,0,0,0,0,0,0,0,0,0,0,0,0,0,0,0,0,0,0,0,0,0,0,0,0,0,0,0,0,0,0,0,0,0,0,0,0,0,0,0,0,0,0,0,0,0,0,0,0,0,0,0,0,0,0,0,0,0,0,0,0,0,0,0,0,0,0,0,0,0,0,0,0,0,0,0,0,0,0,0,0,0,0,0,0,0,0,0,0,0,0,0,0,0,0,0,0,0,0,0,0,0,0,0,0,0,0,0,0,0,0,0,0,0,0,0,0,0,0,0,0,0,0,0,0,0,0,0,0,0,0,0,0,0,0,0,0,0,0,0,0,0,0,0,0,0,0,0,0,0,0,0,0,0,0,0,0,0,0,0,0,0,0,0,0,0,0,0,0,0,0,0,0,0,0,0,0,0,0,0,0,0,0,0,0,0,0,0,0,0,0,0,0,0,0,0,0,0,0,0,0,0,0,0,0,0,0,0,0,0,0,0,0,0,0,0,0,0,0,0,0,0,0,0,0,0,0,0,0,0,0,0,0,0,0,0,0,0,0,0,0,0,0,0,0,0,0,0,0,0,0,0,0,0,0,0,0,0,0,0,0,0,0,0,0,0,0,0,0,0,0,0,0,0,0,0,0,0,0,0,0,0,0,0,0,0,0,0,0,0,0,0,0,0,0,0,0,0,0,0,0,0,0,0,0,0,0,0,0,0,0,0,0,0,0,0,0,0,0,0,0,0,0,0,0,0,0,0,0,0,0,0,0,0,0,0,0,0,0,0,0,0,0,0,0,0,0,0,0,0,0,0,0,0,0,0,0,0,0,0,0,0,0,0,0,0,0,0,0,0,0,0,0,0,0,0,0,0,0,0,0,0,0,0,0,0,0,0,0,0,0,0,0,0,0,0,0,0,0,0,0,0,0,0,0,0,0,0,0,0,0,0,0,0,0,0,0,0,0,0,0,0,0,0,0,0,0,0,0,0,0,0,0,0,0,0,0,0,0,0,0,0,0,0,0,0,0,0,0,0,0,0,0,0,0,0,0,0,0,0,0,0,0,0,0,0,0,0,0,0,0,0,0,0,0,0,0,0,0,0,0,0,0,0,0,0,0,0,0,0,0,0,0,0,0,0,0,0,0,0,0,0,0,0,0,0,0,0,0,0,0,0,0,0,0,0,0,0,0,0,0,0,0,0,0,0,0,0,0,0,0,0,0,0,0,0,0,0,0,0,0,0,0,0,0,0,0,0,0,0,0,0,0,0,0,0,0,0,0,0,0,0,0,0,0,0,0,0,0,0,0,0,0,0,0,0,0,0,0,0,0,0,0,0,0,0,0,0,0,0,0,0,0,0,0,0,0,0,0,0,0,0,0,0,0,0,0,0,0,0,0,0,0,0,0,0,0,0,0,0,0,0,0,0,0,0,0,0,0,0,0,0,0,0,0,0,0,0,0,0,0,0,0,0,0,0,0,0,0,0,0,0,0,0,0,0,0,0,0,0,0,0,0,0,0,0,0,0,0,0,0,0,0,0,0,0,0,0,0,0,0,0,0,0,0,0,0,0,0,0,0,0,0,0,0,0,0,0,0,0,0,0,0,0,0,0,0,0,0,0,0,0,0,0,0,0,0,0,0,0,0,0,0,0,0,0,0,0,0,0,0,0,0,0,0,0,0,0,0,0,0,0,0,0,0,0,0,0,0,0,0,0,0,0,0,0,0,0,0,0,0,0,0,0,0,0,0,0,0,0,0,0,0,0,0,0,0,0,0,0,0,0,0,0,0,0,0,0,0,0,0,0,0,0,0,0,0,0,0,0,0,0,0,0,0,0,0,0,0,0,0,0,0,0,0,0,0,0,0,0,0,0,0,0,0,0,0,0,0,0,0,0,0,0,0,0,0,0,0,0,0,0,0,0,0,0,0,0,0,0,0,0,0,0,0,0,0,0,0,0,0,0,0,0,0,0,0,0,0,0,0,0,0,0,0,0,0,0,0,0,0,0,0,0,0,0,0,0,0,0,0,0,0,0,0,0,0,0,0,0,0,0,0,0,0,0,0,0,0,0,0,0,0,0,0,0,0,0,0,0,0,0,0,0,0,0,0,0,0,0,0,0,0,0,0,0,0,0,0,0,0,0,0,0,0,0,0,0,0,0,0,0,0,0,0,0,0,0,0,0,0,0,0,0,0,0,0,0,0,0,0,0,0,0,0,0,0,0,0,0,0,0,0,0,0,0,0,0,0,0,0,0,0,0,0,0,0,0,0,0,0,0,0,0,0,0,0,0,0,0,0,0,0,0,0,0,0,0,0,0,0,0,0,0,0,0,0,0,0,0,0,0,0,0,0,0,0,0,0,0,0,0,0,0,0,0,0,0,0,0,0,0,0,0,0,0,0,0,0,0,0,0,0,0,0,0,0,0,0,0,0,0,0,0,0,0,0,0,0,0,0,0,0,0,0,0,0,0,0,0,0,0,0,0,0,0,0,0,0,0,0,0,0,0,0,0,0,0,0,0,0,0,0,0,0,0,0,0,0,0,0,0,0,0,0,0,0,0,0,0,0,0,0,0,0,0,0,0,0,0,0,0,0,0,0,0,0,0,0,0,0,0,0,0,0,0,0,0,0,0,0,0,0,0,0,0,0,0,0,0,0,0,0,0,0,0,0,0,0,0,0,0,0,0,0,0,0,0,0,0,0,0,0,0,0,0,0,0,0,0,0,0,0,0,0,0,0,0,0,0,0,0,0,0,0,0,0,0,0,0,0,0,0,0,0,0,0,0,0,0,0,0,0,0,0,0,0,0,0,0,0,0,0,0,0,0,0,0,0,0,0,0,0,0,0,0,0,0,0,0,0,0,0,0,0,0,0,0,0,0,0,0,0,0,0,0,0,0,0,0,0,0,0,0,0,0,0,0,0,0,0,0,0,0,0,0,0,0,0,0,0,0,0,0,0,0,0,0,0,0,0,0,0,0,0,0,0,0,0,0,0,0,0,0,0,0,0,0,0,0,0,0,0,0,0,0,0,0,0,0,0,0,0,0,0,0,0,0,0,0,0,0,0,0,0,0,0,0,0,0,0,0,0,0,0,0,0,0,0,0,0,0,0,0,0,0,0,0,0,0,0,0,0,0,0,0,0,0,0,0,0,0,0,0,0,0,0,0,0,0,0,0,0,0,0,0,0,0,0,0,0,0,0,0,0,0,0,0,0,0,0,0,0,0,0,0,0,0,0,0,0,0,0,0,0,0,0,0,0,0,0,0,0,0,0,0,0,0,0,0,0,0,0,0,0,0,0,0,0,0,0,0,0,0,0,0,0,0,0,0,0,0,0,0,0,0,0,0,0,0,0,0,0,0,0,0,0,0,0,0,0,0,0,0,0,0,0,0,0,0,0,0,0,0,0,0,0,0,0,0,0,0,0,0,0,0,0,0,0,0,0,0,0,0,0,0,0,0,0,0,0,0,0,0,0,0,0,0,0,0,0,0,0,0,0,0,0,0,0,0,0,0,0,0,0,0,0,0,0,0,0,0,0,0,0,0,0,0,0,0,0,0,0,0,0,0,0,0,0,0,0,0,0,0,0,0,0,0,0,0,0,0,0,0,0,0,0,0,0,0,0,0,0,0,0,0,0,0,0,0,0,0,0,0,0,0,0,0,0,0,0,0,0,0,0,0,0,0,0,0,0,0,0,0,0,0,0,0,0,0,0,0,0,0,0,0,0,0,0,0,0,0,0,0,0,0,0,0,0,0,0,0,0,0,0,0,0,0,0,0,0,0,0,0,0,0,0,0,0,0,0,0,0,0,0,0,0,0,0,0,0,0,0,0,0,0,0,0,0,0,0,0,0,0,0,0,0,0,0,0,0,0,0,0,0,0,0,0,0,0,0,0,0,0,0,0,0,0,0,0,0,0,0,0,0,0,0,0,0,0,0,0,0,0,0,0,0,0,0,0,0,0,0,0,0,0,0,0,0,0,0,0,0,0,0,0,0],"trees":[{"base_weights":[2.3727964E-9,1.4380424E-1,-4.3232864E-1,2.4284929E-1,-1.4742076E-1,-8.865852E-2,-1.3716717E-1,4.0204886E-1,-3.1789264E-1,3.1271675E-1,4.462913E-1,-1.6248412E-1,-1.4627796E-1,3.980468E-1,1.3591103E-1,4.749308E-1,3.0340806E-1,-9.3002394E-2,-1.9040248E-1,8.773259E-2,1.4628558E-1,6.0229667E-2,2.2083246E-4,1.00223295E-1,1.4555025E-1,1.437071E-1,9.599283E-3,-1.854067E-2,-3.312068E-2,-4.7770336E-2,-7.4784696E-2],"categories":[0,1,3,12,18,22,23,26,28,52,53,58,60,65,72,75,76,83,84,87,88,89,91,92,93,94,95,97,99,104,108,110,111,113,114,115,116,117,118,119,120,121,122,123,124,215,216,218,275,283,300,319,335,385,386,387,398,400,481,484,485,487,488,125,126,127,128,133,134,137,138,140,141,149,156,161,166,167,168,169,170,171,172,173,175,178,179,180,181,182,185,189,190,191,217,219,222,228,236,253,257,259,260,261,263,269,270,273,276,278,280,281,282,284,289,290,291,292,293,297,303,305,306,308,309,310,5,98,100,234,307,311,313,314,317,318,320,321,322,323,324,328,330,333,336,338,340,341,342,361,365,367,368,377,378,379,382,389,390,396,406,408,409,422,431,432,433,437,446,452,460,462,464,465,468,478,483,490,493,311,313,314,317,318,320,321,322,323,324,328,336,340,341,342,361,367,368,377,378,379,382,390,396,408,409,422,431,432,433,437,446,452,460,462,464,465,468,478,483,490,493,0,1,2,3,4,5,6,7,8,9,10,11,12,14,17,18,19,20,21,22,23,24,25,26,27,28,29,30,31,32,33,34,35,36,37,38,39,40,41,43,45,46,47,48,50,51,52,53,54,55,56,57,58,59,60,61,62,63,64,65,66,67,68,69,70,71,72,74,75,76,77,78,79,80,81,82,83,84,85,86,87,88,89,90,91,92,93,94,95,96,97,98,99,100,101,102,103,104,105,106,107,108,109,110,111,112,113,114,115,116,117,118,119,120,121,122,123,124,125,126,127,128,129,130,131,132,133,134,135,136,137,138,139,140,141,142,143,144,145,146,147,148,149,150,151,152,155,156,157,160,161,162,163,164,165,166,167,168,169,170,171,172,173,174,175,176,177,178,179,180,181,182,183,184,185,186,187,188,189,190,191,192,193,194,195,196,197,198,199,200,201,202,203,204,205,206,207,208,209,210,211,212,213,214,215,216,217,218,219,220,221,222,223,224,225,226,227,228,229,230,231,232,233,234,235,236,237,238,239,240,241,242,243,244,245,246,247,248,249,250,251,252,253,254,255,256,257,258,259,260,261,262,263,264,265,266,267,268,269,270,271,272,273,274,275,276,277,278,279,280,281,282,283,284,285,286,287,288,289,290,291,292,293,294,295,296,297,299,300,302,303,304,305,306,307,308,309,310,311,312,313,314,315,316,317,318,319,320,321,322,323,324,325,326,327,328,329,330,331,332,333,334,335,336,337,338,340,341,342,343,346,347,349,353,354,355,361,362,363,364,365,367,368,369,370,371,372,373,376,377,378,379,380,381,382,383,384,385,386,387,388,389,390,391,392,393,395,396,397,398,399,400,401,402,403,404,406,407,408,409,410,411,412,413,414,415,416,417,418,419,420,421,422,423,424,426,427,428,429,430,431,432,433,434,435,436,437,438,439,440,441,442,444,445,446,447,448,449,450,451,452,453,454,455,456,457,458,460,461,462,463,464,465,466,467,468,470,471,472,474,475,476,477,478,479,480,481,482,483,484,485,486,487,488,489,490,491,492,493,5,98,100,307,330,333,365,389,406,0,1,2,3,4,5,6,7,8,9,10,11,12,13,14,15,16,17,18,19,20,21,22,23,24,25,26,27,28,29,30,31,32,33,34,35,36,37,38,39,40,41,42,43,44,45,46,47,48,49,50,51,52,53,54,55,57,58,59,60,61,62,63,64,65,66,67,68,69,70,71,72,73,74,75,76,77,78,79,80,81,82,83,84,85,86,87,88,89,90,91,92,93,94,95,96,97,98,99,100,101,102,103,104,105,106,107,108,109,110,111,112,113,114,115,116,117,118,119,120,121,122,123,124,125,126,127,128,129,130,131,132,133,134,135,136,137,138,139,140,141,142,143,144,145,146,147,148,149,150,151,152,153,154,155,156,157,158,159,160,161,162,163,164,165,166,167,168,169,170,171,172,173,174,175,176,177,178,179,180,181,182,183,184,185,186,187,188,189,190,191,192,193,194,195,196,197,198,199,200,201,202,203,204,205,206,207,208,209,210,211,212,213,214,215,216,217,218,219,220,221,222,223,224,225,226,227,228,229,230,231,232,233,234,235,236,237,238,239,240,241,242,243,244,245,246,247,248,249,250,251,252,253,254,255,256,257,258,259,260,261,262,263,264,265,266,267,268,269,270,271,272,273,274,275,276,277,278,279,280,281,282,283,284,285,286,287,288,289,290,291,292,293,294,295,296,297,298,299,300,301,302,303,304,305,306,307,308,309,310,311,312,313,314,315,316,317,318,319,320,321,322,323,324,325,326,327,328,329,330,331,332,333,334,335,336,337,338,339,340,341,342,343,344,345,346,347,348,349,350,351,352,353,354,355,356,357,358,359,360,361,362,364,365,366,367,368,369,370,371,372,373,374,375,377,378,379,380,381,382,383,384,385,386,387,388,389,390,391,392,393,394,395,396,397,398,399,400,401,402,403,404,405,406,407,408,409,410,411,412,413,414,415,416,417,418,419,420,421,422,423,424,425,426,427,428,429,430,431,432,433,434,435,436,437,438,439,440,441,442,443,444,445,446,447,448,449,450,451,452,454,455,457,458,459,460,461,462,463,464,465,466,467,468,469,470,471,472,473,474,475,476,477,478,479,480,481,482,483,484,485,486,487,488,489,490,491,492,493,0,1,3,5,6,7,8,10,11,12,13,14,15,16,17,18,19,20,21,22,23,24,26,27,28,29,30,31,32,33,34,35,36,37,38,39,40,41,42,43,44,45,46,47,48,49,50,51,52,53,54,55,56,57,58,59,60,61,62,63,64,65,66,67,69,70,71,72,73,74,75,76,77,78,79,80,81,82,83,84,86,87,88,89,90,91,92,93,94,95,96,97,98,99,100,101,102,103,104,105,106,107,108,109,110,111,112,113,114,115,116,117,118,119,120,121,122,123,124,125,126,127,128,129,130,131,132,133,134,135,136,137,138,139,140,141,142,143,144,145,146,147,148,149,150,151,152,153,154,155,156,157,158,159,160,161,162,163,164,165,166,167,168,169,170,171,172,173,174,175,176,177,178,179,180,181,182,183,184,185,186,187,188,189,190,191,192,193,194,195,196,197,198,199,200,201,202,203,204,205,206,207,208,209,210,211,212,213,214,215,216,217,218,219,220,221,222,223,224,225,226,227,228,229,230,231,232,233,234,235,236,237,238,239,240,241,242,243,244,245,246,247,248,249,250,253,257,258,259,260,261,262,263,264,265,266,267,269,270,271,272,273,274,275,276,277,278,279,280,281,282,283,284,285,286,287,288,289,290,291,292,293,294,295,296,297,298,299,300,301,302,303,304,305,306,307,308,309,310,311,312,313,314,315,316,317,318,319,320,321,322,323,324,325,326,327,328,329,330,331,332,333,334,335,336,337,338,339,340,341,342,343,344,345,346,347,348,349,350,351,352,353,354,355,356,357,358,359,360,361,362,363,364,365,366,367,368,369,370,371,372,373,374,375,376,377,378,379,380,381,382,383,384,385,386,387,388,389,390,391,392,393,394,395,396,397,398,399,400,401,402,403,404,405,406,407,408,409,410,411,412,413,414,415,416,417,418,419,420,421,422,424,425,426,427,428,429,430,431,432,433,434,437,438,442,443,444,445,446,447,448,449,450,451,452,453,454,455,456,457,458,459,460,461,462,463,464,465,466,467,468,469,470,471,472,473,474,475,476,477,478,480,481,482,483,484,485,486,487,488,489,490,491,492,493,234,100,406],"categories_nodes":[0,1,3,8,9,11,14,16,17,18],"categories_segments":[0,63,126,179,221,680,689,1178,1653,1654],"categories_sizes":[63,63,53,42,459,9,489,475,1,2],"default_left":[1,1,0,1,0,0,0,0,1,0,0,1,0,0,0,0,0,1,1,0,0,0,0,0,0,0,0,0,0,0,0],"id":0,"left_children":[1,3,5,7,-1,-1,-1,9,11,13,15,17,-1,19,21,23,25,27,29,-1,-1,-1,-1,-1,-1,-1,-1,-1,-1,-1,-1],"loss_changes":[3.9105362E1,2.9814785E1,3.9956856E-1,3.6639187E1,0E0,0E0,0E0,1.1212158E0,2.3207092E0,1.5903673E0,7.1933365E-1,7.7343106E-2,0E0,5.479231E-1,3.2422024E-1,8.880234E-2,1.7959011E0,1.8629581E-3,2.2701383E-2,0E0,0E0,0E0,0E0,0E0,0E0,0E0,0E0,0E0,0E0,0E0,0E0],"parents":[2147483647,0,0,1,1,2,2,3,3,7,7,8,8,9,9,10,10,11,11,13,13,14,14,15,15,16,16,17,17,18,18],"right_children":[2,4,6,8,-1,-1,-1,10,12,14,16,18,-1,20,22,24,26,28,30,-1,-1,-1,-1,-1,-1,-1,-1,-1,-1,-1,-1],"split_conditions":[1E-45,1E-45,2E0,1E-45,-1.4742076E-1,-8.865852E-2,-1.3716717E-1,1E0,1E-45,1E-45,1.2E1,1E-45,-1.4627796E-1,6E0,1E-45,-2.5257287E0,1E-45,1E-45,1E-45,8.773259E-2,1.4628558E-1,6.0229667E-2,2.2083246E-4,1.00223295E-1,1.4555025E-1,1.437071E-1,9.599283E-3,-1.854067E-2,-3.312068E-2,-4.7770336E-2,-7.4784696E-2],"split_indices":[0,0,14,0,0,0,0,6,0,0,2,0,0,4,0,15,0,0,0,0,0,0,0,0,0,0,0,0,0,0,0],"split_type":[1,1,0,1,0,0,0,0,1,1,0,1,0,0,1,0,1,1,1,0,0,0,0,0,0,0,0,0,0,0,0],"sum_hessian":[6.27E2,4.71E2,1.56E2,4.08E2,6.3E1,2.6E1,1.3E2,3.18E2,9E1,1.08E2,2.1E2,4.8E1,4.2E1,7.2E1,3.6E1,1.73E2,3.7E1,1.5E1,3.3E1,3.5E1,3.7E1,2.4E1,1.2E1,1.4E1,1.59E2,2.2E1,1.5E1,7E0,8E0,2.4E1,9E0],"tree_param":{"num_deleted":"0","num_feature":"16","num_nodes":"31","size_leaf_vector":"1"}},{"base_weights":[-3.115007E-7,1.008212E-1,-3.056963E-1,1.7048457E-1,-1.04110554E-1,-9.7971514E-2,-6.635564E-2,2.940443E-1,-2.1549095E-1,2.2160324E-1,3.314927E-1,-1.1679758E-1,-1.0308025E-1,2.6344004E-1,4.418316E-2,1.06751315E-1,2.1642001E-1,-7.454957E-2,-1.3546842E-1,6.878644E-2,1.0209942E-1,2.8953305E-2,1.596781E-4,1.0246941E-1,6.899489E-3,-1.3673741E-2,-2.5992883E-2,-3.5310876E-2,-5.0996833E-2],"categories":[0,1,3,12,18,22,23,26,28,52,53,58,60,65,72,75,76,83,84,87,88,89,91,92,93,94,95,97,99,100,104,108,110,111,113,114,115,116,117,118,119,120,121,122,123,124,215,216,218,275,283,300,319,335,385,386,387,398,400,481,484,485,488,125,126,127,128,133,134,137,138,140,141,149,156,161,166,167,168,169,170,171,172,173,311,313,314,317,318,320,321,322,323,324,328,336,340,341,342,361,367,368,377,378,379,382,390,396,408,409,422,431,432,433,437,446,452,460,462,464,465,468,478,483,490,493,5,98,109,150,175,178,179,180,181,182,185,189,190,191,217,219,222,228,234,236,253,257,259,260,261,263,269,270,273,276,278,280,281,282,284,289,290,291,292,293,297,303,305,306,307,308,309,310,330,333,338,365,389,406,487,491,175,178,179,180,181,182,185,189,190,191,217,219,222,228,236,253,257,259,260,261,263,269,270,273,276,278,280,281,282,284,289,290,291,292,293,297,303,305,306,308,309,310,0,1,2,3,4,5,6,7,8,9,10,11,12,14,17,18,19,20,21,22,23,24,25,26,27,28,29,30,31,32,33,34,35,36,37,38,39,40,41,43,45,46,47,48,50,51,52,53,54,55,56,57,58,59,60,61,62,63,64,65,66,67,68,69,70,71,72,74,75,76,77,78,79,80,81,82,83,84,85,86,87,88,89,90,91,92,93,94,95,96,97,98,99,100,101,102,103,104,105,106,107,108,109,110,111,112,113,114,115,116,117,118,119,120,121,122,123,124,125,126,127,128,129,130,131,132,133,134,135,136,137,138,139,140,141,142,143,144,145,146,147,148,149,150,151,152,155,156,157,160,161,162,163,164,165,166,167,168,169,170,171,172,173,174,175,176,177,178,179,180,181,182,183,184,185,186,187,188,189,190,191,192,193,194,195,196,197,198,199,200,201,202,203,204,205,206,207,208,209,210,211,212,213,214,215,216,217,218,219,220,221,222,223,224,225,226,227,228,229,230,231,232,233,234,235,236,237,238,239,240,241,242,243,244,245,246,247,248,249,250,251,252,253,254,255,256,257,258,259,260,261,262,263,264,265,266,267,268,269,270,271,272,273,274,275,276,277,278,279,280,281,282,283,284,285,286,287,288,289,290,291,292,293,294,295,296,297,299,300,302,303,304,305,306,307,308,309,310,311,312,313,314,315,316,317,318,319,320,321,322,323,324,325,326,327,328,329,330,331,332,333,334,335,336,337,338,340,341,342,343,346,347,349,353,354,355,361,362,363,364,365,367,368,369,370,371,372,373,376,377,378,379,380,381,382,383,384,385,386,387,388,389,390,391,392,393,395,396,397,398,399,400,401,402,403,404,406,407,408,409,410,411,412,413,414,415,416,417,418,419,420,421,422,423,424,426,427,428,429,430,431,432,433,434,435,436,437,438,439,440,441,442,444,445,446,447,448,449,450,451,452,454,455,457,458,460,461,462,463,464,465,466,467,468,470,471,472,474,475,476,477,478,479,480,481,482,483,484,485,486,487,488,489,490,491,492,493,5,98,109,307,330,333,365,389,406,487,491,0,1,2,3,4,5,6,7,8,9,10,11,12,13,14,15,16,17,18,19,20,21,22,23,24,25,26,27,28,29,30,31,32,33,34,35,36,37,38,39,40,41,42,43,44,45,46,47,48,49,50,51,52,53,54,55,57,58,59,60,61,62,63,64,65,66,67,68,69,70,71,72,73,74,75,76,77,78,79,80,81,82,83,84,85,86,87,88,89,90,91,92,93,94,95,96,97,98,99,100,101,102,103,104,105,106,107,108,109,110,111,112,113,114,115,116,117,118,119,120,121,122,123,124,125,126,127,128,129,130,131,132,133,134,135,136,137,138,139,140,141,142,143,144,145,146,147,148,149,150,151,152,153,154,155,156,157,158,159,160,161,162,163,164,165,166,167,168,169,170,171,172,173,174,175,176,177,178,179,180,181,182,183,184,185,186,187,188,189,190,191,192,193,194,195,196,197,198,199,200,201,202,203,204,205,206,207,208,209,210,211,212,213,214,215,216,217,218,219,220,221,222,223,224,225,226,227,228,229,230,231,232,233,234,235,236,237,238,239,240,241,242,243,244,245,246,247,248,249,250,251,252,253,254,255,256,257,258,259,260,261,262,263,264,265,266,267,268,269,270,271,272,273,274,275,276,277,278,279,280,281,282,283,284,285,286,287,288,289,290,291,292,293,294,295,296,297,298,299,300,301,302,303,304,